{
  "net.0.weight": [
    [
      -0.13417010009288788,
      -1.086870789527893,
      0.20427781343460083,
      0.800146222114563,
      0.8892316818237305,
      -0.5250293612480164,
      0.02848617359995842,
      -0.17211145162582397,
      0.9559708833694458,
      -0.08799843490123749,
      0.2604934573173523,
      0.8216329216957092,
      -0.7202699780464172,
      0.07763572037220001,
      0.07489234954118729,
      -0.6704278588294983,
      0.3623746335506439,
      -1.210400938987732,
      -0.2756167948246002,
      1.0604044198989868,
      1.1025713682174683,
      0.8006654977798462,
      -0.12634395062923431,
      -1.4237107038497925,
      -0.3948003053665161,
      1.2330348491668701,
      -0.7814924120903015,
      -1.014818787574768,
      1.1006911993026733,
      0.8882280588150024,
      0.5593612790107727,
      0.07049380987882614
    ],
    [
      -0.021627971902489662,
      -1.416261911392212,
      -3.4580941200256348,
      -0.2690366804599762,
      -2.1161346435546875,
      0.06436419486999512,
      0.14140233397483826,
      -3.1090457439422607,
      0.27233150601387024,
      -0.016199596226215363,
      3.3633339405059814,
      0.06586528569459915,
      -0.8639382123947144,
      2.3099520206451416,
      -0.8672602772712708,
      -0.9736560583114624,
      4.212808132171631,
      0.4680948555469513,
      0.6597102880477905,
      -1.3827242851257324,
      -0.18118281662464142,
      -1.174850583076477,
      1.7734984159469604,
      0.8546017408370972,
      -0.3515737056732178,
      0.1339942365884781,
      -2.604182720184326,
      -0.1638648509979248,
      1.7572261095046997,
      -0.006978043355047703,
      0.39149415493011475,
      -1.5929118394851685
    ],
    [
      -0.15992924571037292,
      -1.6175609827041626,
      0.5810027122497559,
      -1.7229914665222168,
      0.7010524272918701,
      -0.557064950466156,
      -1.5202155113220215,
      -0.41654372215270996,
      -0.4286966621875763,
      -0.5584239959716797,
      1.5716216564178467,
      -1.3130135536193848,
      -1.2934086322784424,
      1.3880196809768677,
      -0.7172168493270874,
      -0.8751397728919983,
      0.262360155582428,
      0.4544790983200073,
      -1.7371042966842651,
      0.9858222603797913,
      -0.5925595164299011,
      1.238558292388916,
      -0.8820623755455017,
      -0.8609570860862732,
      0.6421436071395874,
      -0.35318708419799805,
      0.6001505255699158,
      -0.3040258586406708,
      1.0062159299850464,
      2.1668012142181396,
      1.2581565380096436,
      -0.08701715618371964
    ],
    [
      -12.047273635864258,
      -0.3006569743156433,
      -0.5710666179656982,
      0.18826545774936676,
      0.3596341013908386,
      -0.1814020425081253,
      -1.8911323547363281,
      -1.9517323970794678,
      -8.606802940368652,
      0.2920129895210266,
      -2.37070369720459,
      0.23272892832756042,
      -0.38412585854530334,
      -2.5677804946899414,
      -0.9721155166625977,
      0.05395415425300598,
      -2.4444849491119385,
      -1.8313992023468018,
      -0.6619322896003723,
      -0.8323295712471008,
      1.0226719379425049,
      -0.3286339044570923,
      -0.48506030440330505,
      -0.5891270637512207,
      0.5563749074935913,
      -0.5588539242744446,
      -2.239804267883301,
      -0.6431741714477539,
      -1.158461332321167,
      -0.18293225765228271,
      0.5450007915496826,
      -1.4274296760559082
    ],
    [
      0.6482435464859009,
      -1.2622202634811401,
      -3.361180067062378,
      -0.2982301115989685,
      -1.1471543312072754,
      -0.14299806952476501,
      -0.7847633361816406,
      -0.502413809299469,
      -0.5142462849617004,
      -1.6801400184631348,
      0.37030529975891113,
      -1.2953544855117798,
      -0.6558650732040405,
      1.2943254709243774,
      -0.5606313347816467,
      -0.9940693378448486,
      0.17929889261722565,
      -2.672870635986328,
      -0.38266435265541077,
      -0.4045809507369995,
      -1.2452096939086914,
      -0.36317968368530273,
      -0.027525940909981728,
      -1.0237857103347778,
      0.5688005089759827,
      -0.042367227375507355,
      -0.16814514994621277,
      -1.148520588874817,
      -3.6348929405212402,
      0.2693304419517517,
      -0.7430710792541504,
      -0.33401450514793396
    ],
    [
      -0.5175063610076904,
      -0.37082594633102417,
      -0.3962714672088623,
      -0.35317063331604004,
      1.1416170597076416,
      -4.807535171508789,
      -2.0577542781829834,
      1.0564910173416138,
      -0.5534825921058655,
      0.07421036064624786,
      -0.38810995221138,
      0.4653327167034149,
      -0.427952378988266,
      -0.6189979910850525,
      -1.1624857187271118,
      -0.347078412771225,
      -1.4576482772827148,
      -0.24403497576713562,
      -0.6185248494148254,
      -0.3596777319908142,
      0.3341123163700104,
      -0.6140578389167786,
      -0.9415869116783142,
      -0.3873911201953888,
      -0.778917133808136,
      -5.317715644836426,
      0.2555443346500397,
      0.6324841976165771,
      0.4534091651439667,
      -2.407196283340454,
      0.4723227322101593,
      0.302967369556427
    ]
  ],
  "net.1.weight": [
    [
      -1.7845745086669922,
      -0.5790504217147827,
      0.5277776718139648
    ],
    [
      -0.18300482630729675,
      -0.35205891728401184,
      -1.0003740787506104
    ],
    [
      1.724431037902832,
      1.646187424659729,
      2.2334988117218018
    ],
    [
      -0.5708616971969604,
      -0.5921564102172852,
      -0.6725801825523376
    ],
    [
      -0.4136494994163513,
      -0.3936769664287567,
      -0.5827378630638123
    ],
    [
      -1.115967869758606,
      -1.1476147174835205,
      -1.0988582372665405
    ],
    [
      2.0049357414245605,
      1.0265510082244873,
      -0.9676458835601807
    ],
    [
      -0.07879102975130081,
      -0.5603391528129578,
      -1.735808253288269
    ],
    [
      -2.8224737644195557,
      -1.7481307983398438,
      0.22618544101715088
    ],
    [
      -0.2909616529941559,
      -0.02982468158006668,
      0.7025308012962341
    ],
    [
      -1.7852227687835693,
      -2.0249531269073486,
      -2.860814332962036
    ],
    [
      -0.48536378145217896,
      -0.5389399528503418,
      -1.0690394639968872
    ],
    [
      -0.4980907440185547,
      -0.5270876884460449,
      0.7398337125778198
    ],
    [
      0.8526819944381714,
      1.0761204957962036,
      1.378961443901062
    ],
    [
      -0.24311497807502747,
      -0.16297206282615662,
      1.5211948156356812
    ],
    [
      -0.38128888607025146,
      -0.07845402508974075,
      -0.44120553135871887
    ],
    [
      -1.609651803970337,
      -1.6726248264312744,
      -2.2583365440368652
    ],
    [
      -3.954554557800293,
      -2.1327712535858154,
      -1.4894825220108032
    ],
    [
      -0.5556279420852661,
      -0.38456153869628906,
      -1.2315112352371216
    ],
    [
      -1.1509816646575928,
      -1.1044552326202393,
      -1.0630109310150146
    ],
    [
      -1.0911834239959717,
      -0.8124889135360718,
      -0.4144637882709503
    ],
    [
      -0.7274720072746277,
      -0.5342982411384583,
      -0.5070823431015015
    ],
    [
      -0.45314499735832214,
      -0.5001294016838074,
      -0.4254489839076996
    ],
    [
      -1.093113899230957,
      -1.1723780632019043,
      -1.1579720973968506
    ],
    [
      0.4400773346424103,
      0.17447328567504883,
      -0.28096863627433777
    ],
    [
      1.8044333457946777,
      1.2134708166122437,
      0.5597820281982422
    ],
    [
      -1.8810433149337769,
      -1.3560714721679688,
      -1.0613956451416016
    ],
    [
      -0.35315918922424316,
      -0.23997047543525696,
      -0.2360796183347702
    ],
    [
      -3.9986913204193115,
      -4.4943084716796875,
      -6.244617938995361
    ],
    [
      -1.0194659233093262,
      -0.9273694157600403,
      -0.8380861282348633
    ],
    [
      0.746305525302887,
      0.3969241678714752,
      -0.09342177212238312
    ],
    [
      -0.5300980806350708,
      0.11024287343025208,
      -0.017371071502566338
    ]
  ],
  "bound": 8.0,
  "cascade": 4
}