{
  "net.0.weight": [
    [
      -0.20317904651165009,
      -0.33567771315574646,
      0.35065922141075134,
      -0.28260862827301025,
      -0.0641426295042038,
      -0.5688342452049255,
      -0.04537924751639366,
      0.2168288230895996,
      0.5004469156265259,
      -0.22557517886161804,
      -0.06137920171022415,
      0.2619536817073822,
      0.5461143851280212,
      -0.3591211140155792,
      1.198677659034729,
      -0.9148213267326355,
      -0.28983092308044434,
      -0.874864399433136,
      0.04381760209798813,
      -0.004506468772888184,
      0.34330013394355774,
      -0.027891436591744423,
      0.008193744346499443,
      -0.07713483273983002,
      0.8638590574264526,
      1.1976006031036377,
      -0.7541212439537048,
      -0.7522605657577515,
      -0.2701456844806671,
      0.0819426104426384,
      -0.4678366482257843,
      0.08107473701238632
    ],
    [
      0.2687362730503082,
      -0.7882410883903503,
      -0.828307569026947,
      0.3669312298297882,
      0.47567322850227356,
      -0.2434581071138382,
      -0.044631510972976685,
      0.3052355945110321,
      0.15756474435329437,
      -0.3505028784275055,
      -0.20616614818572998,
      1.3448718786239624,
      -0.5191910266876221,
      -0.6980279684066772,
      0.8365811109542847,
      0.21773143112659454,
      -0.6841393113136292,
      -0.5552574396133423,
      -0.3636474907398224,
      0.203653022646904,
      -1.0573588609695435,
      -0.4202720820903778,
      -0.002680242760106921,
      -0.013313698582351208,
      0.02611963264644146,
      -0.09477899968624115,
      -0.4191586673259735,
      -0.14642921090126038,
      0.31742551922798157,
      0.6586940884590149,
      -0.20401975512504578,
      -0.536041796207428
    ],
    [
      0.9334437251091003,
      0.3733736276626587,
      -0.34948933124542236,
      -0.863014280796051,
      0.9975301623344421,
      -0.3241739273071289,
      0.13576270639896393,
      0.008706054650247097,
      0.6274461150169373,
      0.9045171737670898,
      -0.3946537375450134,
      -0.9540669322013855,
      -0.07403914630413055,
      0.06883463263511658,
      0.23906011879444122,
      -0.14525136351585388,
      -0.13869820535182953,
      -0.1518743634223938,
      0.5651066303253174,
      0.9906057715415955,
      -0.285967618227005,
      -0.05397440865635872,
      0.054373469203710556,
      -1.4296720027923584,
      -0.484970360994339,
      -0.03726942837238312,
      -0.018146511167287827,
      -0.0723826140165329,
      0.5263612866401672,
      1.1611779928207397,
      -0.5902329087257385,
      0.2142277956008911
    ],
    [
      1.1156501770019531,
      1.0190683603286743,
      -2.454639434814453,
      -0.48462730646133423,
      -1.0794451236724854,
      0.9068042039871216,
      -0.9112615585327148,
      -1.2288179397583008,
      -2.579847812652588,
      -1.1872519254684448,
      -1.3085428476333618,
      -0.7096421718597412,
      -3.054304838180542,
      -2.4560463428497314,
      -1.1559672355651855,
      -0.5079405307769775,
      -2.419638156890869,
      -1.8166006803512573,
      -1.0388492345809937,
      -6.044753074645996,
      1.0966734886169434,
      0.6598211526870728,
      -0.2482837438583374,
      -0.34671181440353394,
      1.0113810300827026,
      0.3632862865924835,
      -0.8723202347755432,
      0.9605874419212341,
      -2.6531856060028076,
      -1.153984546661377,
      0.7898574471473694,
      -0.7459837198257446
    ],
    [
      0.9675108790397644,
      -5.580120086669922,
      -2.030010223388672,
      0.2619304358959198,
      0.3727456033229828,
      -0.26103776693344116,
      -0.006327164359390736,
      1.1483815908432007,
      -1.0279293060302734,
      -1.1461849212646484,
      0.12222518026828766,
      -1.9738503694534302,
      0.9962784647941589,
      -0.3525324761867523,
      0.5905779004096985,
      0.7021650075912476,
      2.042067527770996,
      2.3193135261535645,
      0.05296244099736214,
      0.8770703673362732,
      0.6993654370307922,
      -0.69389408826828,
      -0.16566437482833862,
      -3.935973882675171,
      1.0735523700714111,
      -5.8325090408325195,
      -0.13867536187171936,
      -0.18263773620128632,
      0.35109320282936096,
      1.4001103639602661,
      -0.08002753555774689,
      0.7655997276306152
    ],
    [
      -3.3294501304626465,
      -0.6549151539802551,
      0.6783438324928284,
      0.3096165359020233,
      -1.055889368057251,
      0.608481228351593,
      0.666174054145813,
      -5.1913299560546875,
      -0.40091535449028015,
      -1.1009395122528076,
      0.9989819526672363,
      0.6481541991233826,
      -2.1880345344543457,
      -2.5011351108551025,
      -0.7202131748199463,
      -3.409514904022217,
      -5.707962512969971,
      -0.038278307765722275,
      0.5352946519851685,
      -0.2895843982696533,
      -3.388155221939087,
      1.0685653686523438,
      -0.13739359378814697,
      0.10766062885522842,
      0.47007906436920166,
      -0.2711319029331207,
      0.09932463616132736,
      0.8478363752365112,
      1.2541271448135376,
      -5.962685585021973,
      0.09004624933004379,
      0.8782075643539429
    ]
  ],
  "net.1.weight": [
    [
      0.9021329879760742,
      0.9132221937179565,
      1.0594738721847534
    ],
    [
      0.9002439379692078,
      1.0806195735931396,
      1.373072624206543
    ],
    [
      -0.7848322987556458,
      -0.8354695439338684,
      -0.958752453327179
    ],
    [
      -0.19252470135688782,
      -0.23359429836273193,
      -0.37414535880088806
    ],
    [
      -0.8391382694244385,
      -0.1905827671289444,
      -0.08121924102306366
    ],
    [
      -0.34748756885528564,
      -0.4302104711532593,
      -0.31028062105178833
    ],
    [
      0.03905380517244339,
      0.08136637508869171,
      -0.40519657731056213
    ],
    [
      -1.7822142839431763,
      -0.36342206597328186,
      -0.05888081714510918
    ],
    [
      -0.5055410265922546,
      -0.5693959593772888,
      -0.4950634837150574
    ],
    [
      -0.19318713247776031,
      0.0042746225371956825,
      -0.5614989995956421
    ],
    [
      0.43231403827667236,
      0.17926307022571564,
      -0.3642216622829437
    ],
    [
      -0.7708122134208679,
      -0.8911531567573547,
      -1.139670491218567
    ],
    [
      0.9605890512466431,
      0.9313902854919434,
      1.1906083822250366
    ],
    [
      0.6912003755569458,
      -0.003868682309985161,
      0.037367843091487885
    ],
    [
      0.6899331212043762,
      0.727050244808197,
      0.8245207071304321
    ],
    [
      0.6687203049659729,
      0.7222146391868591,
      0.8556193709373474
    ],
    [
      0.7405790090560913,
      1.7003129720687866,
      2.140685558319092
    ],
    [
      -1.2457959651947021,
      -1.03801691532135,
      -0.9984477162361145
    ],
    [
      -0.16012336313724518,
      -0.3380008041858673,
      0.06691235303878784
    ],
    [
      1.4276938438415527,
      -0.07328416407108307,
      -0.20187704265117645
    ],
    [
      -0.9536517262458801,
      -1.07485830783844,
      -1.3921993970870972
    ],
    [
      -0.14607569575309753,
      -0.23129354417324066,
      -0.5718832612037659
    ],
    [
      0.04359119385480881,
      -0.06725578755140305,
      0.03372557461261749
    ],
    [
      0.9015600681304932,
      0.9555961489677429,
      1.1673601865768433
    ],
    [
      -0.44133302569389343,
      -0.48026618361473083,
      -0.6042898893356323
    ],
    [
      -1.0669689178466797,
      -1.1635092496871948,
      -1.5125479698181152
    ],
    [
      0.15799474716186523,
      -0.2305498868227005,
      -0.7078151702880859
    ],
    [
      -0.4366369843482971,
      -0.5118430256843567,
      -0.5881885290145874
    ],
    [
      0.7750548124313354,
      0.7288864254951477,
      0.7085862159729004
    ],
    [
      -0.3802117705345154,
      -1.2650477886199951,
      -1.7977687120437622
    ],
    [
      -0.33285653591156006,
      -0.20620237290859222,
      -0.36704400181770325
    ],
    [
      0.26905661821365356,
      0.22771300375461578,
      0.1122094914317131
    ]
  ],
  "bound": 8.0,
  "cascade": 4
}