{
  "net.0.weight": [
    [
      0.4615802764892578,
      0.9460146427154541,
      1.0487490892410278,
      -0.11484914273023605,
      -0.6046766638755798,
      0.44507351517677307,
      1.6511716842651367,
      -0.7203818559646606,
      -0.43114838004112244,
      0.18494674563407898,
      0.6781232953071594,
      -1.433822751045227,
      0.31373468041419983,
      0.7318732738494873,
      -0.3623385429382324,
      -0.765285074710846,
      -1.3384023904800415,
      -0.14336951076984406,
      0.5094943642616272,
      0.5997676849365234,
      -0.5693591237068176,
      -0.5490244030952454,
      -0.5932237505912781,
      0.47960054874420166,
      0.7832276821136475,
      -0.4446663558483124,
      -0.04308927059173584,
      -0.8296648263931274,
      0.7043540477752686,
      0.10217651724815369,
      0.43146565556526184,
      0.951369047164917
    ],
    [
      -0.1282961368560791,
      -0.43971821665763855,
      2.471036434173584,
      -1.3496206998825073,
      -0.3733629286289215,
      -0.17893630266189575,
      -0.3720279335975647,
      0.42858201265335083,
      -1.1771796941757202,
      1.415419101715088,
      1.1128900051116943,
      -0.09945740550756454,
      1.0482454299926758,
      -0.9961497783660889,
      -0.2273460477590561,
      -0.4552745521068573,
      -0.4989576041698456,
      -0.10558664053678513,
      -1.6826742887496948,
      -0.7387576103210449,
      -0.9517019987106323,
      -0.7094970345497131,
      0.01594235934317112,
      -0.15759733319282532,
      1.4463592767715454,
      -0.2757217288017273,
      -1.0696723461151123,
      0.9303937554359436,
      0.19963181018829346,
      -0.3305937349796295,
      -0.547312319278717,
      1.0390375852584839
    ],
    [
      -0.4712843596935272,
      -0.4809533357620239,
      -0.2713926434516907,
      -0.2192598283290863,
      1.3351622819900513,
      0.8672382831573486,
      -0.011523976922035217,
      -0.9043303728103638,
      -0.32020100951194763,
      -2.6059606075286865,
      0.7290522456169128,
      0.9453638195991516,
      -0.16117486357688904,
      0.9965566992759705,
      0.5298737287521362,
      -1.1361576318740845,
      -1.4580776691436768,
      1.0540595054626465,
      -0.02805843949317932,
      -1.7027606964111328,
      1.5939406156539917,
      -0.46274131536483765,
      1.3719326257705688,
      1.2869114875793457,
      -1.1474329233169556,
      1.1056303977966309,
      1.286716341972351,
      -0.687203049659729,
      -0.3219108283519745,
      -0.4995099902153015,
      0.9714601039886475,
      0.9725247025489807
    ],
    [
      -0.07569552212953568,
      -4.811962604522705,
      0.1234385147690773,
      -1.2910696268081665,
      -1.0332400798797607,
      0.05877593904733658,
      -0.5324090123176575,
      -0.8879855871200562,
      0.4807487428188324,
      -0.6017832159996033,
      -1.4410861730575562,
      -0.4402000606060028,
      1.0970755815505981,
      0.21531032025814056,
      -0.2874109148979187,
      0.10914160311222076,
      -0.9561871290206909,
      -0.4053775668144226,
      0.08174309134483337,
      -0.015383468009531498,
      -0.9356068968772888,
      -1.2208057641983032,
      -0.8425158262252808,
      0.8766362071037292,
      -0.09155968576669693,
      -4.731351375579834,
      -1.7290842533111572,
      -0.915519118309021,
      0.060206953436136246,
      0.4701616168022156,
      0.5905833840370178,
      0.1436132937669754
    ],
    [
      -1.302963376045227,
      0.04499281197786331,
      -1.396501064300537,
      -0.14291390776634216,
      -1.2303532361984253,
      -1.0698988437652588,
      0.19161660969257355,
      0.28673744201660156,
      0.3570593297481537,
      -0.9291606545448303,
      -0.5764237642288208,
      -0.9648579359054565,
      -1.8016890287399292,
      -1.8028042316436768,
      0.11603347212076187,
      0.32776305079460144,
      -1.4411627054214478,
      0.2596903145313263,
      -0.4367120862007141,
      -0.6008261442184448,
      -1.3387802839279175,
      -0.5957635641098022,
      -1.302913784980774,
      -0.7138528227806091,
      -1.5949465036392212,
      -0.7045193314552307,
      -0.5577349066734314,
      0.34412530064582825,
      -1.7542953491210938,
      -0.23960167169570923,
      -0.5105066299438477,
      -1.2019612789154053
    ],
    [
      -0.20415107905864716,
      -0.16332848370075226,
      -2.0162851810455322,
      -1.0336674451828003,
      -0.018741298466920853,
      -0.19119974970817566,
      0.05717221274971962,
      -0.2468165159225464,
      -1.8459081649780273,
      -0.15085141360759735,
      0.36951661109924316,
      -0.26253169775009155,
      -0.6796374320983887,
      -1.3763765096664429,
      -0.791476845741272,
      -2.1141409873962402,
      -6.935978889465332,
      -3.6806845664978027,
      0.3864063322544098,
      -4.196891784667969,
      -0.04847371578216553,
      0.912946879863739,
      -0.23091556131839752,
      -0.18577514588832855,
      -0.9379647970199585,
      -0.27103379368782043,
      -0.4736006557941437,
      1.4306222200393677,
      0.5240485668182373,
      -0.3124634623527527,
      -0.6180287599563599,
      1.3011837005615234
    ]
  ],
  "net.1.weight": [
    [
      0.3780181407928467,
      0.13473129272460938,
      -0.4766579270362854
    ],
    [
      1.0752110481262207,
      1.0337580442428589,
      1.0783655643463135
    ],
    [
      -1.8544808626174927,
      -1.6680797338485718,
      -1.5235059261322021
    ],
    [
      -0.9129167199134827,
      -1.0119760036468506,
      -1.0529475212097168
    ],
    [
      -0.8909409642219543,
      -0.7459831237792969,
      -1.0548679828643799
    ],
    [
      0.36889922618865967,
      0.23669199645519257,
      -0.4182034134864807
    ],
    [
      -0.4418930113315582,
      -0.3883713185787201,
      -0.46069568395614624
    ],
    [
      0.20885269343852997,
      -0.05189281329512596,
      -0.043243639171123505
    ],
    [
      -0.8537628650665283,
      -0.7652517557144165,
      -0.9260032176971436
    ],
    [
      -1.6790075302124023,
      -1.692091703414917,
      -1.6036499738693237
    ],
    [
      0.8594716787338257,
      0.8932620882987976,
      1.053269624710083
    ],
    [
      -0.21663641929626465,
      -0.12947188317775726,
      -0.16054052114486694
    ],
    [
      -2.8570785522460938,
      -2.915574312210083,
      -2.6955666542053223
    ],
    [
      2.2308998107910156,
      2.3032236099243164,
      3.053527355194092
    ],
    [
      -0.13854674994945526,
      -0.04122242331504822,
      0.3004170358181
    ],
    [
      1.059873104095459,
      1.0500528812408447,
      1.2195662260055542
    ],
    [
      1.043039321899414,
      -6.240152359008789,
      -1.050589680671692
    ],
    [
      1.0976582765579224,
      1.0618764162063599,
      1.0054563283920288
    ],
    [
      -0.5349617600440979,
      -0.5475339889526367,
      -0.5826194286346436
    ],
    [
      -1.8238072395324707,
      -1.7780557870864868,
      -2.0079667568206787
    ],
    [
      -1.9553349018096924,
      -1.8680932521820068,
      -2.0244643688201904
    ],
    [
      0.5520180463790894,
      0.6377899646759033,
      0.593778669834137
    ],
    [
      -2.540893316268921,
      -2.702418804168701,
      -2.493896245956421
    ],
    [
      -0.36598193645477295,
      -0.353385865688324,
      -0.532176673412323
    ],
    [
      -1.2002314329147339,
      -1.2012135982513428,
      -2.383226156234741
    ],
    [
      -2.4506711959838867,
      -1.9288363456726074,
      -1.615803599357605
    ],
    [
      -0.4512356221675873,
      -0.418734610080719,
      -0.5881051421165466
    ],
    [
      1.0182334184646606,
      1.0051147937774658,
      1.114974856376648
    ],
    [
      0.2404298484325409,
      0.47532832622528076,
      0.7582780718803406
    ],
    [
      0.16514840722084045,
      -0.012694996781647205,
      -0.4857434928417206
    ],
    [
      -0.12239313870668411,
      -0.2343726009130478,
      -0.34476548433303833
    ],
    [
      -1.164825201034546,
      -1.152957558631897,
      -1.197197437286377
    ]
  ],
  "bound": 1.0,
  "cascade": 1
}