{
  "net.0.weight": [
    [
      -0.0535430908203125,
      -0.1304294317960739,
      -0.3838430941104889,
      0.3913227319717407,
      -0.2941133379936218,
      -0.1630275845527649,
      0.03962017595767975,
      -0.6564763188362122,
      0.0011153359664604068,
      0.3294825851917267,
      0.09967747330665588,
      0.7719740867614746,
      0.6278191804885864,
      0.4643651843070984,
      -0.8399147987365723,
      -0.09916726499795914,
      -0.2772500514984131,
      0.6752510666847229,
      -0.3364543914794922,
      0.41735202074050903,
      -0.392001211643219,
      -0.02765718847513199,
      0.027664633467793465,
      0.009503984823822975,
      0.2672887146472931,
      0.2843136489391327,
      0.27722233533859253,
      -0.5012927651405334,
      0.4761509299278259,
      1.2944793701171875,
      0.22330109775066376,
      0.1266079545021057
    ],
    [
      0.37809574604034424,
      0.2810748517513275,
      0.6617263555526733,
      -0.35576024651527405,
      -0.6532377600669861,
      -0.4303475022315979,
      -0.15358282625675201,
      -0.051497362554073334,
      -1.3323792219161987,
      -0.7164744734764099,
      0.0018019237322732806,
      -1.6336252689361572,
      -0.28888803720474243,
      -0.861764669418335,
      -0.9315202832221985,
      -0.056463081389665604,
      -0.5463672876358032,
      -0.9375050067901611,
      -0.6525522470474243,
      -0.26723751425743103,
      -0.47396764159202576,
      -1.1299196481704712,
      -0.9569138884544373,
      0.41326090693473816,
      0.31739047169685364,
      0.5670090317726135,
      -0.35993021726608276,
      1.1165379285812378,
      -0.26752594113349915,
      0.008933117613196373,
      0.8231417536735535,
      0.38134121894836426
    ],
    [
      -0.3612687289714813,
      -1.7446783781051636,
      -0.58358234167099,
      -0.1260889619588852,
      2.26366925239563,
      0.03468897566199303,
      -0.0868237167596817,
      0.10125907510519028,
      -0.3843374252319336,
      -1.4829374551773071,
      0.1959107518196106,
      0.39895370602607727,
      0.1633254736661911,
      -0.4026048183441162,
      -0.38963744044303894,
      0.4033350944519043,
      0.5813354849815369,
      -1.4099342823028564,
      0.48143240809440613,
      -0.09578436613082886,
      -0.4717963933944702,
      -1.0020205974578857,
      1.6971409320831299,
      1.5833766460418701,
      0.7718086242675781,
      0.9082093238830566,
      2.2296082973480225,
      -0.834797739982605,
      -0.11119957268238068,
      -0.39765092730522156,
      0.11732573807239532,
      1.5436077117919922
    ],
    [
      0.04482119157910347,
      -0.5486425161361694,
      -0.1400703340768814,
      -0.09011754393577576,
      -1.4259718656539917,
      0.4009331166744232,
      -0.11329618841409683,
      -0.13655325770378113,
      0.9595186114311218,
      1.0011804103851318,
      -0.048043642193078995,
      -0.3420834243297577,
      0.3838551342487335,
      -0.01761765591800213,
      -0.19528615474700928,
      0.2876765727996826,
      0.5672690272331238,
      0.10662762820720673,
      -0.04759461060166359,
      -0.27729541063308716,
      -0.125431090593338,
      -1.5807536840438843,
      -0.844528079032898,
      -1.5543832778930664,
      0.30415043234825134,
      0.9046000242233276,
      -16.04289436340332,
      -0.17121028900146484,
      -0.3295513689517975,
      0.27995312213897705,
      -5.981626033782959,
      -0.5203640460968018
    ],
    [
      -0.19708026945590973,
      -0.4170703589916229,
      0.08763279020786285,
      -0.03579636663198471,
      0.7896257042884827,
      1.6542863845825195,
      0.4841168522834778,
      -4.955010890960693,
      1.138685703277588,
      0.45451483130455017,
      0.2918172776699066,
      1.9122107028961182,
      0.5134259462356567,
      0.6502314209938049,
      1.2562079429626465,
      0.7390087842941284,
      1.3893940448760986,
      0.9150537252426147,
      -0.0628361776471138,
      -0.3677847683429718,
      0.4366803765296936,
      -0.14444056153297424,
      0.2100936621427536,
      0.1468641608953476,
      0.5924192667007446,
      0.3796432614326477,
      1.076982021331787,
      0.22640834748744965,
      -0.4598936140537262,
      -0.8100664615631104,
      -0.7276143431663513,
      -0.4409441351890564
    ],
    [
      -4.611691474914551,
      -0.8171973824501038,
      0.14958341419696808,
      -0.2396160066127777,
      -1.692765474319458,
      -0.31266045570373535,
      0.5508779287338257,
      -1.1209434270858765,
      -1.4513341188430786,
      -1.1610469818115234,
      0.2865529954433441,
      0.14987558126449585,
      -0.38679829239845276,
      -1.06210196018219,
      0.5366672277450562,
      0.3030799329280853,
      -0.04154917970299721,
      -1.8440407514572144,
      0.42662832140922546,
      -0.49656063318252563,
      -3.497561454772949,
      1.0840424299240112,
      -1.987501621246338,
      1.1050052642822266,
      -0.3296222686767578,
      -2.5041396617889404,
      -1.3442078828811646,
      0.5032278895378113,
      -0.03145882487297058,
      0.40221700072288513,
      0.4751228392124176,
      1.5085062980651855
    ]
  ],
  "net.1.weight": [
    [
      1.3540129661560059,
      0.9991650581359863,
      0.44350579380989075
    ],
    [
      0.765098512172699,
      0.848141610622406,
      0.7627473473548889
    ],
    [
      -0.4122089743614197,
      -0.24707306921482086,
      -0.31558308005332947
    ],
    [
      0.26342013478279114,
      0.06548968702554703,
      0.016368376091122627
    ],
    [
      -1.3506735563278198,
      -1.5492141246795654,
      -1.8115507364273071
    ],
    [
      0.26166149973869324,
      -0.26275041699409485,
      -0.6395021080970764
    ],
    [
      -0.04503878578543663,
      -0.08601271361112595,
      -0.08055479824542999
    ],
    [
      1.4016517400741577,
      1.619581699371338,
      1.6404378414154053
    ],
    [
      -1.2316553592681885,
      -1.3659749031066895,
      -1.5122101306915283
    ],
    [
      -1.127288579940796,
      -1.0744627714157104,
      -0.810734212398529
    ],
    [
      0.046853844076395035,
      -0.12556593120098114,
      0.03628351166844368
    ],
    [
      1.1959325075149536,
      1.3563742637634277,
      1.410530686378479
    ],
    [
      0.25923222303390503,
      0.086302250623703,
      -0.4443635642528534
    ],
    [
      -0.3236314654350281,
      0.24206680059432983,
      0.7217466235160828
    ],
    [
      -0.5614262819290161,
      -0.5921956300735474,
      -0.6404839158058167
    ],
    [
      -0.10028905421495438,
      -0.14565210044384003,
      -0.23837995529174805
    ],
    [
      -0.6816990375518799,
      -0.5357364416122437,
      -0.4342269003391266
    ],
    [
      1.4492206573486328,
      1.7086811065673828,
      1.7016348838806152
    ],
    [
      -0.2042265683412552,
      0.20170874893665314,
      0.41192442178726196
    ],
    [
      -0.04727986454963684,
      -0.15043145418167114,
      0.006606146693229675
    ],
    [
      -0.6605775356292725,
      -1.3084747791290283,
      -1.535117506980896
    ],
    [
      0.19756363332271576,
      0.5953800082206726,
      0.799380898475647
    ],
    [
      -1.718423843383789,
      -2.4718775749206543,
      -2.6928837299346924
    ],
    [
      -0.5286197066307068,
      -0.6700302958488464,
      -0.7726874351501465
    ],
    [
      -0.22079452872276306,
      0.15619035065174103,
      0.48641619086265564
    ],
    [
      1.0439685583114624,
      1.223926305770874,
      1.3014458417892456
    ],
    [
      2.099748134613037,
      2.7727231979370117,
      3.2002639770507812
    ],
    [
      -0.5437522530555725,
      -0.5575124025344849,
      -0.5065805315971375
    ],
    [
      -0.031503353267908096,
      0.042571328580379486,
      0.18352863192558289
    ],
    [
      -0.6193950772285461,
      -0.16454072296619415,
      0.17922496795654297
    ],
    [
      -1.696606993675232,
      -3.0868701934814453,
      -3.263638973236084
    ],
    [
      -0.15162023901939392,
      -0.35938405990600586,
      -0.6401304602622986
    ]
  ],
  "bound": 1.0,
  "cascade": 1
}