{
  "net.0.weight": [
    [
      0.14390414953231812,
      -0.47359195351600647,
      0.12017934024333954,
      -0.11387239396572113,
      -0.048437636345624924,
      1.2233827114105225,
      0.9507225155830383,
      -0.7071112394332886,
      -0.9484434127807617,
      -0.36313527822494507,
      -0.20723246037960052,
      0.28027278184890747,
      -1.4835060834884644,
      1.053425669670105,
      -0.38637784123420715,
      1.470414638519287,
      1.0910110473632812,
      -0.4810000956058502,
      -0.14391185343265533,
      -0.3458068370819092,
      -0.07720600813627243,
      0.19090886414051056,
      -0.32347777485847473,
      -0.7578511834144592,
      1.6472629308700562,
      0.48026713728904724,
      -0.7327231764793396,
      0.7817198038101196,
      1.5943344831466675,
      0.8110997676849365,
      0.9370986819267273,
      -0.6182252168655396
    ],
    [
      -0.08675283193588257,
      0.3539685010910034,
      0.27196332812309265,
      -0.1513037085533142,
      0.13489802181720734,
      -0.7934721112251282,
      -0.08595173060894012,
      0.9953359365463257,
      -0.5098263621330261,
      -1.630481481552124,
      0.4280189573764801,
      0.7948575615882874,
      0.8096346855163574,
      1.4400514364242554,
      0.26757490634918213,
      0.4354879856109619,
      0.515735387802124,
      0.6448656916618347,
      -1.3682094812393188,
      -0.5108857154846191,
      -1.4944502115249634,
      -0.07307011634111404,
      -0.9680415987968445,
      0.0952347069978714,
      0.0018263106467202306,
      0.19291196763515472,
      1.7133005857467651,
      1.162240982055664,
      -0.7131481766700745,
      -0.010618899948894978,
      -0.46566930413246155,
      -0.011872264556586742
    ],
    [
      -1.1043896675109863,
      0.9038687944412231,
      -1.9709675312042236,
      -0.35752320289611816,
      0.42183730006217957,
      0.07841461151838303,
      -0.1344350129365921,
      -1.6734980344772339,
      -0.2222227156162262,
      -1.0381566286087036,
      1.0189303159713745,
      1.7719110250473022,
      0.3317791819572449,
      -0.1072733998298645,
      1.0942614078521729,
      0.11143709719181061,
      0.3705226480960846,
      0.05962900444865227,
      -0.7963925004005432,
      -1.7771110534667969,
      -0.44658660888671875,
      0.5286266803741455,
      -0.48537763953208923,
      -0.5615960359573364,
      -0.7038310766220093,
      0.07794483751058578,
      -0.3446463644504547,
      -0.8638138771057129,
      0.09726843982934952,
      -0.1814046949148178,
      -0.3597816526889801,
      0.7564569711685181
    ],
    [
      -1.6975725889205933,
      -11.400486946105957,
      -1.0069658756256104,
      0.4712233543395996,
      -5.224285125732422,
      0.9287827014923096,
      -4.39064884185791,
      0.9662525057792664,
      -0.0308535136282444,
      -0.23171451687812805,
      0.03148525580763817,
      0.4832802414894104,
      -0.8016241192817688,
      -0.45632630586624146,
      0.8076531887054443,
      -0.9902319312095642,
      2.2954111099243164,
      1.5243408679962158,
      -0.8267278075218201,
      -0.49380457401275635,
      -1.3325200080871582,
      1.2074476480484009,
      0.7348144054412842,
      1.3260384798049927,
      -0.05336876958608627,
      0.47740814089775085,
      -0.7718512415885925,
      -0.020171621814370155,
      -3.8594517707824707,
      1.1774109601974487,
      -8.272764205932617,
      1.3125708103179932
    ],
    [
      -0.29952272772789,
      0.9160482287406921,
      0.43700671195983887,
      -0.26362916827201843,
      0.9486714005470276,
      -0.9531031847000122,
      0.7978524565696716,
      0.291278213262558,
      -0.5663571953773499,
      -1.1018691062927246,
      0.6587405800819397,
      -0.6596441268920898,
      0.9898375868797302,
      1.2055968046188354,
      0.5904134511947632,
      -0.849765419960022,
      -1.9689761400222778,
      1.1180121898651123,
      -1.4269839525222778,
      0.16943912208080292,
      -1.6072050333023071,
      -9.51179313659668,
      -2.670548915863037,
      -1.723550796508789,
      -0.45907047390937805,
      -0.5708533525466919,
      -1.0336581468582153,
      -2.0765838623046875,
      -3.9689788818359375,
      -0.8010334968566895,
      -2.0599939823150635,
      -1.7074166536331177
    ],
    [
      1.3856127262115479,
      0.1303027868270874,
      -1.698894739151001,
      -0.5009386539459229,
      0.4295407235622406,
      -7.359138488769531,
      0.6755179762840271,
      1.044640302658081,
      0.6084156036376953,
      -0.8903986215591431,
      0.736038327217102,
      1.1755434274673462,
      -0.2737777829170227,
      -0.6272199153900146,
      -2.5797855854034424,
      -1.8360280990600586,
      0.2656150758266449,
      -2.5819759368896484,
      -0.1431705802679062,
      -1.8279190063476562,
      -1.63559091091156,
      -0.008803770877420902,
      -0.185697540640831,
      0.6537908315658569,
      -0.3643697500228882,
      1.5881552696228027,
      -1.0223417282104492,
      -1.1764863729476929,
      -0.01719547249376774,
      -0.9719204902648926,
      0.9850485324859619,
      2.010443687438965
    ]
  ],
  "net.1.weight": [
    [
      -0.628267765045166,
      -0.6767945885658264,
      -0.45238423347473145
    ],
    [
      1.0674220323562622,
      1.2802417278289795,
      1.3746813535690308
    ],
    [
      -1.153979778289795,
      -0.9746924638748169,
      -0.810655951499939
    ],
    [
      -0.207094207406044,
      0.23286785185337067,
      -0.05283959582448006
    ],
    [
      0.660220205783844,
      0.2831418514251709,
      -0.42158043384552
    ],
    [
      -5.01331901550293,
      -6.6422438621521,
      -7.639517784118652
    ],
    [
      0.7403738498687744,
      0.9196723103523254,
      0.9271038770675659
    ],
    [
      -0.6015042066574097,
      -0.5791110396385193,
      -0.738822340965271
    ],
    [
      -0.5612749457359314,
      -0.1851889193058014,
      0.15594401955604553
    ],
    [
      -1.192000389099121,
      -0.8809329271316528,
      -0.7165428996086121
    ],
    [
      -0.32461440563201904,
      -0.24993574619293213,
      -0.15732891857624054
    ],
    [
      0.8001440167427063,
      0.7562267184257507,
      0.5608506202697754
    ],
    [
      -0.9677509665489197,
      -0.760365903377533,
      -0.3634394109249115
    ],
    [
      -0.9169558882713318,
      -0.9081592559814453,
      -0.7081383466720581
    ],
    [
      0.33671849966049194,
      0.30987948179244995,
      -0.5558112263679504
    ],
    [
      0.7375112771987915,
      0.9220396876335144,
      1.2356390953063965
    ],
    [
      -1.5676013231277466,
      -1.7959325313568115,
      -1.9988718032836914
    ],
    [
      1.029554009437561,
      1.0647038221359253,
      1.2048594951629639
    ],
    [
      -1.5165259838104248,
      -1.215867042541504,
      -0.9100556373596191
    ],
    [
      -0.679946780204773,
      -0.7912159562110901,
      -0.6980342864990234
    ],
    [
      -3.7834620475769043,
      -4.014294624328613,
      -4.458596706390381
    ],
    [
      -5.617711544036865,
      -1.776146650314331,
      2.9900922775268555
    ],
    [
      1.5543129444122314,
      0.9162042737007141,
      -0.15070068836212158
    ],
    [
      1.086380124092102,
      0.7187025547027588,
      -0.36786410212516785
    ],
    [
      -0.34995031356811523,
      -0.40708693861961365,
      -0.5874694585800171
    ],
    [
      -0.9158620238304138,
      -0.09918901324272156,
      0.6121992468833923
    ],
    [
      0.849165678024292,
      0.8550577163696289,
      0.7957214117050171
    ],
    [
      1.6541959047317505,
      1.8784840106964111,
      1.0317890644073486
    ],
    [
      -1.37709641456604,
      -1.1960805654525757,
      -1.4409209489822388
    ],
    [
      0.042501162737607956,
      -0.17962735891342163,
      -0.5301171541213989
    ],
    [
      3.076772928237915,
      2.3917393684387207,
      1.7137360572814941
    ],
    [
      -0.9804770946502686,
      -1.2642134428024292,
      -1.277509093284607
    ]
  ],
  "bound": 1.0,
  "cascade": 1
}