{
  "net.0.weight": [
    [
      -1.0527693033218384,
      0.6394906044006348,
      0.4318925440311432,
      0.0003946178767364472,
      0.635154664516449,
      0.5300567746162415,
      0.06403616070747375,
      0.3160678744316101,
      0.33258581161499023,
      0.1746184080839157,
      0.4610311686992645,
      -0.08256834000349045,
      -1.5262095928192139,
      0.577760636806488,
      0.8778977990150452,
      -0.23881103098392487,
      0.004543481394648552,
      0.4311431646347046,
      0.8519395589828491,
      -0.18754589557647705,
      -0.8920876979827881,
      1.0914134979248047,
      0.028893880546092987,
      0.7588649988174438,
      -0.36419677734375,
      0.3347039222717285,
      1.5189441442489624,
      0.5908334851264954,
      0.3515110909938812,
      0.4384555220603943,
      -0.5299459099769592,
      0.2877262234687805
    ],
    [
      -0.3838282823562622,
      0.07306159287691116,
      -1.5318533182144165,
      0.2026217132806778,
      0.42877644300460815,
      0.3247232735157013,
      0.27242976427078247,
      0.8025856018066406,
      -0.9365319013595581,
      -0.530480682849884,
      0.24111756682395935,
      0.22162126004695892,
      0.15541422367095947,
      -0.2694661021232605,
      0.4379023313522339,
      0.11633417755365372,
      -0.13430361449718475,
      -0.13066118955612183,
      -0.741517186164856,
      -0.13581910729408264,
      -0.7316499948501587,
      -0.8826522827148438,
      -0.5163434743881226,
      -0.20253072679042816,
      0.2786700129508972,
      0.8073144555091858,
      -0.538124680519104,
      -0.4525735676288605,
      0.5374335646629333,
      0.32988712191581726,
      0.04643072560429573,
      -0.4025281071662903
    ],
    [
      -0.218845397233963,
      0.04773711785674095,
      -0.26320308446884155,
      1.334686517715454,
      6.641330242156982,
      -1.3903251886367798,
      -0.015212418511509895,
      0.3013898730278015,
      0.767505943775177,
      5.355836868286133,
      -0.7032861113548279,
      -0.6167389154434204,
      0.20509034395217896,
      1.7790369987487793,
      -0.27153003215789795,
      -0.8468250036239624,
      1.552729845046997,
      -0.7463033199310303,
      0.4877769947052002,
      -1.191887378692627,
      0.6875860691070557,
      -0.15708047151565552,
      0.19184570014476776,
      3.4386613368988037,
      2.629765748977661,
      -0.37780559062957764,
      -0.4906439185142517,
      -0.16425199806690216,
      0.16962309181690216,
      5.560603141784668,
      2.9396417140960693,
      -0.17717589437961578
    ],
    [
      -0.4634098708629608,
      -0.2529306709766388,
      -0.7134042978286743,
      0.3367058336734772,
      0.06144963949918747,
      -1.066425085067749,
      -0.11810075491666794,
      -0.46873950958251953,
      0.3761671185493469,
      -0.05353367328643799,
      -0.4621567130088806,
      0.533506453037262,
      -0.2395596206188202,
      -0.6201240420341492,
      -0.20536264777183533,
      -0.34005266427993774,
      -0.5853452682495117,
      -1.7494579553604126,
      -2.069824695587158,
      -0.007473418023437262,
      -2.7882823944091797,
      -0.4469379186630249,
      -1.510366678237915,
      -0.9726638197898865,
      -1.06826913356781,
      -0.19893653690814972,
      -1.1758376359939575,
      -1.3043593168258667,
      -1.0994313955307007,
      0.5998699069023132,
      -0.6688550710678101,
      -0.083732008934021
    ],
    [
      -0.26177719235420227,
      -0.3842576742172241,
      -0.8234467506408691,
      3.604506731033325,
      -2.99469256401062,
      3.2994728088378906,
      -4.689265251159668,
      0.20699694752693176,
      -2.3614752292633057,
      -0.7859835028648376,
      2.242755174636841,
      -4.924442291259766,
      0.4468337297439575,
      1.812017798423767,
      3.6103515625,
      0.7587653994560242,
      -1.7816094160079956,
      -1.3068269491195679,
      -2.7549643516540527,
      2.133021593093872,
      0.7073966264724731,
      -3.1972107887268066,
      -2.551237106323242,
      -1.193557858467102,
      2.3286030292510986,
      3.4613020420074463,
      1.2740834951400757,
      0.16744022071361542,
      1.8164652585983276,
      -2.496872663497925,
      0.2757994532585144,
      0.6592315435409546
    ],
    [
      0.36085572838783264,
      -0.38175150752067566,
      1.0196502208709717,
      0.4564858376979828,
      -1.3416975736618042,
      -1.0569472312927246,
      0.2946152091026306,
      -1.1819745302200317,
      0.6017293930053711,
      -1.8419694900512695,
      -1.1601378917694092,
      -0.7575534582138062,
      0.27881717681884766,
      0.4830356240272522,
      -0.3687193691730499,
      -2.214923620223999,
      -0.3429923355579376,
      -0.4190290570259094,
      0.07754500210285187,
      0.5828820466995239,
      -0.9607884883880615,
      -2.761674404144287,
      0.103114053606987,
      -0.5628182291984558,
      0.786670982837677,
      -0.59528648853302,
      -0.40366509556770325,
      -1.348118782043457,
      -0.49930670857429504,
      -0.23085911571979523,
      -1.5799307823181152,
      -0.6316394209861755
    ]
  ],
  "net.1.weight": [
    [
      -0.3839435577392578,
      -0.2659163773059845,
      -0.4279670715332031
    ],
    [
      0.36017826199531555,
      -0.5396310687065125,
      -0.018359478563070297
    ],
    [
      -0.7229955196380615,
      -0.6714141368865967,
      -0.7032132744789124
    ],
    [
      -1.863120198249817,
      -1.7198164463043213,
      -1.9281134605407715
    ],
    [
      -5.208117485046387,
      -3.7217135429382324,
      -4.372768402099609
    ],
    [
      -1.2903082370758057,
      -1.115036964416504,
      -1.0867878198623657
    ],
    [
      0.5682682394981384,
      0.38904598355293274,
      -0.1667126715183258
    ],
    [
      0.6781882643699646,
      0.40756604075431824,
      0.9100787043571472
    ],
    [
      -0.6161209344863892,
      -0.6103323101997375,
      -0.8230109214782715
    ],
    [
      -1.891513466835022,
      -1.840607762336731,
      -1.640652060508728
    ],
    [
      -1.046480655670166,
      -0.9388288259506226,
      -0.4744894802570343
    ],
    [
      0.7136675715446472,
      0.6186555624008179,
      0.1326655149459839
    ],
    [
      -0.3610752522945404,
      -0.4238424599170685,
      -0.5235421061515808
    ],
    [
      0.506995677947998,
      0.598989725112915,
      0.6926986575126648
    ],
    [
      -0.7688062191009521,
      -0.7732930779457092,
      -0.9647278189659119
    ],
    [
      0.3461766541004181,
      -0.07614576816558838,
      0.46308043599128723
    ],
    [
      0.26861700415611267,
      0.08565852046012878,
      -0.6914173364639282
    ],
    [
      0.7442125082015991,
      0.8636028170585632,
      0.2264653593301773
    ],
    [
      -1.6348257064819336,
      -0.919259786605835,
      -2.623335361480713
    ],
    [
      -0.5416492223739624,
      -0.6247397661209106,
      -0.6755400896072388
    ],
    [
      1.1733489036560059,
      1.0995705127716064,
      1.3805538415908813
    ],
    [
      0.9051595330238342,
      0.8089780211448669,
      0.8699457049369812
    ],
    [
      -0.07581747323274612,
      -0.35409465432167053,
      -0.6109018921852112
    ],
    [
      0.40087640285491943,
      1.544418215751648,
      -2.824737548828125
    ],
    [
      1.9266401529312134,
      1.8696961402893066,
      1.9389675855636597
    ],
    [
      -1.0047295093536377,
      -1.0313708782196045,
      -1.1730583906173706
    ],
    [
      -1.366767406463623,
      -0.8986343741416931,
      -1.022170901298523
    ],
    [
      0.6121126413345337,
      -1.0682193040847778,
      1.0875425338745117
    ],
    [
      0.37805697321891785,
      0.7608243227005005,
      -0.19454090297222137
    ],
    [
      -1.5205382108688354,
      -1.4922878742218018,
      -1.5200189352035522
    ],
    [
      -0.3889320194721222,
      -0.4967988431453705,
      -0.9891163110733032
    ],
    [
      0.38081029057502747,
      -0.3766867220401764,
      -0.11602003872394562
    ]
  ],
  "bound": 16.0,
  "cascade": 5
}