{
  "net.0.weight": [
    [
      -0.9841538071632385,
      -0.9437956809997559,
      0.05651969835162163,
      0.9146323204040527,
      -0.21149398386478424,
      0.43723806738853455,
      -0.6858509182929993,
      0.9542861580848694,
      0.3013172149658203,
      -0.060346078127622604,
      -0.8819900155067444,
      -0.7229103446006775,
      -0.013198002241551876,
      0.6694206595420837,
      -0.7485812902450562,
      0.2981264889240265,
      0.43626078963279724,
      0.07358083873987198,
      -1.3886550664901733,
      1.0884544849395752,
      -1.3173656463623047,
      0.4296426773071289,
      1.4105597734451294,
      1.8054996728897095,
      0.496122270822525,
      0.8494777083396912,
      0.3027065396308899,
      -1.0070713758468628,
      -0.7477399110794067,
      0.030231967568397522,
      -0.4002625346183777,
      -1.8403890132904053
    ],
    [
      -0.7513602375984192,
      -0.6358612775802612,
      0.20378853380680084,
      -0.7509520649909973,
      0.5610823035240173,
      -0.8655511736869812,
      0.4390062093734741,
      2.1369292736053467,
      -0.4749741852283478,
      -0.8143845200538635,
      0.012861983850598335,
      -1.7874189615249634,
      0.0037046088837087154,
      0.9711329936981201,
      -0.7216787338256836,
      0.10897435992956161,
      -0.3699069321155548,
      -0.8110557198524475,
      -0.793478786945343,
      0.5327558517456055,
      1.3155057430267334,
      -0.8364651799201965,
      0.9349849820137024,
      0.48483148217201233,
      0.5119200944900513,
      1.18521249294281,
      -0.45566612482070923,
      1.190654993057251,
      2.062279224395752,
      2.1818699836730957,
      0.03982963785529137,
      0.4407183825969696
    ],
    [
      1.1535176038742065,
      0.29869508743286133,
      -0.6353451013565063,
      1.1004663705825806,
      -1.8664393424987793,
      -0.9470540881156921,
      -0.3658139705657959,
      0.022870132699608803,
      -0.8847655653953552,
      0.4252137243747711,
      0.3486245572566986,
      -0.9810429215431213,
      0.1424151211977005,
      -0.22554251551628113,
      0.7305251955986023,
      -0.3412909209728241,
      0.08755951374769211,
      -1.054298758506775,
      -0.6437549591064453,
      -1.003105878829956,
      0.21876932680606842,
      -0.3129156827926636,
      -0.34484779834747314,
      0.7123315930366516,
      0.8350197672843933,
      1.1513181924819946,
      3.424208402633667,
      -1.2903122901916504,
      0.41985708475112915,
      -0.1453554481267929,
      1.8468762636184692,
      -1.6264166831970215
    ],
    [
      -0.1708429902791977,
      -2.3552985191345215,
      -0.26667922735214233,
      0.6507440209388733,
      -1.8822576999664307,
      0.9663094878196716,
      0.03084263764321804,
      -0.3794277608394623,
      -0.8255100846290588,
      -1.718932032585144,
      0.16556316614151,
      -2.540611505508423,
      -0.23462937772274017,
      0.5455153584480286,
      0.3051912784576416,
      0.4222714304924011,
      0.12224624305963516,
      -1.8689929246902466,
      -0.9329779744148254,
      0.40303462743759155,
      0.47015997767448425,
      -0.6182152032852173,
      -4.055047035217285,
      -2.1698484420776367,
      1.4232032299041748,
      -3.083625555038452,
      0.509688675403595,
      -1.0598065853118896,
      -0.12611567974090576,
      1.1788086891174316,
      1.817339539527893,
      -1.407361626625061
    ],
    [
      -0.6542819142341614,
      2.481127977371216,
      0.48233479261398315,
      0.7546989321708679,
      0.3719809651374817,
      0.9225339293479919,
      1.6952279806137085,
      0.9395314455032349,
      -0.8834968209266663,
      -0.9824548363685608,
      -0.11416254192590714,
      -3.108062505722046,
      -0.3037815988063812,
      1.3434826135635376,
      0.7686473727226257,
      -2.3380892276763916,
      0.7077986598014832,
      1.8739339113235474,
      0.19464249908924103,
      -1.5007785558700562,
      1.347636103630066,
      -2.423452138900757,
      -1.542475938796997,
      0.12064426392316818,
      0.6445080041885376,
      -0.7095268964767456,
      -2.5940802097320557,
      -0.38081374764442444,
      -1.1242878437042236,
      -0.34760990738868713,
      -2.9247233867645264,
      -1.1805943250656128
    ],
    [
      0.08759351074695587,
      -3.1090402603149414,
      1.3645051717758179,
      -2.658175468444824,
      -0.052823759615421295,
      -2.0720033645629883,
      0.4788874089717865,
      1.2181918621063232,
      -9.68209457397461,
      0.5135120749473572,
      1.0520306825637817,
      0.8496235013008118,
      -0.349938303232193,
      -0.690677285194397,
      0.6845715045928955,
      -3.5578396320343018,
      -1.5099599361419678,
      -1.2765363454818726,
      0.5405786037445068,
      -1.7865171432495117,
      1.4901683330535889,
      2.2482056617736816,
      1.5182535648345947,
      1.5907065868377686,
      -0.45558884739875793,
      1.5514166355133057,
      1.680810809135437,
      0.5086472034454346,
      1.0892359018325806,
      -0.9967411160469055,
      0.9215811491012573,
      0.5782487988471985
    ]
  ],
  "net.1.weight": [
    [
      -0.08972267806529999,
      0.2583300769329071,
      0.3560847342014313
    ],
    [
      -2.6801531314849854,
      -3.252373456954956,
      -3.032566547393799
    ],
    [
      -0.1633526086807251,
      -0.1084500327706337,
      -0.5265198349952698
    ],
    [
      -0.8651584982872009,
      -0.7343039512634277,
      0.17275498807430267
    ],
    [
      -0.34722626209259033,
      -0.7716155648231506,
      -1.3193550109863281
    ],
    [
      -0.439709335565567,
      -0.5173413157463074,
      -0.6267490983009338
    ],
    [
      -1.013719916343689,
      -0.25496000051498413,
      0.8829332590103149
    ],
    [
      -0.9266991019248962,
      -0.8090953230857849,
      -0.6098074913024902
    ],
    [
      0.22121280431747437,
      -0.3309610188007355,
      -3.2026631832122803
    ],
    [
      0.5966469645500183,
      0.7131264805793762,
      1.0864944458007812
    ],
    [
      0.5611714124679565,
      -0.1747511625289917,
      -0.6220723986625671
    ],
    [
      -1.1935644149780273,
      -1.1503862142562866,
      -1.081375241279602
    ],
    [
      0.12575098872184753,
      -0.08414213359355927,
      0.00034294568467885256
    ],
    [
      -0.3227463960647583,
      -0.5970906615257263,
      -0.44785645604133606
    ],
    [
      -0.21237491071224213,
      -0.11832798272371292,
      -0.2673015594482422
    ],
    [
      0.5405299663543701,
      0.2488449513912201,
      -0.4252549707889557
    ],
    [
      0.2949334979057312,
      0.339602530002594,
      -0.5027143359184265
    ],
    [
      -1.4099137783050537,
      -1.5509876012802124,
      -1.7995983362197876
    ],
    [
      -0.5070472359657288,
      -0.3468102812767029,
      -0.23746494948863983
    ],
    [
      -0.9101909399032593,
      -0.7063308954238892,
      -0.23313312232494354
    ],
    [
      1.1969131231307983,
      0.822806179523468,
      0.2285246104001999
    ],
    [
      0.5732758641242981,
      0.6831110715866089,
      0.8530955910682678
    ],
    [
      -3.8844974040985107,
      -3.8544158935546875,
      -3.792537212371826
    ],
    [
      1.6987745761871338,
      1.7591893672943115,
      1.5740629434585571
    ],
    [
      -0.06538014113903046,
      -0.11325228214263916,
      -0.7381566762924194
    ],
    [
      2.2899723052978516,
      2.4958128929138184,
      2.3247132301330566
    ],
    [
      -1.236659049987793,
      -1.377441167831421,
      -1.4606040716171265
    ],
    [
      -0.7111040949821472,
      -0.4439660906791687,
      -0.5185836553573608
    ],
    [
      -0.974795937538147,
      -0.9535571336746216,
      -0.11571163684129715
    ],
    [
      0.7532603740692139,
      0.7712703943252563,
      0.46563810110092163
    ],
    [
      -1.4516338109970093,
      -1.3042199611663818,
      -0.6270941495895386
    ],
    [
      -1.2841486930847168,
      -1.1839503049850464,
      -0.8689815998077393
    ]
  ],
  "bound": 1.0,
  "cascade": 1
}