{
  "net.0.weight": [
    [
      -0.30056771636009216,
      0.011220801621675491,
      0.4939511716365814,
      -0.009692680090665817,
      0.12539491057395935,
      0.06660186499357224,
      0.01360383816063404,
      -0.4769853949546814,
      -0.07945570349693298,
      -0.1389526128768921,
      0.30242159962654114,
      0.07491421699523926,
      0.257954478263855,
      -0.30248793959617615,
      -0.008128441870212555,
      -0.07610493898391724,
      -0.2825719714164734,
      0.40074771642684937,
      -0.43641164898872375,
      -0.5315338969230652,
      -0.13644996285438538,
      0.3330051600933075,
      0.4392966628074646,
      0.18641439080238342,
      0.6379948258399963,
      -0.41414594650268555,
      -0.2642163634300232,
      -0.5681454539299011,
      0.5070424675941467,
      0.23657621443271637,
      0.5390511751174927,
      0.4141891896724701
    ],
    [
      0.8706613183021545,
      -3.626790761947632,
      -0.022544503211975098,
      -2.819476366043091,
      0.05596734210848808,
      3.249828338623047,
      2.6887450218200684,
      1.0726968050003052,
      2.8826887607574463,
      1.4545758962631226,
      0.05563131719827652,
      -0.13626180589199066,
      1.3452976942062378,
      0.960469663143158,
      -2.3388023376464844,
      0.7296695709228516,
      -1.071199893951416,
      0.31679314374923706,
      0.6127542853355408,
      0.7988256812095642,
      0.06775431334972382,
      0.16934137046337128,
      1.2123743295669556,
      0.009247451089322567,
      -3.833631992340088,
      0.3875410556793213,
      0.8355088829994202,
      -0.5140007138252258,
      0.2701247036457062,
      0.1904485821723938,
      -0.07310065627098083,
      -1.7130286693572998
    ],
    [
      -1.1234874725341797,
      -0.06713051348924637,
      0.15112297236919403,
      0.1499660611152649,
      0.1809716373682022,
      0.07405851781368256,
      0.26280421018600464,
      -0.361734539270401,
      0.09711051732301712,
      -1.9064735174179077,
      -0.0632559210062027,
      -2.4590113162994385,
      0.018530361354351044,
      -0.510877251625061,
      -0.9973800778388977,
      -0.2274392694234848,
      -1.535712718963623,
      0.1842034012079239,
      -0.6968633532524109,
      -0.7373653650283813,
      -0.42827582359313965,
      -0.2430531233549118,
      -2.7918524742126465,
      -1.9119662046432495,
      -2.6295742988586426,
      -0.5985665917396545,
      -3.310987949371338,
      -3.4211301803588867,
      -0.01798984967172146,
      -0.040387917309999466,
      -0.5618603825569153,
      -0.42433440685272217
    ],
    [
      -0.2677350640296936,
      -2.0457987785339355,
      -0.5393604636192322,
      -1.61493980884552,
      -0.17654873430728912,
      1.4143154621124268,
      -3.9023795127868652,
      0.06367307901382446,
      -4.837965965270996,
      0.4089262783527374,
      0.15396353602409363,
      0.8211348652839661,
      -0.7843353748321533,
      0.016647282987833023,
      -0.760516881942749,
      -0.7382688522338867,
      1.945417881011963,
      -0.2360122799873352,
      -0.1845995932817459,
      -0.05535631254315376,
      -3.505531072616577,
      -0.054386090487241745,
      2.5904977321624756,
      2.0878491401672363,
      -1.1128547191619873,
      -0.25823917984962463,
      -1.5635358095169067,
      1.7290579080581665,
      -0.36225220561027527,
      0.009492412209510803,
      1.7070307731628418,
      0.5606820583343506
    ],
    [
      0.8096184134483337,
      0.9491088390350342,
      0.18116579949855804,
      -3.4049108028411865,
      -0.33618608117103577,
      -0.7330924868583679,
      -0.2938584089279175,
      -0.1036645844578743,
      -0.37402307987213135,
      0.08822841942310333,
      -0.5282992720603943,
      -0.05148601531982422,
      -0.3090534806251526,
      0.08381075412034988,
      -1.0319665670394897,
      0.3300933837890625,
      -0.5461462140083313,
      -0.14826762676239014,
      -0.09578566253185272,
      -0.031043505296111107,
      0.2287783920764923,
      -0.33019670844078064,
      0.15305115282535553,
      0.02408737689256668,
      -0.25400182604789734,
      -0.20645375549793243,
      -0.9849393963813782,
      -2.1619985103607178,
      -0.41679462790489197,
      -0.45006367564201355,
      -0.07209131121635437,
      0.4109548032283783
    ],
    [
      1.0521974563598633,
      -1.0699065923690796,
      -0.29821428656578064,
      -2.477468252182007,
      -0.10867343097925186,
      1.0639866590499878,
      -0.6373432278633118,
      0.4042322635650635,
      -0.8340092897415161,
      0.14624106884002686,
      -0.3355730473995209,
      -0.1891288161277771,
      0.9474572539329529,
      0.44913721084594727,
      -1.1372134685516357,
      0.336908757686615,
      -1.4400204420089722,
      -0.04064324498176575,
      0.5207334160804749,
      0.29164931178092957,
      -0.003293293295428157,
      -0.17529085278511047,
      0.03412073478102684,
      -1.0324681997299194,
      0.7614237666130066,
      0.6400455832481384,
      -0.2520495355129242,
      -1.2729194164276123,
      0.11293672025203705,
      -0.40480390191078186,
      -0.8540152907371521,
      0.36561498045921326
    ]
  ],
  "net.1.weight": [
    [
      -0.7982870936393738,
      -0.8744460940361023,
      -0.7606196403503418
    ],
    [
      -0.7832532525062561,
      -0.7858394384384155,
      -0.8707782626152039
    ],
    [
      0.059830695390701294,
      0.054833732545375824,
      0.04411303251981735
    ],
    [
      -6.637284278869629,
      -5.553062915802002,
      -7.435527801513672
    ],
    [
      -0.1269705593585968,
      -0.10831700265407562,
      0.06252311915159225
    ],
    [
      -3.2871575355529785,
      -3.2393157482147217,
      -3.171642780303955
    ],
    [
      1.873345136642456,
      0.8120756149291992,
      2.0539777278900146
    ],
    [
      -0.19120202958583832,
      -0.28158077597618103,
      0.07293935865163803
    ],
    [
      2.131601333618164,
      2.9850361347198486,
      1.9017490148544312
    ],
    [
      1.0072927474975586,
      0.7435207962989807,
      0.7562342882156372
    ],
    [
      -0.1069541722536087,
      -0.10551272332668304,
      0.07774310559034348
    ],
    [
      0.043458789587020874,
      -0.2629508078098297,
      0.5012423396110535
    ],
    [
      1.6023443937301636,
      1.4033491611480713,
      1.2013189792633057
    ],
    [
      -0.0477936789393425,
      -0.26773759722709656,
      -0.11760862916707993
    ],
    [
      -3.056238889694214,
      -3.203890085220337,
      -3.1143064498901367
    ],
    [
      -0.17984053492546082,
      0.10679007321596146,
      -0.2340097427368164
    ],
    [
      -2.6673810482025146,
      -3.0588576793670654,
      -2.7935402393341064
    ],
    [
      0.0855267196893692,
      0.15516138076782227,
      0.17588917911052704
    ],
    [
      -0.08371636271476746,
      -0.09846010059118271,
      -0.16086001694202423
    ],
    [
      -0.511971652507782,
      -0.08660925924777985,
      -0.2124089151620865
    ],
    [
      -0.19299368560314178,
      0.34516575932502747,
      -0.5852082371711731
    ],
    [
      -0.07210034132003784,
      0.0334189310669899,
      -0.005003926809877157
    ],
    [
      -4.566919803619385,
      -4.44329833984375,
      -5.016417980194092
    ],
    [
      -5.937183856964111,
      -4.513352394104004,
      -5.770368576049805
    ],
    [
      0.935389518737793,
      0.8615447282791138,
      0.8889399170875549
    ],
    [
      0.007231087423861027,
      0.08219647407531738,
      -0.34670665860176086
    ],
    [
      -2.4435946941375732,
      -2.6983425617218018,
      -2.5097649097442627
    ],
    [
      3.9369022846221924,
      4.219587326049805,
      3.9748728275299072
    ],
    [
      0.0203354824334383,
      0.10574794560670853,
      -0.07983610033988953
    ],
    [
      -0.21425634622573853,
      -0.15567898750305176,
      0.309009850025177
    ],
    [
      -4.736737251281738,
      -0.12902003526687622,
      1.5090298652648926
    ],
    [
      0.5424910187721252,
      0.5334442257881165,
      0.5112829804420471
    ]
  ],
  "bound": 4.0,
  "cascade": 3
}