{
  "net.0.weight": [
    [
      0.19092778861522675,
      -0.2003766894340515,
      0.5502446293830872,
      -0.46935930848121643,
      0.13649314641952515,
      0.10466425120830536,
      -0.1263228803873062,
      0.10148417204618454,
      -0.258031964302063,
      0.017271846532821655,
      0.0032582907006144524,
      0.10402795672416687,
      -0.15238237380981445,
      -0.10432462394237518,
      -0.23208947479724884,
      0.07276148349046707,
      -0.3132612109184265,
      0.35598617792129517,
      -0.2164756953716278,
      -0.5248723030090332,
      -0.06213058903813362,
      0.3330051600933075,
      0.4151437282562256,
      1.068513035774231,
      -0.2829214930534363,
      0.029709933325648308,
      0.7009037137031555,
      -0.2555459141731262,
      0.41770949959754944,
      -0.6233449578285217,
      0.24820852279663086,
      -0.1522093415260315
    ],
    [
      -1.9895877838134766,
      -0.3233252167701721,
      -0.07857101410627365,
      -0.4246099591255188,
      0.06283434480428696,
      -0.04131307080388069,
      -2.418898820877075,
      -0.4656182527542114,
      1.1115548610687256,
      -0.24167154729366302,
      -0.022538835182785988,
      -0.11897064000368118,
      -0.6519057154655457,
      -0.42479079961776733,
      -0.07322201877832413,
      -0.39534735679626465,
      0.6075660586357117,
      0.3614954352378845,
      -2.1037585735321045,
      -0.20367500185966492,
      -1.4289171695709229,
      0.16934137046337128,
      1.060278296470642,
      -3.487293004989624,
      -0.4477427005767822,
      -0.2906723618507385,
      0.4684314727783203,
      0.02969168871641159,
      0.0825689435005188,
      -0.5464370846748352,
      -0.05153325945138931,
      0.8276680707931519
    ],
    [
      -0.0017396857729181647,
      4.300403594970703,
      0.09374835342168808,
      -2.721151113510132,
      0.1574781835079193,
      0.5512779355049133,
      3.1041910648345947,
      1.136353611946106,
      -1.2532061338424683,
      0.9880489110946655,
      0.41207852959632874,
      0.7909837365150452,
      1.1095384359359741,
      0.8934972882270813,
      1.6205415725708008,
      1.4831830263137817,
      -1.3769690990447998,
      0.2278418093919754,
      -0.15770260989665985,
      2.9685206413269043,
      0.39038756489753723,
      -0.2430531233549118,
      0.5600998997688293,
      3.1693572998046875,
      1.3097319602966309,
      2.1640968322753906,
      4.294004440307617,
      0.13756327331066132,
      0.09369265288114548,
      1.9410483837127686,
      0.33361244201660156,
      1.803802728652954
    ],
    [
      -0.4545862674713135,
      0.19200026988983154,
      -0.5866013765335083,
      -4.4524712562561035,
      -0.20183473825454712,
      0.74907386302948,
      -1.3614853620529175,
      0.20425884425640106,
      -1.711458683013916,
      0.3500105142593384,
      0.8659101128578186,
      0.42231160402297974,
      0.7066158056259155,
      0.8682525753974915,
      -0.18202929198741913,
      0.4508364498615265,
      0.04856124520301819,
      -0.21685124933719635,
      -0.38295984268188477,
      0.18344128131866455,
      0.6093171834945679,
      -0.054386090487241745,
      0.43575167655944824,
      1.580998182296753,
      0.9479844570159912,
      -2.997201442718506,
      -0.29618069529533386,
      -0.2443932145833969,
      -0.14991438388824463,
      0.035605158656835556,
      0.04553977772593498,
      0.3648211658000946
    ],
    [
      0.5182628035545349,
      0.290279746055603,
      0.12449754029512405,
      -2.5848069190979004,
      -0.30050820112228394,
      0.5619010329246521,
      1.3337805271148682,
      -0.007947751320898533,
      0.7348618507385254,
      0.36283352971076965,
      0.2103799730539322,
      0.34187036752700806,
      0.3045005798339844,
      0.5843549370765686,
      -0.10872087627649307,
      0.9412219524383545,
      0.12191340327262878,
      -0.10396033525466919,
      -0.4083801805973053,
      -0.04359396919608116,
      0.8380452394485474,
      -0.33019670844078064,
      -0.7409179210662842,
      -3.0847439765930176,
      1.0222041606903076,
      -1.2764396667480469,
      -2.9452390670776367,
      -5.29079008102417,
      -0.3137032389640808,
      0.16300766170024872,
      -0.2898315191268921,
      0.6353777647018433
    ],
    [
      0.4310300350189209,
      0.9125877618789673,
      -0.3557552695274353,
      -0.4994071424007416,
      -0.09606928378343582,
      0.3522156774997711,
      -2.0230376720428467,
      0.4641822278499603,
      -0.13512063026428223,
      -0.05065879970788956,
      -1.0020440816879272,
      -0.07277863472700119,
      0.4875037968158722,
      0.5418818593025208,
      0.06800415366888046,
      0.5285729169845581,
      -0.7739696502685547,
      -0.002088641282171011,
      -0.08532989025115967,
      0.30910801887512207,
      0.6398378014564514,
      -0.17529085278511047,
      0.08137039840221405,
      -0.49108508229255676,
      0.5942477583885193,
      0.5894990563392639,
      1.4186736345291138,
      0.22890758514404297,
      0.20586243271827698,
      -2.8965208530426025,
      -0.4315452575683594,
      0.7110180854797363
    ]
  ],
  "net.1.weight": [
    [
      0.016989467665553093,
      -0.6269682049751282,
      -0.9486331343650818
    ],
    [
      -1.6332207918167114,
      -1.2961771488189697,
      -1.5672082901000977
    ],
    [
      -0.06682367622852325,
      0.08453023433685303,
      -0.30457061529159546
    ],
    [
      3.8705883026123047,
      4.157831192016602,
      4.739957809448242
    ],
    [
      0.1605040580034256,
      0.04383160173892975,
      0.05210169404745102
    ],
    [
      -0.2901209890842438,
      -0.2501726746559143,
      -0.31755366921424866
    ],
    [
      2.590059757232666,
      2.501171350479126,
      2.210787534713745
    ],
    [
      -0.1519479900598526,
      -0.09111423790454865,
      0.10956466943025589
    ],
    [
      0.6606893539428711,
      0.4351816773414612,
      1.1998820304870605
    ],
    [
      -0.2968722879886627,
      0.3409126400947571,
      -0.20786844193935394
    ],
    [
      0.31248775124549866,
      -0.8084430694580078,
      0.545225977897644
    ],
    [
      -0.02506342902779579,
      0.18086454272270203,
      -0.24671384692192078
    ],
    [
      -0.2566336691379547,
      -0.2770823538303375,
      -0.24012960493564606
    ],
    [
      -0.3322437107563019,
      -0.3939676582813263,
      -0.37914803624153137
    ],
    [
      0.5206426978111267,
      -0.7079640030860901,
      0.48114535212516785
    ],
    [
      -0.2350287288427353,
      -0.1148119643330574,
      -0.22436706721782684
    ],
    [
      0.020415673032402992,
      0.43882647156715393,
      -0.6670795679092407
    ],
    [
      0.102862648665905,
      0.15516138076782227,
      0.17588917911052704
    ],
    [
      -0.6946617364883423,
      -0.5264768004417419,
      -0.13179150223731995
    ],
    [
      -0.7220168113708496,
      -0.31341004371643066,
      -0.7070099711418152
    ],
    [
      -0.5269417762756348,
      -0.3112688958644867,
      -0.3454611599445343
    ],
    [
      -0.07210034132003784,
      0.0334189310669899,
      -0.005003926809877157
    ],
    [
      0.370443195104599,
      -0.3731726109981537,
      0.11696689575910568
    ],
    [
      -5.363766670227051,
      -5.3934245109558105,
      -7.146786689758301
    ],
    [
      -0.5609512329101562,
      -0.6075325608253479,
      -0.5576270222663879
    ],
    [
      -0.07909620553255081,
      -0.1541852056980133,
      -1.2176636457443237
    ],
    [
      -4.318767547607422,
      -4.210731506347656,
      -5.8556132316589355
    ],
    [
      0.45383352041244507,
      0.1366002857685089,
      -0.7445835471153259
    ],
    [
      0.06735541671514511,
      -0.04659797623753548,
      -0.043139420449733734
    ],
    [
      1.265486478805542,
      0.9117525815963745,
      1.82150399684906
    ],
    [
      -0.031683556735515594,
      0.01285580638796091,
      0.015226039104163647
    ],
    [
      -0.5297904014587402,
      -0.35007962584495544,
      -0.6303718090057373
    ]
  ],
  "bound": 4.0,
  "cascade": 3
}