{
  "net.0.weight": [
    [
      -0.043666597455739975,
      0.1795549839735031,
      0.42923450469970703,
      0.40288931131362915,
      -0.4465412199497223,
      0.14968320727348328,
      1.551795482635498,
      -0.6161290407180786,
      0.30723512172698975,
      -0.30617767572402954,
      -0.22587141394615173,
      -0.17071253061294556,
      -0.6076998710632324,
      -0.38127532601356506,
      -0.36063331365585327,
      -0.5442712306976318,
      -0.23668493330478668,
      -0.7729312777519226,
      -0.26386794447898865,
      0.3711617588996887,
      -0.5096533894538879,
      -0.37797674536705017,
      0.22886671125888824,
      0.025094006210565567,
      0.6343345046043396,
      -0.9209998846054077,
      0.4639325439929962,
      -0.6172727942466736,
      -0.6727654933929443,
      1.726314902305603,
      0.7202693819999695,
      -0.007322108373045921
    ],
    [
      0.023431943729519844,
      -0.013067658059298992,
      0.6633324027061462,
      -0.32207807898521423,
      0.32967305183410645,
      -0.8151637315750122,
      1.3574968576431274,
      2.8280880451202393,
      -0.2438613474369049,
      0.3840673267841339,
      0.4218129813671112,
      -0.04558650776743889,
      1.7028932571411133,
      1.4766433238983154,
      1.5526745319366455,
      2.6286256313323975,
      -2.1237635612487793,
      0.3184190094470978,
      -2.609342575073242,
      -0.07001617550849915,
      0.6224126219749451,
      -1.7019245624542236,
      0.0328814722597599,
      3.9962141513824463,
      0.08172040432691574,
      -0.005225221160799265,
      -0.17967528104782104,
      0.9950481057167053,
      0.4112534523010254,
      -0.36656826734542847,
      -1.1608452796936035,
      0.2889801859855652
    ],
    [
      -0.3321622908115387,
      0.05205012857913971,
      -2.1014046669006348,
      0.12414971739053726,
      3.316744804382324,
      2.665083885192871,
      -2.196969747543335,
      -0.8963915109634399,
      -1.4317247867584229,
      -0.38507145643234253,
      0.03969479724764824,
      2.3398208618164062,
      -0.9622219204902649,
      0.048093270510435104,
      0.012075201608240604,
      -0.04809502512216568,
      -0.3093095123767853,
      4.0047502517700195,
      -1.2294819355010986,
      -0.27421343326568604,
      0.8472792506217957,
      -1.7857996225357056,
      0.2621789276599884,
      -0.23737913370132446,
      3.685018301010132,
      -2.7131857872009277,
      0.3133273720741272,
      -0.42864489555358887,
      -1.8507906198501587,
      -3.411776304244995,
      1.2497833967208862,
      3.2895760536193848
    ],
    [
      0.24171710014343262,
      -0.40704524517059326,
      0.39082837104797363,
      -0.11939492076635361,
      -0.14300543069839478,
      0.39682748913764954,
      0.851325511932373,
      -1.8752236366271973,
      -1.4833441972732544,
      -0.15637364983558655,
      -0.41817572712898254,
      -0.5102976560592651,
      0.2874325215816498,
      -0.280866801738739,
      -0.19917939603328705,
      0.02092038467526436,
      -0.2876543402671814,
      1.0985615253448486,
      0.75042325258255,
      -0.20137129724025726,
      -0.6064146161079407,
      0.28092682361602783,
      -0.20179109275341034,
      -0.7932857275009155,
      1.6954065561294556,
      -1.3576017618179321,
      -0.4319211542606354,
      -0.9957754015922546,
      -0.0654720887541771,
      2.0889081954956055,
      -2.4264986515045166,
      0.18854689598083496
    ],
    [
      0.11066372692584991,
      -0.01634981669485569,
      0.11878398805856705,
      -0.0645790547132492,
      -0.6724098324775696,
      -0.9507117867469788,
      0.9582871198654175,
      -0.15996769070625305,
      -0.5587237477302551,
      0.08837059885263443,
      0.16612398624420166,
      0.17540904879570007,
      -0.8555009365081787,
      0.7577335834503174,
      0.7115682363510132,
      0.9325218796730042,
      0.6593538522720337,
      0.4801822304725647,
      -0.7933396100997925,
      -0.26003050804138184,
      -0.05173751339316368,
      -0.1898627132177353,
      -0.08890514820814133,
      0.14243268966674805,
      -1.4103904962539673,
      0.3135075569152832,
      -0.0740492194890976,
      0.4814017713069916,
      -0.6480706930160522,
      -0.07345741987228394,
      0.7528249025344849,
      -0.632694661617279
    ],
    [
      -0.009234809316694736,
      -0.12750816345214844,
      0.7316762804985046,
      -0.43453332781791687,
      1.2932367324829102,
      0.9723294377326965,
      0.2577769160270691,
      0.20679648220539093,
      2.3229799270629883,
      0.18208962678909302,
      -0.2695492208003998,
      0.23229116201400757,
      0.267696738243103,
      -0.10600658506155014,
      0.11632857471704483,
      0.7137821316719055,
      -0.3135409653186798,
      -1.2080779075622559,
      1.898422122001648,
      -0.3785472810268402,
      0.625876247882843,
      0.9671489596366882,
      0.011529719457030296,
      0.9084100723266602,
      -0.04212534427642822,
      -0.7494668960571289,
      -0.38128024339675903,
      0.6773948073387146,
      0.6781713962554932,
      -3.000459671020508,
      -0.7273787260055542,
      1.759993076324463
    ]
  ],
  "net.1.weight": [
    [
      0.24944348633289337,
      0.15756848454475403,
      -0.32052385807037354
    ],
    [
      -0.042329974472522736,
      0.11699828505516052,
      0.04284144192934036
    ],
    [
      -0.3530568480491638,
      -0.529193103313446,
      -0.7157724499702454
    ],
    [
      0.08759921789169312,
      -0.2301955223083496,
      0.05724797397851944
    ],
    [
      -0.19819211959838867,
      -0.8317449688911438,
      -1.7281379699707031
    ],
    [
      1.1638234853744507,
      1.4011764526367188,
      1.525978446006775
    ],
    [
      -2.8017592430114746,
      -2.919696807861328,
      -3.128950834274292
    ],
    [
      -1.6042670011520386,
      -1.4596641063690186,
      -1.3400671482086182
    ],
    [
      -2.0909996032714844,
      -2.2635385990142822,
      -2.490752935409546
    ],
    [
      0.2173309624195099,
      0.06163123622536659,
      -0.3494276702404022
    ],
    [
      0.23261357843875885,
      -0.18814204633235931,
      -0.031212592497467995
    ],
    [
      0.3411758542060852,
      -0.22676482796669006,
      -0.6042336225509644
    ],
    [
      0.8702073097229004,
      0.5275977849960327,
      0.08625008910894394
    ],
    [
      -0.3402097821235657,
      -0.5010066628456116,
      -0.4460834562778473
    ],
    [
      -0.4541122019290924,
      -0.3686312735080719,
      -0.45235711336135864
    ],
    [
      -1.0539768934249878,
      -0.8773147463798523,
      -0.6193122267723083
    ],
    [
      -0.8841471672058105,
      -0.8711921572685242,
      -0.7399110794067383
    ],
    [
      1.0464091300964355,
      1.2899664640426636,
      1.3808526992797852
    ],
    [
      -0.8692570924758911,
      -1.0809061527252197,
      -1.4113380908966064
    ],
    [
      0.057149481028318405,
      -0.12101928144693375,
      -0.11867956072092056
    ],
    [
      -0.5712943077087402,
      -0.16749709844589233,
      0.30327561497688293
    ],
    [
      0.3711504638195038,
      0.5293403267860413,
      0.9050421714782715
    ],
    [
      -0.014631274156272411,
      -0.06520931422710419,
      0.050178878009319305
    ],
    [
      2.010631799697876,
      1.8073210716247559,
      1.592514157295227
    ],
    [
      -8.211074829101562,
      -8.318890571594238,
      -7.781261920928955
    ],
    [
      1.54205322265625,
      1.4114717245101929,
      0.9775052070617676
    ],
    [
      0.15606467425823212,
      0.03923342004418373,
      -0.07058102637529373
    ],
    [
      -0.49990710616111755,
      -0.4150726795196533,
      -0.33251604437828064
    ],
    [
      -1.0092440843582153,
      -0.6571365594863892,
      0.010467459447681904
    ],
    [
      -5.987710952758789,
      -6.106886863708496,
      -6.846495151519775
    ],
    [
      -1.3447977304458618,
      -1.2353039979934692,
      -1.084144115447998
    ],
    [
      -1.441148281097412,
      -1.0824373960494995,
      -0.5357728004455566
    ]
  ],
  "bound": 1.0,
  "cascade": 1
}