{
  "net.0.weight": [
    [
      0.34286007285118103,
      0.11699818819761276,
      -0.43801379203796387,
      0.4449249804019928,
      -0.666874349117279,
      -0.19758771359920502,
      -0.7228102087974548,
      -0.17282651364803314,
      0.6543071269989014,
      -0.2552706301212311,
      0.38711363077163696,
      0.17886821925640106,
      0.5372228026390076,
      0.12917479872703552,
      0.46794256567955017,
      0.08789096772670746,
      0.10753841698169708,
      -0.28608956933021545,
      -0.6565213203430176,
      0.3711617588996887,
      -0.36078545451164246,
      0.7470599412918091,
      0.22498078644275665,
      -0.5206528306007385,
      0.7781166434288025,
      0.4043090343475342,
      0.5052664875984192,
      -0.2507172226905823,
      0.4142920672893524,
      0.45109695196151733,
      0.2129656821489334,
      0.07170566916465759
    ],
    [
      -0.3222362995147705,
      0.005516211036592722,
      0.2698959410190582,
      -0.27934780716896057,
      -0.3576229512691498,
      -1.5618655681610107,
      0.9313720464706421,
      1.5355910062789917,
      -1.5493165254592896,
      -0.825565755367279,
      0.42607173323631287,
      0.12617813050746918,
      -0.10748552531003952,
      0.463356077671051,
      -0.24450764060020447,
      -0.23934754729270935,
      -0.596520185470581,
      -1.3342121839523315,
      -2.051470994949341,
      -0.07001617550849915,
      0.7298372387886047,
      -2.5950167179107666,
      0.03676735982298851,
      2.1259419918060303,
      0.07144314795732498,
      0.07286509871482849,
      -0.1383487433195114,
      0.8091215491294861,
      0.06461356580257416,
      0.007455873768776655,
      -0.09367270767688751,
      1.1302917003631592
    ],
    [
      -0.42253977060317993,
      -0.024770313873887062,
      -1.8256417512893677,
      0.10546629875898361,
      -1.9750531911849976,
      0.7889857888221741,
      -1.0339360237121582,
      -2.353215217590332,
      0.8826437592506409,
      -0.7439305186271667,
      -0.43959611654281616,
      1.840945839881897,
      -0.18073762953281403,
      -0.03353221341967583,
      0.8682118058204651,
      -0.16128626465797424,
      0.3527562618255615,
      0.4280432462692261,
      0.9017557501792908,
      -0.27421343326568604,
      -1.930147409439087,
      -2.1660115718841553,
      0.2660650312900543,
      0.6918113231658936,
      0.02947833389043808,
      0.0662979707121849,
      0.27200233936309814,
      -2.0686752796173096,
      -0.416584312915802,
      -0.14010068774223328,
      0.22454707324504852,
      0.08856786042451859
    ],
    [
      -0.42976129055023193,
      -0.35777074098587036,
      0.6166772842407227,
      -0.15814456343650818,
      -1.344014286994934,
      0.7788965106010437,
      -0.042049821466207504,
      0.7336153984069824,
      -0.049704983830451965,
      -0.7148664593696594,
      0.08791778981685638,
      -0.38614413142204285,
      -0.11375660449266434,
      0.3238154351711273,
      -0.11967127025127411,
      0.058686040341854095,
      0.4766305983066559,
      -0.4757049083709717,
      0.27577629685401917,
      -0.20137129724025726,
      -1.5363847017288208,
      -0.9141672849655151,
      -0.19790515303611755,
      0.5900671482086182,
      0.07223422080278397,
      -0.45122405886650085,
      -0.35274994373321533,
      -1.290495753288269,
      0.03919432312250137,
      -0.02053137496113777,
      -0.19716760516166687,
      -0.3815575838088989
    ],
    [
      -0.22094064950942993,
      0.038926273584365845,
      -0.517789363861084,
      -0.10269713401794434,
      -0.9054239392280579,
      0.13305877149105072,
      0.6979883909225464,
      0.53505539894104,
      0.36295294761657715,
      -2.6631686687469482,
      -0.12036880850791931,
      -2.082009792327881,
      -0.5976356863975525,
      0.4194560647010803,
      0.42292213439941406,
      0.25186029076576233,
      0.5360859632492065,
      0.870448887348175,
      -0.21339568495750427,
      -0.26003050804138184,
      -1.0222094058990479,
      -0.807885468006134,
      -0.08501921594142914,
      0.5469189882278442,
      -0.1517748236656189,
      -0.012533701956272125,
      -0.1154036894440651,
      -0.9858326315879822,
      -0.4086286723613739,
      -0.33815789222717285,
      -0.025882938876748085,
      -0.9918914437294006
    ],
    [
      2.4915823936462402,
      -0.1604853719472885,
      1.9221466779708862,
      -0.46959754824638367,
      1.4191042184829712,
      0.8363559246063232,
      1.8598380088806152,
      -0.5898127555847168,
      0.3306869864463806,
      0.3705611824989319,
      0.9117053747177124,
      2.267145872116089,
      0.2870628833770752,
      0.03613210469484329,
      -0.34245821833610535,
      1.0910851955413818,
      0.44134601950645447,
      -3.3178656101226807,
      1.6575030088424683,
      -0.3785472810268402,
      -0.5363640189170837,
      0.4708881676197052,
      0.01541565079241991,
      0.6372533440589905,
      0.2828133702278137,
      -0.12165259569883347,
      -0.4216444492340088,
      -0.5446168184280396,
      0.19105681777000427,
      0.09505105763673782,
      -0.058589812368154526,
      1.920277714729309
    ]
  ],
  "net.1.weight": [
    [
      0.2392280399799347,
      0.37893790006637573,
      -1.5878913402557373
    ],
    [
      -0.06857293099164963,
      0.11132112145423889,
      -0.0449565164744854
    ],
    [
      -0.7520847916603088,
      -0.7657673358917236,
      -0.8502447605133057
    ],
    [
      0.16208083927631378,
      -0.24416384100914001,
      0.04007798060774803
    ],
    [
      -2.736219882965088,
      -2.7353899478912354,
      -2.9074594974517822
    ],
    [
      -0.39975112676620483,
      -0.4213126003742218,
      -0.6960956454277039
    ],
    [
      -0.7024412155151367,
      -0.692136287689209,
      -0.8545988202095032
    ],
    [
      0.5882817506790161,
      0.5650334358215332,
      0.6248148679733276
    ],
    [
      -0.27047842741012573,
      -0.40784671902656555,
      -0.6697116494178772
    ],
    [
      -0.43202435970306396,
      -0.3959026038646698,
      -0.8128785490989685
    ],
    [
      0.28851404786109924,
      -0.048489414155483246,
      -0.15410126745700836
    ],
    [
      1.0619970560073853,
      0.974689781665802,
      1.0009595155715942
    ],
    [
      -0.14619679749011993,
      -0.16080822050571442,
      -0.18356625735759735
    ],
    [
      -0.14332565665245056,
      -0.14131198823451996,
      -0.0646836906671524
    ],
    [
      -0.49298804998397827,
      -0.15543046593666077,
      0.005732242483645678
    ],
    [
      0.18524019420146942,
      -0.026762893423438072,
      -0.31854498386383057
    ],
    [
      -0.2576276957988739,
      -0.2558811902999878,
      -0.17514581978321075
    ],
    [
      0.8470818400382996,
      0.8199205994606018,
      0.8859284520149231
    ],
    [
      -0.786655604839325,
      -0.7600635886192322,
      -0.6364273428916931
    ],
    [
      0.057149481028318405,
      -0.12101928144693375,
      -0.11867956072092056
    ],
    [
      -2.8162026405334473,
      -2.9321181774139404,
      -2.839327335357666
    ],
    [
      -5.954885005950928,
      -6.1116461753845215,
      -7.210289478302002
    ],
    [
      -0.010743520222604275,
      -0.061322178691625595,
      0.05406499281525612
    ],
    [
      -0.6734897494316101,
      -0.6663403511047363,
      -0.6914921402931213
    ],
    [
      -0.2552301585674286,
      -0.31473469734191895,
      -0.7811967134475708
    ],
    [
      0.2229253500699997,
      -0.16894836723804474,
      0.11815273761749268
    ],
    [
      0.15606467425823212,
      0.08061834424734116,
      0.1298426389694214
    ],
    [
      -1.8075752258300781,
      -1.864203929901123,
      -2.661181688308716
    ],
    [
      0.03137446939945221,
      -0.17299363017082214,
      0.3072722852230072
    ],
    [
      -0.061407577246427536,
      -0.04866921901702881,
      -0.20279338955879211
    ],
    [
      -0.12390471249818802,
      0.06433843076229095,
      -0.1163523942232132
    ],
    [
      0.5807930827140808,
      0.5059367418289185,
      0.4060097336769104
    ]
  ],
  "bound": 1.0,
  "cascade": 1
}