{
  "net.0.weight": [
    [
      0.6961933374404907,
      0.25604963302612305,
      -0.42749565839767456,
      -0.05241654813289642,
      0.004757849033921957,
      -0.09364348649978638,
      -0.24826762080192566,
      -0.5045714974403381,
      1.2643615007400513,
      -0.8839311599731445,
      0.6662558317184448,
      -0.2563783824443817,
      0.9160270094871521,
      1.6693472862243652,
      1.6260236501693726,
      -1.5927938222885132,
      -1.244336485862732,
      0.5823349952697754,
      1.767031192779541,
      -0.03557687625288963,
      -0.070892333984375,
      0.1320057511329651,
      0.22155171632766724,
      -0.6188608407974243,
      -0.7112773060798645,
      0.3987649977207184,
      1.1966460943222046,
      0.8950891494750977,
      0.2411276400089264,
      0.9388285875320435,
      -1.4204094409942627,
      -0.23638924956321716
    ],
    [
      -0.03142871707677841,
      0.5253879427909851,
      -1.6972928047180176,
      -0.2075348049402237,
      -0.011823677457869053,
      -1.0766805410385132,
      0.6977877616882324,
      0.16171853244304657,
      -0.16366435587406158,
      0.9979040622711182,
      1.3427449464797974,
      -0.5335025191307068,
      0.49215081334114075,
      -0.6484665870666504,
      0.5436998605728149,
      0.2786886394023895,
      -0.2418762743473053,
      -0.6975873708724976,
      -0.1776556819677353,
      -0.8360691666603088,
      -0.1362265944480896,
      -0.24163341522216797,
      -1.5017825365066528,
      1.436073899269104,
      -0.6773535013198853,
      0.2876644730567932,
      0.6537497639656067,
      -0.24028585851192474,
      0.00307086412794888,
      1.7804032564163208,
      -0.574052095413208,
      -1.828610897064209
    ],
    [
      -0.828518271446228,
      -0.3128049969673157,
      1.99483323097229,
      0.44728225469589233,
      0.04816718026995659,
      1.067922830581665,
      -0.6082819700241089,
      0.12267258018255234,
      2.236093759536743,
      2.276845693588257,
      1.3906691074371338,
      2.7815330028533936,
      1.3260749578475952,
      -0.18403945863246918,
      0.26383909583091736,
      -1.0194979906082153,
      0.09379090368747711,
      -0.5148961544036865,
      -0.5574844479560852,
      0.6843216419219971,
      -0.9802595973014832,
      -0.19425354897975922,
      1.3161190748214722,
      -0.341963529586792,
      -0.5194728970527649,
      -0.3530617356300354,
      1.3214139938354492,
      -0.8506184816360474,
      0.4759501814842224,
      0.27357017993927,
      1.1248596906661987,
      -0.6842603087425232
    ],
    [
      -0.44263795018196106,
      0.9574180245399475,
      -1.6113289594650269,
      0.25138258934020996,
      -3.5850095748901367,
      -2.2339019775390625,
      -0.02351423166692257,
      -0.005135480314493179,
      1.084338665008545,
      0.018936915323138237,
      0.426588773727417,
      -0.5081506967544556,
      0.09196585416793823,
      0.027299722656607628,
      0.9191664457321167,
      -0.7242581248283386,
      0.36644884943962097,
      -0.9019341468811035,
      0.5926739573478699,
      -1.6464725732803345,
      -0.23684602975845337,
      -1.4335557222366333,
      -2.295142412185669,
      -0.7515063881874084,
      -0.4761597514152527,
      0.13417868316173553,
      -1.819326400756836,
      1.1225064992904663,
      -1.329807996749878,
      -0.180841863155365,
      -1.5670006275177002,
      -0.14674115180969238
    ],
    [
      -2.2104525566101074,
      -0.977268397808075,
      -1.2950575351715088,
      0.7132412195205688,
      -0.5548692941665649,
      1.4004689455032349,
      0.24798792600631714,
      -1.6782445907592773,
      1.0228259563446045,
      -1.0231808423995972,
      -1.0588661432266235,
      0.0342460498213768,
      -0.5067884922027588,
      -0.39543578028678894,
      -1.1448944807052612,
      0.1923496574163437,
      0.8706450462341309,
      -1.8304575681686401,
      -2.47505784034729,
      0.9916208982467651,
      0.854982316493988,
      0.059835340827703476,
      -1.275925874710083,
      -0.4564960300922394,
      -3.205686092376709,
      -0.660525381565094,
      -0.36229556798934937,
      -0.6218143105506897,
      -0.6159743666648865,
      -0.8839134573936462,
      0.5322443246841431,
      -0.048605721443891525
    ],
    [
      -0.2056693434715271,
      -0.18842871487140656,
      -0.22291073203086853,
      -0.34695687890052795,
      0.5064598917961121,
      -0.19064009189605713,
      0.3854381740093231,
      -1.1590509414672852,
      -0.07941233366727829,
      -0.9364702701568604,
      -0.7234906554222107,
      -1.5990722179412842,
      -0.7400708794593811,
      -0.17258931696414948,
      1.9877859354019165,
      -0.0316467210650444,
      0.29970771074295044,
      -1.139135479927063,
      -2.9120802879333496,
      -1.0323859453201294,
      0.4051525890827179,
      0.49221986532211304,
      0.1588277965784073,
      -1.9970574378967285,
      1.3940238952636719,
      0.1375279575586319,
      0.9613732099533081,
      0.21214380860328674,
      -0.8671645522117615,
      -0.8554992079734802,
      -0.32212167978286743,
      -0.298999547958374
    ]
  ],
  "net.1.weight": [
    [
      -0.4551596939563751,
      -0.2992810606956482,
      -1.0184129476547241
    ],
    [
      -0.17274361848831177,
      -0.11857447773218155,
      -0.08844111114740372
    ],
    [
      -2.1500251293182373,
      -5.842690944671631,
      -5.481860637664795
    ],
    [
      0.7395214438438416,
      -0.25081875920295715,
      -0.29346463084220886
    ],
    [
      0.21093373000621796,
      -0.3558887541294098,
      0.5421995520591736
    ],
    [
      -1.3994382619857788,
      -1.5624384880065918,
      -1.5303891897201538
    ],
    [
      -0.36752012372016907,
      -0.451112300157547,
      -0.28062766790390015
    ],
    [
      0.8050597906112671,
      0.015489145182073116,
      -0.24519644677639008
    ],
    [
      0.8201634883880615,
      1.2033228874206543,
      1.3723307847976685
    ],
    [
      0.43909645080566406,
      0.9370555281639099,
      1.3181403875350952
    ],
    [
      -1.155221939086914,
      -1.168136477470398,
      -1.497382402420044
    ],
    [
      -1.0316098928451538,
      0.031658489257097244,
      -0.1283784955739975
    ],
    [
      -0.4627563953399658,
      0.035692524164915085,
      0.18344677984714508
    ],
    [
      -0.34013333916664124,
      -0.5545474886894226,
      -0.665727436542511
    ],
    [
      -1.759341835975647,
      -2.0197715759277344,
      -2.330457925796509
    ],
    [
      -0.7993491888046265,
      -0.8675208687782288,
      -0.9452837109565735
    ],
    [
      -0.5545746684074402,
      -0.5766544938087463,
      -0.5943445563316345
    ],
    [
      -0.6918941736221313,
      -0.7808006405830383,
      -0.47932520508766174
    ],
    [
      1.7360057830810547,
      2.0052990913391113,
      2.185783624649048
    ],
    [
      -0.29108697175979614,
      -0.5110242366790771,
      -0.4718761444091797
    ],
    [
      -1.0128356218338013,
      -0.30441564321517944,
      -0.13902634382247925
    ],
    [
      -0.5165423154830933,
      0.04424475133419037,
      0.275862455368042
    ],
    [
      -3.640679359436035,
      -3.004767417907715,
      -3.047891616821289
    ],
    [
      1.0928236246109009,
      1.194715142250061,
      1.2217251062393188
    ],
    [
      1.0935312509536743,
      1.475158929824829,
      1.5448567867279053
    ],
    [
      -0.11657042056322098,
      -0.2610425651073456,
      0.2798900604248047
    ],
    [
      1.4704811573028564,
      1.5534112453460693,
      1.6245410442352295
    ],
    [
      -0.45731091499328613,
      -0.5289672613143921,
      -0.46394187211990356
    ],
    [
      0.53093022108078,
      -0.3135761320590973,
      0.15854443609714508
    ],
    [
      -0.9490498304367065,
      -1.2449407577514648,
      -1.5016350746154785
    ],
    [
      -0.7112642526626587,
      -0.9466099739074707,
      -1.1165889501571655
    ],
    [
      -0.5404759645462036,
      -0.6538099646568298,
      -0.6463783383369446
    ]
  ],
  "bound": 1.0,
  "cascade": 1
}