{
  "net.0.weight": [
    [
      0.12228021770715714,
      -1.1016826629638672,
      2.3627917766571045,
      -0.08365947753190994,
      0.9504349231719971,
      -0.8347756266593933,
      0.13009774684906006,
      -1.8071246147155762,
      1.3892165422439575,
      -0.1281437873840332,
      -0.9314102530479431,
      -0.6969811916351318,
      1.0978050231933594,
      0.602311909198761,
      0.95045405626297,
      -1.3913027048110962,
      0.017531611025333405,
      -0.5773391723632812,
      0.8035902380943298,
      1.577370524406433,
      -0.6208018660545349,
      1.49763822555542,
      0.48502978682518005,
      -1.543575644493103,
      -0.22410690784454346,
      -0.008468922227621078,
      -1.637362003326416,
      0.5302367210388184,
      0.8608492016792297,
      -1.060587763786316,
      -0.9265798330307007,
      0.3905985653400421
    ],
    [
      -0.08883894979953766,
      -1.7587252855300903,
      -0.25783270597457886,
      -0.35820272564888,
      -1.4991576671600342,
      0.7916755080223083,
      0.4321938455104828,
      -0.5229776501655579,
      0.16438943147659302,
      0.12475203722715378,
      1.9200410842895508,
      0.42930465936660767,
      -0.5000739097595215,
      -2.201056957244873,
      0.2001783847808838,
      -0.14261607825756073,
      1.623637318611145,
      0.7935751676559448,
      0.26996201276779175,
      -0.19280724227428436,
      -1.2268686294555664,
      -1.4840220212936401,
      0.4666367471218109,
      0.39530712366104126,
      -0.07022186368703842,
      -0.005040774121880531,
      -0.4601975083351135,
      -0.3372563421726227,
      0.1966339349746704,
      1.54472815990448,
      0.6587516665458679,
      -0.7044250965118408
    ],
    [
      0.8712774515151978,
      -0.272176593542099,
      0.47270020842552185,
      0.4353434443473816,
      0.002338164020329714,
      -0.5441906452178955,
      -0.8606505990028381,
      0.038261499255895615,
      -0.5430471301078796,
      0.1742507815361023,
      -0.23932240903377533,
      -1.0227196216583252,
      0.5987348556518555,
      0.7418846487998962,
      1.0032507181167603,
      0.2880324423313141,
      0.13670845329761505,
      -0.8448165059089661,
      -0.40494492650032043,
      1.2437556982040405,
      1.384900689125061,
      0.16964231431484222,
      -0.7648026943206787,
      -0.04413064569234848,
      2.1112937927246094,
      0.27393895387649536,
      0.5947141051292419,
      1.3635183572769165,
      0.4440287947654724,
      1.0429719686508179,
      -0.6308537125587463,
      -1.4016624689102173
    ],
    [
      -0.16852733492851257,
      0.48996061086654663,
      0.17038995027542114,
      -0.9673016667366028,
      0.8907021284103394,
      0.568438708782196,
      -3.7009286880493164,
      -0.44810137152671814,
      -2.21032977104187,
      -0.07045087963342667,
      -1.8367600440979004,
      0.08426162600517273,
      -2.630385160446167,
      1.0778875350952148,
      -1.9390630722045898,
      -0.1970982551574707,
      -0.9823740124702454,
      -0.21240973472595215,
      -1.6075348854064941,
      -1.4298228025436401,
      -0.846881091594696,
      0.6312147378921509,
      -1.4627628326416016,
      -1.1067636013031006,
      -0.33560922741889954,
      -0.6810699701309204,
      -0.36814677715301514,
      -0.2840671241283417,
      -0.865344762802124,
      -2.924811601638794,
      0.39103400707244873,
      -1.4911342859268188
    ],
    [
      -0.364912211894989,
      -0.09570066630840302,
      -0.07838483899831772,
      -0.7423850893974304,
      0.017900124192237854,
      0.48837265372276306,
      -0.17492817342281342,
      0.23067298531532288,
      1.0295913219451904,
      0.24539583921432495,
      0.182066410779953,
      0.48143893480300903,
      -1.704545259475708,
      0.13737812638282776,
      -0.32993990182876587,
      -1.7249102592468262,
      -0.6879858374595642,
      0.4910772740840912,
      0.09360537678003311,
      1.1422135829925537,
      -0.10660914331674576,
      0.5608572959899902,
      -5.034947872161865,
      -1.2995522022247314,
      0.5737514495849609,
      -0.8178179264068604,
      -0.32737627625465393,
      -0.09716375917196274,
      -1.5742135047912598,
      1.2440083026885986,
      0.4222354590892792,
      0.11281829327344894
    ],
    [
      -0.2780267596244812,
      1.0385098457336426,
      -3.4232256412506104,
      0.654455304145813,
      1.4656460285186768,
      0.2841007113456726,
      -4.302715301513672,
      -2.2347588539123535,
      -0.18067903816699982,
      0.0729079470038414,
      0.521169900894165,
      0.5240200757980347,
      3.4539480209350586,
      -0.17318230867385864,
      -3.1558446884155273,
      0.9457895159721375,
      0.48468509316444397,
      -0.13642004132270813,
      0.6369401216506958,
      -1.5947014093399048,
      -6.212884902954102,
      2.0639116764068604,
      1.8664978742599487,
      1.950278639793396,
      0.3208998441696167,
      0.4713636636734009,
      0.2450110763311386,
      0.7795413732528687,
      0.6573678851127625,
      0.7123216986656189,
      0.14126348495483398,
      -1.375589370727539
    ]
  ],
  "net.1.weight": [
    [
      -0.2604883909225464,
      -0.06661573797464371,
      0.2133270800113678
    ],
    [
      -1.6864186525344849,
      -1.2022514343261719,
      -1.1425576210021973
    ],
    [
      -1.3732531070709229,
      -1.3493115901947021,
      -1.2889331579208374
    ],
    [
      0.32894450426101685,
      0.22133873403072357,
      0.19165602326393127
    ],
    [
      -0.6384462714195251,
      -0.7323712706565857,
      -0.8304802179336548
    ],
    [
      -0.7356655597686768,
      -0.47669145464897156,
      -0.28070172667503357
    ],
    [
      0.09193164110183716,
      0.42370572686195374,
      0.47966617345809937
    ],
    [
      0.8525018692016602,
      0.8570811748504639,
      0.9043214917182922
    ],
    [
      -1.4555768966674805,
      -1.310423731803894,
      -1.1723557710647583
    ],
    [
      -0.0691433846950531,
      0.24101407825946808,
      -0.11607871204614639
    ],
    [
      -2.9383885860443115,
      -2.907378673553467,
      -3.0645103454589844
    ],
    [
      -0.21360376477241516,
      -0.5828167796134949,
      -0.4965948462486267
    ],
    [
      -1.1848161220550537,
      -1.1031248569488525,
      -1.1664159297943115
    ],
    [
      2.0304415225982666,
      1.5386981964111328,
      1.5376248359680176
    ],
    [
      1.1529854536056519,
      0.89505934715271,
      0.6812725067138672
    ],
    [
      -1.5792311429977417,
      -1.5948436260223389,
      -1.9097180366516113
    ],
    [
      1.0470759868621826,
      1.0451430082321167,
      0.8788637518882751
    ],
    [
      -0.21790695190429688,
      -0.38926374912261963,
      -0.46954089403152466
    ],
    [
      -0.17422232031822205,
      -0.4509524405002594,
      -0.5698240399360657
    ],
    [
      2.2225966453552246,
      2.164114236831665,
      2.07051420211792
    ],
    [
      1.1702123880386353,
      1.0534456968307495,
      1.1804178953170776
    ],
    [
      -1.4391506910324097,
      -1.0369462966918945,
      -0.9532885551452637
    ],
    [
      1.1324411630630493,
      0.9538291692733765,
      0.9494231939315796
    ],
    [
      2.3457117080688477,
      2.538217067718506,
      3.0089714527130127
    ],
    [
      -1.0434319972991943,
      -0.2999548614025116,
      -0.5215266346931458
    ],
    [
      -0.03141160309314728,
      0.0334237739443779,
      0.3475434482097626
    ],
    [
      -0.47699835896492004,
      -0.6304909586906433,
      -0.7538803219795227
    ],
    [
      -0.5805162191390991,
      0.3016510307788849,
      0.03326568379998207
    ],
    [
      0.48521673679351807,
      0.38001003861427307,
      0.0638921707868576
    ],
    [
      2.397017240524292,
      2.4611260890960693,
      2.697713613510132
    ],
    [
      -0.314332515001297,
      -0.418381005525589,
      -0.6451355218887329
    ],
    [
      0.7835538387298584,
      0.7484462261199951,
      0.759182870388031
    ]
  ],
  "bound": 8.0,
  "cascade": 4
}