{
  "net.0.weight": [
    [
      -0.028536364436149597,
      0.3284662961959839,
      0.5395328402519226,
      0.39329907298088074,
      -0.14571800827980042,
      0.759163498878479,
      0.1534336656332016,
      -0.19192487001419067,
      0.2481747567653656,
      -0.06082550808787346,
      0.48555678129196167,
      0.45293551683425903,
      0.38264307379722595,
      -0.15188366174697876,
      -0.5195152759552002,
      0.32472196221351624,
      -0.2554348409175873,
      0.5455960631370544,
      -0.7233218550682068,
      -0.55512934923172,
      0.03565593063831329,
      0.3330051600933075,
      0.439813494682312,
      0.24334944784641266,
      -0.07918322086334229,
      -0.2544395327568054,
      -0.41183653473854065,
      0.2786320447921753,
      0.8466140031814575,
      0.11059201508760452,
      0.35963699221611023,
      -0.07303208112716675
    ],
    [
      0.3127255141735077,
      -0.17531713843345642,
      -0.06756501644849777,
      -2.1550958156585693,
      -0.24061110615730286,
      1.8169012069702148,
      -0.12300258874893188,
      -0.46751922369003296,
      1.6661014556884766,
      -0.6337569952011108,
      1.1013671159744263,
      0.5105716586112976,
      -0.856219470500946,
      -0.3663683235645294,
      0.393466055393219,
      -0.8586558699607849,
      2.091674327850342,
      0.1721177101135254,
      -1.0032345056533813,
      -1.0086605548858643,
      -0.14826782047748566,
      0.16934137046337128,
      0.08895175158977509,
      -0.6540287137031555,
      -1.628635048866272,
      0.27295705676078796,
      1.6933773756027222,
      -0.5553014278411865,
      1.0038901567459106,
      -0.07589878886938095,
      0.13560751080513,
      1.4578661918640137
    ],
    [
      -1.9401298761367798,
      0.2580373287200928,
      0.1116771474480629,
      0.11075007170438766,
      0.7038300633430481,
      -0.002572636818513274,
      -0.04989011958241463,
      0.8227120041847229,
      -2.038206100463867,
      0.022588955238461494,
      0.6912329792976379,
      -0.8570022583007812,
      -0.1544865071773529,
      0.24397650361061096,
      1.6659307479858398,
      -1.6223797798156738,
      -0.9729334712028503,
      0.038145218044519424,
      -0.7455254793167114,
      -0.10988661646842957,
      -0.2608158588409424,
      -0.2430531233549118,
      0.1413506716489792,
      -2.4984476566314697,
      -0.5202372074127197,
      0.5022329092025757,
      -1.497895359992981,
      -2.5443811416625977,
      -1.1350377798080444,
      0.11733444780111313,
      0.059817247092723846,
      -1.9591928720474243
    ],
    [
      -0.4020121395587921,
      -0.4387480616569519,
      -0.5722336769104004,
      -0.8215811848640442,
      0.6935113668441772,
      1.0788480043411255,
      -0.572905957698822,
      1.1109286546707153,
      0.03119797818362713,
      0.5306338667869568,
      1.0236024856567383,
      0.9229568839073181,
      1.052209496498108,
      1.1743165254592896,
      0.05855954438447952,
      -2.234705924987793,
      0.6819323897361755,
      -0.40710514783859253,
      0.07491688430309296,
      0.8831425309181213,
      0.7229821085929871,
      -0.054386090487241745,
      0.0970044657588005,
      -0.9319593906402588,
      0.36239203810691833,
      -0.22411474585533142,
      -0.5367539525032043,
      0.1605486124753952,
      -3.9105641841888428,
      -0.06106662005186081,
      -0.024487454444169998,
      -0.4321303069591522
    ],
    [
      -1.09236478805542,
      -0.28197428584098816,
      0.1351582556962967,
      -0.889017641544342,
      0.21522411704063416,
      0.4017565846443176,
      -0.00970600824803114,
      -1.1939406394958496,
      -0.3001871109008789,
      0.42945462465286255,
      -3.914409875869751,
      -0.24801981449127197,
      0.11982942372560501,
      0.011814743280410767,
      -2.716353416442871,
      -0.3477126955986023,
      -0.5593634247779846,
      -0.2942925989627838,
      -0.10361035168170929,
      0.17099551856517792,
      0.18527452647686005,
      -0.33019670844078064,
      -0.5199019908905029,
      1.276236891746521,
      1.063003420829773,
      -3.842158794403076,
      0.29686570167541504,
      0.1447327733039856,
      -0.11657761037349701,
      -0.5177048444747925,
      -0.42614880204200745,
      0.5137194395065308
    ],
    [
      -0.11566594988107681,
      -0.20730912685394287,
      -0.3307882845401764,
      1.228771686553955,
      -0.24772591888904572,
      0.563665509223938,
      -0.35706889629364014,
      0.23825301229953766,
      -1.2062984704971313,
      -0.5203758478164673,
      -0.04679938033223152,
      0.506775438785553,
      -0.5817288756370544,
      -0.04629824310541153,
      -0.3130374252796173,
      0.05871184915304184,
      -1.4901108741760254,
      -0.19222185015678406,
      -0.35948535799980164,
      -0.19732989370822906,
      -0.21790502965450287,
      -0.17529085278511047,
      -0.25568217039108276,
      -2.5892302989959717,
      -0.7024931311607361,
      -0.28967756032943726,
      0.5800330638885498,
      -2.5951690673828125,
      1.1596556901931763,
      -0.4762552082538605,
      -0.573428750038147,
      0.48633164167404175
    ]
  ],
  "net.1.weight": [
    [
      -1.663143277168274,
      -1.7633846998214722,
      -1.5108716487884521
    ],
    [
      0.037127263844013214,
      -0.1202976405620575,
      -0.04252595081925392
    ],
    [
      -0.06682367622852325,
      -0.10447133332490921,
      0.024200251325964928
    ],
    [
      1.3923182487487793,
      1.2327646017074585,
      1.3000422716140747
    ],
    [
      -0.245905801653862,
      -0.2990871071815491,
      -0.015061070211231709
    ],
    [
      -1.359605312347412,
      -1.228769063949585,
      -1.0172358751296997
    ],
    [
      0.05813652649521828,
      -0.18492341041564941,
      -0.181102454662323
    ],
    [
      -1.01832914352417,
      -0.6714973449707031,
      -0.22429324686527252
    ],
    [
      1.168554663658142,
      1.099812626838684,
      1.0746604204177856
    ],
    [
      0.24912646412849426,
      -0.17895418405532837,
      -0.18628782033920288
    ],
    [
      1.3604458570480347,
      0.9889833927154541,
      0.771852433681488
    ],
    [
      0.3318967819213867,
      0.005513238720595837,
      -0.4752022922039032
    ],
    [
      -0.3583031892776489,
      -0.6388739943504333,
      -0.48387137055397034
    ],
    [
      -0.014703704044222832,
      -0.18797092139720917,
      -0.23681491613388062
    ],
    [
      1.0610426664352417,
      1.2199610471725464,
      1.1550527811050415
    ],
    [
      0.9777116179466248,
      1.1308212280273438,
      1.1231544017791748
    ],
    [
      1.0875017642974854,
      1.1794382333755493,
      1.325512170791626
    ],
    [
      -0.0866582915186882,
      -0.07944240421056747,
      -0.05871482938528061
    ],
    [
      -0.5936557650566101,
      -0.43853190541267395,
      -0.20765995979309082
    ],
    [
      -0.5364539623260498,
      -0.23029372096061707,
      -0.3811495006084442
    ],
    [
      0.07973956316709518,
      0.08361689001321793,
      -0.11898571252822876
    ],
    [
      -0.07210034132003784,
      0.0334189310669899,
      -0.005003926809877157
    ],
    [
      0.12778711318969727,
      -0.012897820211946964,
      -0.15354301035404205
    ],
    [
      -1.2073369026184082,
      -1.2426881790161133,
      -1.1933701038360596
    ],
    [
      -0.8420541882514954,
      -0.8084699511528015,
      -0.8043133616447449
    ],
    [
      -0.017294438555836678,
      0.3200497329235077,
      1.0583637952804565
    ],
    [
      -0.7101056575775146,
      -0.6989495158195496,
      -0.6439099907875061
    ],
    [
      1.850487470626831,
      1.8994582891464233,
      1.8874993324279785
    ],
    [
      -4.602357387542725,
      -5.023830413818359,
      -5.097530841827393
    ],
    [
      -0.16004237532615662,
      -0.1040048897266388,
      0.16735853254795074
    ],
    [
      0.09612659364938736,
      0.23938603699207306,
      0.05925174430012703
    ],
    [
      -0.567847728729248,
      -0.568851888179779,
      -0.6847776770591736
    ]
  ],
  "bound": 4.0,
  "cascade": 3
}