{
  "net.0.weight": [
    [
      1.0228320360183716,
      0.40687093138694763,
      -0.012851019389927387,
      -0.013215260580182076,
      -0.05255739390850067,
      -0.2129019945859909,
      -1.386134386062622,
      -0.6244605779647827,
      1.7603579759597778,
      -0.4849604666233063,
      -0.07044384628534317,
      -2.2304141521453857,
      -0.28210288286209106,
      -0.909984290599823,
      0.3239330053329468,
      0.8111845850944519,
      0.4759083688259125,
      0.13014934957027435,
      0.4316832721233368,
      -0.3506604731082916,
      -1.0051016807556152,
      -1.689121127128601,
      0.8073055744171143,
      -0.04275503382086754,
      1.0948700904846191,
      -0.7001636028289795,
      -0.05426095798611641,
      -1.20472252368927,
      -0.6508707404136658,
      0.0788702517747879,
      0.7519211173057556,
      0.7788873314857483
    ],
    [
      -1.1516783237457275,
      0.20701080560684204,
      0.5060614943504333,
      0.06776759028434753,
      2.320460319519043,
      -0.045292630791664124,
      1.4525542259216309,
      0.2516220211982727,
      0.3485862612724304,
      0.2321130931377411,
      0.17707175016403198,
      1.231788992881775,
      -0.2990507185459137,
      0.38036707043647766,
      0.774885356426239,
      -0.7604319453239441,
      -0.3542975187301636,
      0.520357072353363,
      1.6391187906265259,
      -0.9038740396499634,
      1.1381250619888306,
      0.23730702698230743,
      1.949438452720642,
      1.7652891874313354,
      1.0271930694580078,
      2.3481101989746094,
      0.4086999297142029,
      -0.8611892461776733,
      -0.47446209192276,
      -0.08604171872138977,
      -0.08972039073705673,
      -0.05716121196746826
    ],
    [
      -0.04128417372703552,
      1.9941197633743286,
      -1.2634990215301514,
      1.702173113822937,
      0.7763724327087402,
      -0.3972429931163788,
      0.29973694682121277,
      -0.41389134526252747,
      0.9532051682472229,
      -1.81653892993927,
      -0.3394543528556824,
      -0.4981326460838318,
      -0.02455662377178669,
      0.7482920289039612,
      0.401491641998291,
      -1.0843075513839722,
      0.7007210850715637,
      -0.2144635170698166,
      0.12424120306968689,
      -0.472782164812088,
      0.6954803466796875,
      -0.7674997448921204,
      -1.9342161417007446,
      1.18594491481781,
      -0.2293061465024948,
      -0.7854822874069214,
      2.3714747428894043,
      0.47523728013038635,
      -0.08263768255710602,
      -0.62261563539505,
      0.06960829347372055,
      -1.419036626815796
    ],
    [
      2.028855800628662,
      -1.9271656274795532,
      -3.209068536758423,
      -2.0713138580322266,
      -3.0965657234191895,
      2.7442898750305176,
      0.7010689973831177,
      0.08955419063568115,
      -1.8834261894226074,
      1.9664350748062134,
      0.9197314381599426,
      -5.869189739227295,
      0.5980676412582397,
      -0.10688075423240662,
      0.0701073557138443,
      2.0567140579223633,
      1.6290816068649292,
      -0.2950211465358734,
      -1.011399745941162,
      0.22418338060379028,
      -1.0223863124847412,
      0.7719812393188477,
      -3.2614822387695312,
      -1.707098126411438,
      1.2994341850280762,
      -3.182626724243164,
      -3.1813368797302246,
      0.19856640696525574,
      1.107602834701538,
      0.48234063386917114,
      0.3116770088672638,
      1.8502188920974731
    ],
    [
      -1.254603624343872,
      -2.5767674446105957,
      1.474200963973999,
      1.9783871173858643,
      -0.6041480302810669,
      0.6684640049934387,
      0.5719672441482544,
      -1.1399364471435547,
      -2.5622129440307617,
      -5.93522310256958,
      -1.0056877136230469,
      -0.2712462544441223,
      -3.4106523990631104,
      0.4320412576198578,
      0.815844714641571,
      0.3017321228981018,
      0.34877485036849976,
      -0.04529397934675217,
      1.5858196020126343,
      0.24195198714733124,
      -8.79321575164795,
      0.006998411845415831,
      -1.8530488014221191,
      1.3520917892456055,
      -1.3303581476211548,
      -0.412528395652771,
      -1.247787356376648,
      -0.208744615316391,
      0.17325325310230255,
      -1.147216796875,
      -10.601064682006836,
      -4.565927028656006
    ],
    [
      -2.039539337158203,
      2.77010178565979,
      1.7330259084701538,
      0.9383686184883118,
      0.004362899344414473,
      0.7912887930870056,
      1.3542118072509766,
      -0.42163512110710144,
      -4.377771377563477,
      -0.9610735177993774,
      -0.29245448112487793,
      -0.6339817047119141,
      -0.8654563426971436,
      -3.3639914989471436,
      -10.825002670288086,
      -0.7849364876747131,
      0.7292690277099609,
      -1.2005772590637207,
      0.2620364725589752,
      -15.88349437713623,
      -0.37614911794662476,
      -3.8702805042266846,
      -0.33481815457344055,
      -0.7053475975990295,
      -1.4878759384155273,
      -0.4850054681301117,
      1.728310465812683,
      -1.2215774059295654,
      0.4829976260662079,
      1.0752512216567993,
      1.1957957744598389,
      1.5730949640274048
    ]
  ],
  "net.1.weight": [
    [
      1.3407803773880005,
      1.3590278625488281,
      1.4012091159820557
    ],
    [
      2.5261781215667725,
      2.509401798248291,
      2.543210506439209
    ],
    [
      1.1597763299942017,
      1.1089667081832886,
      1.07599937915802
    ],
    [
      -0.5327312350273132,
      -0.5852712392807007,
      -0.4849850535392761
    ],
    [
      -2.4890711307525635,
      -2.23445200920105,
      -2.0929765701293945
    ],
    [
      -0.9309818148612976,
      -0.841486930847168,
      -0.8246556520462036
    ],
    [
      0.8247557282447815,
      0.7828229069709778,
      0.7604815363883972
    ],
    [
      0.4034383296966553,
      0.03176691755652428,
      -0.40907174348831177
    ],
    [
      -2.316534996032715,
      -2.3290743827819824,
      -2.2361044883728027
    ],
    [
      -4.006913661956787,
      -3.6492435932159424,
      -3.579329013824463
    ],
    [
      0.48149818181991577,
      0.05041860044002533,
      -0.34870225191116333
    ],
    [
      -2.2067556381225586,
      -2.012847900390625,
      -1.8867467641830444
    ],
    [
      0.5295922160148621,
      -0.02033056691288948,
      -0.5449236631393433
    ],
    [
      -0.8211995959281921,
      -0.6884202361106873,
      -0.7146720290184021
    ],
    [
      1.2022387981414795,
      1.2849725484848022,
      1.2600557804107666
    ],
    [
      -0.6277035474777222,
      -0.7212870717048645,
      -0.7418014407157898
    ],
    [
      -0.4820902347564697,
      -0.4744490683078766,
      -0.5052382349967957
    ],
    [
      -0.3093399405479431,
      -0.07011110335588455,
      0.4602806866168976
    ],
    [
      0.4937724769115448,
      0.4369782507419586,
      0.35929879546165466
    ],
    [
      -2.7479445934295654,
      -2.4892210960388184,
      -2.280886650085449
    ],
    [
      -2.302018165588379,
      -2.1051442623138428,
      -1.852587103843689
    ],
    [
      -0.9883915185928345,
      -0.9412751793861389,
      -0.7741408348083496
    ],
    [
      -1.8796614408493042,
      -1.7963714599609375,
      -1.7077215909957886
    ],
    [
      -0.8786633014678955,
      -0.8986409902572632,
      -0.8457247018814087
    ],
    [
      -0.518297016620636,
      -0.4854906499385834,
      -0.4140803813934326
    ],
    [
      -1.80124831199646,
      -1.6596928834915161,
      -1.5744142532348633
    ],
    [
      -2.389688014984131,
      -2.289954423904419,
      -2.2460036277770996
    ],
    [
      0.5221009850502014,
      0.5030578970909119,
      0.4774942100048065
    ],
    [
      -0.29536688327789307,
      -0.29778727889060974,
      -0.2591920793056488
    ],
    [
      0.11547696590423584,
      -0.07485796511173248,
      -0.4079520106315613
    ],
    [
      1.5050373077392578,
      1.4463123083114624,
      1.3523409366607666
    ],
    [
      -1.5124080181121826,
      -1.4477641582489014,
      -1.3168877363204956
    ]
  ],
  "bound": 1.0,
  "cascade": 1
}