{
  "net.0.weight": [
    [
      -0.07256660610437393,
      0.8737278580665588,
      0.21128417551517487,
      0.08004794269800186,
      0.7675052881240845,
      0.35530099272727966,
      0.017442697659134865,
      -0.5519804358482361,
      0.3472457230091095,
      0.14609141647815704,
      0.029826533049345016,
      0.011322299018502235,
      0.049324486404657364,
      0.18135800957679749,
      -0.1012657880783081,
      -0.6813274025917053,
      -0.12599490582942963,
      0.7212626338005066,
      0.09527117758989334,
      0.8060225248336792,
      -0.6171640753746033,
      0.20868845283985138,
      -0.24006347358226776,
      -0.5440969467163086,
      -1.732016921043396,
      0.2883189618587494,
      -0.39594125747680664,
      0.1627192199230194,
      -0.16028688848018646,
      0.016743160784244537,
      -0.27199459075927734,
      0.053341928869485855
    ],
    [
      0.22431965172290802,
      0.6256942749023438,
      0.11086748540401459,
      -0.03081899881362915,
      1.4128527641296387,
      -0.2632085084915161,
      0.3295215964317322,
      0.6293501257896423,
      -0.7454499006271362,
      0.17069147527217865,
      0.14121903479099274,
      0.019599847495555878,
      0.07557406276464462,
      -0.4818253219127655,
      0.1292104721069336,
      1.0582571029663086,
      -0.30878588557243347,
      0.05750679597258568,
      0.08609411865472794,
      -1.1870391368865967,
      -0.17052583396434784,
      0.6870147585868835,
      0.573815107345581,
      0.4979691803455353,
      -0.5028990507125854,
      0.7700784802436829,
      -0.29380002617836,
      0.13354180753231049,
      0.2953869104385376,
      0.13861241936683655,
      -0.2483755350112915,
      0.06872868537902832
    ],
    [
      -2.315612316131592,
      -0.8632911443710327,
      -0.4502764046192169,
      0.42817139625549316,
      0.19204962253570557,
      -1.8119832277297974,
      -0.7739146947860718,
      -0.6755765080451965,
      -2.234647035598755,
      1.9437888860702515,
      -0.7033424973487854,
      -0.34250834584236145,
      1.4803686141967773,
      -1.104798674583435,
      -0.42731937766075134,
      -1.2740333080291748,
      -0.602566659450531,
      -2.0763978958129883,
      -0.16060632467269897,
      -0.8573331236839294,
      -1.0618031024932861,
      -2.132418394088745,
      -1.914599061012268,
      1.2913345098495483,
      -0.20937491953372955,
      -0.9081264734268188,
      -2.013092279434204,
      -0.6071001887321472,
      -1.6666696071624756,
      -1.0992920398712158,
      -0.11066275089979172,
      -0.6723673939704895
    ],
    [
      0.12981846928596497,
      0.5351437926292419,
      -0.15796251595020294,
      0.055420663207769394,
      -0.7808212041854858,
      -0.27368152141571045,
      1.6383122205734253,
      1.6824840307235718,
      0.23892652988433838,
      -1.2642935514450073,
      0.8424885272979736,
      0.1132192388176918,
      -2.7961678504943848,
      0.269024521112442,
      -2.7297940254211426,
      -0.14987124502658844,
      4.158492565155029,
      0.9281557202339172,
      0.03628072887659073,
      0.08010832220315933,
      -21.726943969726562,
      -0.4181598722934723,
      -1.2841002941131592,
      -1.4030227661132812,
      0.43406108021736145,
      -1.543236255645752,
      -0.7770142555236816,
      0.18453119695186615,
      0.2239246815443039,
      0.03394503891468048,
      0.020550735294818878,
      -0.08211250603199005
    ],
    [
      -2.0765364170074463,
      -1.3961617946624756,
      -3.4790680408477783,
      -12.615386009216309,
      -0.6688434481620789,
      -0.18219952285289764,
      -3.1295926570892334,
      -0.9978886246681213,
      -0.7295005321502686,
      0.1427004486322403,
      -1.5405806303024292,
      -1.1857489347457886,
      -0.7808017134666443,
      -0.04743943735957146,
      -2.6301777362823486,
      -1.3902620077133179,
      -4.851994514465332,
      0.06214091181755066,
      -8.184157371520996,
      0.21009530127048492,
      -4.940281391143799,
      -1.086126446723938,
      -0.13272258639335632,
      0.4422510862350464,
      0.9580219388008118,
      0.3862130641937256,
      -6.216145992279053,
      -1.9445687532424927,
      -5.677475929260254,
      -0.9388485550880432,
      -1.484731674194336,
      -0.2648301124572754
    ],
    [
      -0.28933367133140564,
      0.8665602207183838,
      -0.4997420608997345,
      -0.4427822232246399,
      -0.862765908241272,
      -1.7669533491134644,
      -2.3884100914001465,
      -0.5278979539871216,
      -1.1118372678756714,
      -2.538970708847046,
      -0.5813238620758057,
      -0.7205029726028442,
      -0.001966163981705904,
      -0.4175419509410858,
      0.13049541413784027,
      -0.7444043159484863,
      -8.10100269317627,
      0.05149342119693756,
      -0.21090379357337952,
      -0.0369463674724102,
      -0.3485717177391052,
      -1.5749304294586182,
      1.1121881008148193,
      -0.9236799478530884,
      -0.79072505235672,
      0.04801427572965622,
      -0.27455440163612366,
      0.40474918484687805,
      -0.349950909614563,
      -0.9710410237312317,
      -0.11048880964517593,
      0.2845800518989563
    ]
  ],
  "net.1.weight": [
    [
      1.6669901609420776,
      1.0713649988174438,
      0.7572296261787415
    ],
    [
      -0.5832887291908264,
      -0.5755090713500977,
      -0.6170920729637146
    ],
    [
      -0.06528017669916153,
      0.2577112019062042,
      -0.45185530185699463
    ],
    [
      0.0985090583562851,
      0.02244342677295208,
      -1.013181209564209
    ],
    [
      -0.9912839531898499,
      -0.9499711394309998,
      -1.0880193710327148
    ],
    [
      -0.36683374643325806,
      -0.17092706263065338,
      -0.4196377992630005
    ],
    [
      -0.30192872881889343,
      0.6529880166053772,
      -0.38378170132637024
    ],
    [
      -0.412322461605072,
      -0.4113241136074066,
      -0.5093482732772827
    ],
    [
      -0.9541599750518799,
      -0.9313204884529114,
      -1.1214467287063599
    ],
    [
      0.3920651078224182,
      0.4013548493385315,
      0.6251100301742554
    ],
    [
      -0.19061249494552612,
      -0.12042366713285446,
      0.4497041404247284
    ],
    [
      -0.023763278499245644,
      -0.16675353050231934,
      0.13509990274906158
    ],
    [
      0.22482702136039734,
      0.2320648729801178,
      0.06207035109400749
    ],
    [
      -0.1684146672487259,
      -0.16635257005691528,
      0.16626137495040894
    ],
    [
      0.07266397029161453,
      0.1919323056936264,
      -0.36720868945121765
    ],
    [
      -0.7605342864990234,
      -0.7575638890266418,
      -0.8477737903594971
    ],
    [
      0.020310143008828163,
      -0.05187801271677017,
      -0.8479215502738953
    ],
    [
      -0.511021614074707,
      -0.5443326234817505,
      -0.6861212253570557
    ],
    [
      0.09425798803567886,
      0.04188515618443489,
      -0.3293036222457886
    ],
    [
      -0.6647992730140686,
      -0.6181612610816956,
      -0.6568616628646851
    ],
    [
      0.443768709897995,
      0.33852094411849976,
      0.2630881667137146
    ],
    [
      -1.188579797744751,
      -1.4998764991760254,
      -1.4579697847366333
    ],
    [
      -0.794414222240448,
      -0.7898931503295898,
      -0.828143835067749
    ],
    [
      0.46997585892677307,
      0.47549697756767273,
      0.5894789099693298
    ],
    [
      -0.956582248210907,
      -0.9670253992080688,
      -1.0592215061187744
    ],
    [
      0.19941110908985138,
      0.21946480870246887,
      0.34590351581573486
    ],
    [
      0.796652615070343,
      0.8774315118789673,
      1.4127761125564575
    ],
    [
      -0.05212124064564705,
      0.16528257727622986,
      -0.3355936110019684
    ],
    [
      0.07215553522109985,
      0.6799740195274353,
      1.2339050769805908
    ],
    [
      0.0944715365767479,
      -0.12765026092529297,
      -0.277444452047348
    ],
    [
      -0.006659050937741995,
      0.21265235543251038,
      -0.27022573351860046
    ],
    [
      0.013051195070147514,
      -0.07037680596113205,
      0.06318271905183792
    ]
  ],
  "bound": 16.0,
  "cascade": 5
}