{
  "net.0.weight": [
    [
      1.6322364807128906,
      -1.688733458518982,
      -0.7585809230804443,
      0.24812966585159302,
      1.3668018579483032,
      -0.18674637377262115,
      1.867382526397705,
      -0.12806536257266998,
      1.7519410848617554,
      -0.3977259695529938,
      -0.20378011465072632,
      -0.03754659742116928,
      0.09667357057332993,
      0.1637250930070877,
      1.6143813133239746,
      -1.0281751155853271,
      1.4865844249725342,
      -0.57599937915802,
      -0.10011918097734451,
      -0.9031361937522888,
      0.82817542552948,
      0.8318905234336853,
      1.685422658920288,
      1.0143717527389526,
      0.9022142291069031,
      0.1319265514612198,
      -0.1532658189535141,
      -0.48877227306365967,
      -1.033787488937378,
      1.176970362663269,
      -0.7374556064605713,
      2.3196616172790527
    ],
    [
      0.41170328855514526,
      0.06539344787597656,
      -1.7995983362197876,
      -0.06337510049343109,
      -1.4970589876174927,
      0.44213685393333435,
      -0.9901756644248962,
      -1.6616325378417969,
      0.03343624994158745,
      -0.028958722949028015,
      0.3198348879814148,
      1.5490045547485352,
      0.20890924334526062,
      0.20793293416500092,
      -0.42454805970191956,
      -0.5449172258377075,
      0.7235554456710815,
      -0.4097968637943268,
      -1.4392783641815186,
      -0.6680286526679993,
      -0.1271941214799881,
      -0.45918363332748413,
      -0.3125587999820709,
      0.13532839715480804,
      1.0462907552719116,
      -1.373047113418579,
      -1.7428961992263794,
      -0.524371325969696,
      0.23819319903850555,
      -0.08540056645870209,
      0.589705228805542,
      -0.71293044090271
    ],
    [
      0.0389811173081398,
      0.13721907138824463,
      0.3096327781677246,
      -0.5080500841140747,
      -0.15419530868530273,
      0.9643005728721619,
      0.03778296709060669,
      -0.30141115188598633,
      0.29825371503829956,
      0.02159472554922104,
      1.8031483888626099,
      0.7795566916465759,
      -1.7660268545150757,
      1.5416163206100464,
      -0.610144317150116,
      -0.8351040482521057,
      -0.710335373878479,
      -0.4734595715999603,
      0.10294488817453384,
      -0.2653653025627136,
      -0.5870007276535034,
      -1.3143211603164673,
      0.3357089161872864,
      0.3697783052921295,
      1.1407772302627563,
      -0.004340845625847578,
      0.026572290807962418,
      -0.3277616500854492,
      1.374158263206482,
      2.564566135406494,
      1.1545652151107788,
      0.7488489151000977
    ],
    [
      0.1579311490058899,
      -0.6752215027809143,
      -1.2420485019683838,
      -0.7545734643936157,
      -0.35453376173973083,
      0.4130629301071167,
      0.15458527207374573,
      -0.9898717403411865,
      -1.353041648864746,
      0.1580503284931183,
      -1.928095817565918,
      0.21404598653316498,
      -0.7437479496002197,
      -5.734506607055664,
      0.08819568157196045,
      -1.0694841146469116,
      -5.282224178314209,
      -1.3038793802261353,
      -2.7716307640075684,
      -0.14171673357486725,
      -6.3958635330200195,
      -0.16895391047000885,
      -3.235511064529419,
      -1.9326393604278564,
      -0.08300001174211502,
      -1.2445640563964844,
      -0.8536137938499451,
      -0.04036441817879677,
      -0.3190341293811798,
      -0.8880268931388855,
      1.0700002908706665,
      -0.0468258410692215
    ],
    [
      -0.08155328035354614,
      -0.0009517042781226337,
      -0.6833300590515137,
      0.28115177154541016,
      -0.6286075711250305,
      0.27894288301467896,
      0.653918981552124,
      -1.2451529502868652,
      -0.6678112149238586,
      0.0846053883433342,
      -0.5867743492126465,
      0.33173832297325134,
      -0.24554474651813507,
      0.7194272875785828,
      -0.6570338606834412,
      -0.819388210773468,
      -0.8572103381156921,
      0.6066180467605591,
      -1.6225594282150269,
      -2.642202854156494,
      0.4267352223396301,
      0.580947995185852,
      -0.40032172203063965,
      -1.8042956590652466,
      0.4028072953224182,
      -1.2654482126235962,
      -1.1138625144958496,
      -0.6408430337905884,
      -3.094007730484009,
      0.4063502550125122,
      -0.8597065210342407,
      -0.6129513382911682
    ],
    [
      -0.18620140850543976,
      1.0184905529022217,
      -1.1570247411727905,
      0.5373007655143738,
      0.010251060128211975,
      0.9327420592308044,
      -0.07371210306882858,
      -0.18556420505046844,
      -0.8055468201637268,
      -3.2869856357574463,
      1.8085898160934448,
      0.0890207439661026,
      1.0543638467788696,
      1.1553815603256226,
      -1.7246109247207642,
      -2.18524169921875,
      0.036134254187345505,
      -0.9008881449699402,
      -0.8783588409423828,
      0.8793787360191345,
      -2.5439205169677734,
      1.1216994524002075,
      -0.23469412326812744,
      -1.3655438423156738,
      -1.7512476444244385,
      -1.5254695415496826,
      -0.6290609240531921,
      1.7303634881973267,
      1.7912640571594238,
      -0.02670466899871826,
      -0.17765744030475616,
      0.31798532605171204
    ]
  ],
  "net.1.weight": [
    [
      0.5442904829978943,
      0.3634827435016632,
      0.4792373776435852
    ],
    [
      -0.9665480852127075,
      -0.5231426954269409,
      -0.17159850895404816
    ],
    [
      -1.1187933683395386,
      -1.3720159530639648,
      -1.6106504201889038
    ],
    [
      -0.10011354088783264,
      0.030516313388943672,
      -0.2697301208972931
    ],
    [
      -0.15961486101150513,
      -0.7987367510795593,
      -1.0985180139541626
    ],
    [
      0.28592538833618164,
      -0.07664792239665985,
      -0.35085076093673706
    ],
    [
      -0.9560267329216003,
      -0.7675179839134216,
      -0.6948311924934387
    ],
    [
      1.3431823253631592,
      1.7618893384933472,
      1.8818022012710571
    ],
    [
      -0.6661637425422668,
      -0.3312087059020996,
      -1.0960806608200073
    ],
    [
      0.6543002724647522,
      0.17517058551311493,
      0.0023021462839096785
    ],
    [
      -2.083960771560669,
      -1.9148396253585815,
      -2.469304084777832
    ],
    [
      -0.7362951636314392,
      -0.5083375573158264,
      -0.4834801256656647
    ],
    [
      -0.43110978603363037,
      -0.7214845418930054,
      -0.421152263879776
    ],
    [
      0.7009807825088501,
      1.2295362949371338,
      1.7497276067733765
    ],
    [
      -0.9089018106460571,
      -1.1389542818069458,
      -1.1824990510940552
    ],
    [
      0.28963541984558105,
      0.3911701738834381,
      0.8418353199958801
    ],
    [
      -0.5490161180496216,
      -1.0196280479431152,
      -1.6853164434432983
    ],
    [
      0.22065851092338562,
      0.509157121181488,
      0.46691909432411194
    ],
    [
      -0.3994627296924591,
      -0.5174002051353455,
      -2.0591447353363037
    ],
    [
      -0.9236562252044678,
      -1.0807223320007324,
      -1.5591318607330322
    ],
    [
      0.08661045879125595,
      1.0743989944458008,
      -0.1332460343837738
    ],
    [
      -0.6839854717254639,
      -0.4928382933139801,
      -0.7295750379562378
    ],
    [
      -0.3107966184616089,
      0.20358523726463318,
      1.497763991355896
    ],
    [
      1.8548595905303955,
      1.2046191692352295,
      1.3099822998046875
    ],
    [
      -0.27306684851646423,
      -0.40316182374954224,
      -0.34273451566696167
    ],
    [
      -1.143591046333313,
      -1.3751953840255737,
      -1.367604374885559
    ],
    [
      0.8152804374694824,
      1.1193804740905762,
      2.2593677043914795
    ],
    [
      -0.30138275027275085,
      -0.6465386748313904,
      -0.9116969108581543
    ],
    [
      -2.127779960632324,
      -2.4245762825012207,
      -0.4109813868999481
    ],
    [
      -0.6774982810020447,
      -0.7002352476119995,
      -1.2295316457748413
    ],
    [
      0.6284847855567932,
      0.29882121086120605,
      0.2705211341381073
    ],
    [
      1.0192958116531372,
      1.1076630353927612,
      1.4426785707473755
    ]
  ],
  "bound": 8.0,
  "cascade": 4
}