{
  "net.0.weight": [
    [
      0.2648196518421173,
      -0.726980984210968,
      0.939289927482605,
      1.499216079711914,
      1.0311895608901978,
      1.154982089996338,
      -1.1862770318984985,
      0.05325015261769295,
      0.6640166640281677,
      -0.4740183353424072,
      0.9056625366210938,
      -1.5510896444320679,
      0.3420892655849457,
      0.10313703864812851,
      -1.0713584423065186,
      0.8447693586349487,
      -0.6248299479484558,
      -0.5097678303718567,
      0.3596964180469513,
      1.500419020652771,
      -0.5918406248092651,
      0.09245462715625763,
      -0.0712084174156189,
      0.95938640832901,
      0.24871543049812317,
      1.1721241474151611,
      1.7839272022247314,
      -0.35009604692459106,
      0.0808047279715538,
      -0.8972499966621399,
      -1.0633504390716553,
      -0.7411242723464966
    ],
    [
      -0.7968955039978027,
      -1.5680822134017944,
      2.4924049377441406,
      0.4161054193973541,
      2.1316635608673096,
      0.042036909610033035,
      0.36206910014152527,
      0.6525430679321289,
      2.0794808864593506,
      -2.3746511936187744,
      0.0355372428894043,
      -1.678757667541504,
      0.9848219156265259,
      1.5317968130111694,
      -0.40601417422294617,
      0.8912893533706665,
      0.12057463079690933,
      -0.2644711136817932,
      0.18754665553569794,
      -0.097465381026268,
      1.2607135772705078,
      -1.2776377201080322,
      1.6442573070526123,
      1.7253801822662354,
      1.1177231073379517,
      -0.7840016484260559,
      -0.5516939759254456,
      0.4644286036491394,
      -0.513012707233429,
      -1.534162998199463,
      0.35519349575042725,
      0.58197420835495
    ],
    [
      3.070068597793579,
      1.8945761919021606,
      -1.1357864141464233,
      0.5695518851280212,
      0.32509565353393555,
      -0.5023689270019531,
      -0.4212995767593384,
      -2.156271457672119,
      -0.25961729884147644,
      -1.1152496337890625,
      2.0236012935638428,
      1.1226195096969604,
      -1.3488044738769531,
      -0.012885048054158688,
      -0.4947488307952881,
      1.2434451580047607,
      -0.85982346534729,
      -0.4450901448726654,
      0.07748212665319443,
      -0.5058055520057678,
      1.9492650032043457,
      -0.2603845000267029,
      2.3181252479553223,
      1.5190320014953613,
      0.9574002027511597,
      0.32898932695388794,
      5.5457682609558105,
      0.31014180183410645,
      2.150578260421753,
      -1.5913212299346924,
      2.209683895111084,
      0.1688779592514038
    ],
    [
      2.6207408905029297,
      -2.403113603591919,
      -0.9357462525367737,
      0.20939727127552032,
      -2.8424057960510254,
      0.4726755917072296,
      -2.0048439502716064,
      -1.4877989292144775,
      -0.5142472386360168,
      -2.5909183025360107,
      0.16457192599773407,
      -3.9438889026641846,
      -0.6725403666496277,
      1.0060597658157349,
      -1.16373872756958,
      -0.22503137588500977,
      -0.8544381260871887,
      -0.8431172966957092,
      -9.42577075958252,
      0.9333536028862,
      1.0364478826522827,
      -0.5222907066345215,
      -4.536306858062744,
      0.316547155380249,
      1.2991937398910522,
      -3.3266422748565674,
      -1.7254016399383545,
      -0.7440250515937805,
      1.4216471910476685,
      -0.5521581768989563,
      -10.598589897155762,
      -1.4887701272964478
    ],
    [
      0.021266214549541473,
      1.7583478689193726,
      -0.4641910493373871,
      -2.796156644821167,
      -2.0560197830200195,
      1.1804428100585938,
      -0.6982328295707703,
      0.08191217482089996,
      1.2385884523391724,
      -2.0668997764587402,
      -2.0664544105529785,
      -2.170402765274048,
      -0.24691052734851837,
      1.9748952388763428,
      2.566984176635742,
      -1.3434056043624878,
      1.1139706373214722,
      1.3301886320114136,
      -0.10275711864233017,
      -1.8625134229660034,
      2.0761120319366455,
      -17.49538230895996,
      0.2912904918193817,
      -3.691433906555176,
      1.2044183015823364,
      1.3963266611099243,
      -0.43805739283561707,
      -0.22179490327835083,
      -0.1613713800907135,
      -1.4989720582962036,
      -0.2004721611738205,
      -0.6432524919509888
    ],
    [
      -2.2868905067443848,
      -1.5512570142745972,
      -1.0501242876052856,
      1.2975337505340576,
      3.094296932220459,
      -1.871931552886963,
      -4.556993007659912,
      -1.1512740850448608,
      -5.119396209716797,
      -1.0293099880218506,
      0.47845274209976196,
      -0.012570908293128014,
      -0.5906959176063538,
      0.03778458014130592,
      -1.0427080392837524,
      -5.580988883972168,
      -0.961590588092804,
      -0.8893284797668457,
      1.2662715911865234,
      -2.2437326908111572,
      -0.8890550136566162,
      -0.3932362496852875,
      1.1406447887420654,
      2.193439245223999,
      0.6961649060249329,
      0.7467670440673828,
      -14.769889831542969,
      2.1585755348205566,
      1.248809814453125,
      -0.3999027907848358,
      2.121962785720825,
      3.350254774093628
    ]
  ],
  "net.1.weight": [
    [
      -2.0312321186065674,
      -2.2405498027801514,
      -2.710965871810913
    ],
    [
      2.490777015686035,
      2.7306220531463623,
      3.056978225708008
    ],
    [
      -1.0783865451812744,
      -1.2604515552520752,
      -1.5301594734191895
    ],
    [
      -0.8836724162101746,
      -1.0347312688827515,
      -1.2179023027420044
    ],
    [
      3.046347141265869,
      3.3641834259033203,
      3.845933437347412
    ],
    [
      -0.6260431408882141,
      -0.5610246062278748,
      -0.5152673125267029
    ],
    [
      1.1105855703353882,
      1.3632868528366089,
      1.7057093381881714
    ],
    [
      -0.43484678864479065,
      -0.7897318601608276,
      -1.5357894897460938
    ],
    [
      2.2775068283081055,
      2.3685970306396484,
      2.543275833129883
    ],
    [
      -2.787200689315796,
      -2.957584857940674,
      -3.301694393157959
    ],
    [
      1.1537868976593018,
      1.3643556833267212,
      1.779601812362671
    ],
    [
      -4.13047981262207,
      -3.960315465927124,
      -4.139585971832275
    ],
    [
      -0.9380849003791809,
      -0.5510956048965454,
      0.37864169478416443
    ],
    [
      -0.8555116057395935,
      -0.7913901209831238,
      -0.9467143416404724
    ],
    [
      -1.1932531595230103,
      -1.411531925201416,
      -1.458031177520752
    ],
    [
      -2.2062113285064697,
      -1.8658018112182617,
      -1.2622641324996948
    ],
    [
      -0.5722656846046448,
      -0.28886324167251587,
      -0.06657125055789948
    ],
    [
      -0.2677164673805237,
      -0.13013365864753723,
      -0.31732484698295593
    ],
    [
      1.3559478521347046,
      1.3556320667266846,
      1.435515284538269
    ],
    [
      -1.1434215307235718,
      -1.0520389080047607,
      -1.1329013109207153
    ],
    [
      1.4691240787506104,
      1.6151000261306763,
      1.9211102724075317
    ],
    [
      -8.001935958862305,
      -8.009281158447266,
      -8.43155288696289
    ],
    [
      -2.9722886085510254,
      -3.1499881744384766,
      -3.3816635608673096
    ],
    [
      -3.828037738800049,
      -4.051196575164795,
      -4.622010231018066
    ],
    [
      -0.540776252746582,
      -0.6635341644287109,
      -0.7432186603546143
    ],
    [
      1.0194785594940186,
      1.1835569143295288,
      1.3632844686508179
    ],
    [
      7.873109817504883,
      7.735344886779785,
      7.098474502563477
    ],
    [
      0.07212775200605392,
      -0.14027366042137146,
      -0.28169623017311096
    ],
    [
      -0.579937219619751,
      -0.33995574712753296,
      -0.18968285620212555
    ],
    [
      0.9488515257835388,
      1.0681072473526,
      1.170694351196289
    ],
    [
      -6.027219772338867,
      -6.467508792877197,
      -7.373910427093506
    ],
    [
      -1.2150202989578247,
      -1.196671485900879,
      -1.3731118440628052
    ]
  ],
  "bound": 1.0,
  "cascade": 1
}