{
  "net.0.weight": [
    [
      0.8520402908325195,
      0.25490450859069824,
      0.4355665147304535,
      -0.6777059435844421,
      -0.08401545882225037,
      0.08617539703845978,
      -0.5380765795707703,
      -0.08973203599452972,
      0.018763290718197823,
      -0.7197436690330505,
      0.4505457580089569,
      0.11499898880720139,
      -0.22587467730045319,
      -0.07038480043411255,
      -0.33938533067703247,
      0.5005056858062744,
      -0.4136924743652344,
      0.35598617792129517,
      -0.5621559619903564,
      -0.8042199015617371,
      -0.1800214797258377,
      0.3330051600933075,
      0.4034860134124756,
      -0.2113756686449051,
      0.1344395875930786,
      0.10914433747529984,
      -0.4408525824546814,
      0.2945641577243805,
      0.3904087245464325,
      -0.2961091995239258,
      0.2261252999305725,
      0.4330167770385742
    ],
    [
      0.31618282198905945,
      -1.5235388278961182,
      0.0532909594476223,
      1.2929558753967285,
      1.103479266166687,
      1.2676591873168945,
      -0.18291398882865906,
      0.1269749402999878,
      2.0910863876342773,
      2.029745578765869,
      1.6606521606445312,
      0.4495539963245392,
      -0.9887973666191101,
      0.28764504194259644,
      1.7198644876480103,
      1.1849234104156494,
      -0.9421718120574951,
      0.3614954352378845,
      0.08080042898654938,
      -0.31300491094589233,
      -0.8924496173858643,
      0.16934137046337128,
      0.16186800599098206,
      -1.1166224479675293,
      -0.09473895281553268,
      1.1033979654312134,
      -1.6349895000457764,
      -0.03747933730483055,
      0.11769271641969681,
      -0.2369210124015808,
      -0.0025999320205301046,
      0.13085880875587463
    ],
    [
      -1.5829267501831055,
      0.5288590788841248,
      0.20422519743442535,
      -0.055469296872615814,
      1.928179383277893,
      1.0873103141784668,
      0.5889135003089905,
      0.9242566227912903,
      0.7039964199066162,
      0.12144231796264648,
      1.2536441087722778,
      0.5192096829414368,
      1.374969720840454,
      0.23003722727298737,
      0.6465408205986023,
      0.22110867500305176,
      1.2140675783157349,
      0.2278418093919754,
      -0.8681018948554993,
      0.9630804061889648,
      1.1647249460220337,
      -0.2430531233549118,
      -0.1500699520111084,
      1.3854808807373047,
      0.020984908565878868,
      0.34419968724250793,
      2.4502084255218506,
      -1.9170682430267334,
      0.04767685383558273,
      0.6350458860397339,
      0.4580332040786743,
      -0.09832777082920074
    ],
    [
      -0.3824787139892578,
      0.2185690999031067,
      -0.4714154303073883,
      -0.1942271590232849,
      -0.19266651570796967,
      0.7308230400085449,
      0.15737268328666687,
      0.36265623569488525,
      -0.1923956722021103,
      0.08743254840373993,
      0.4529312252998352,
      0.6157189607620239,
      0.5241374373435974,
      0.33432596921920776,
      -0.8049789071083069,
      -0.05427222698926926,
      0.23519262671470642,
      -0.21685124933719635,
      -0.42220112681388855,
      -1.5729615688323975,
      0.4596986770629883,
      -0.054386090487241745,
      0.12848623096942902,
      0.621067464351654,
      -0.02184377796947956,
      -0.7317350506782532,
      -0.5017814040184021,
      0.5130462050437927,
      -0.10489336401224136,
      0.003523143706843257,
      -0.05756143108010292,
      -0.34709620475769043
    ],
    [
      0.8429179191589355,
      0.1485661268234253,
      0.23870746791362762,
      0.2728807330131531,
      -1.7685632705688477,
      -0.14615674316883087,
      2.14831805229187,
      0.24835413694381714,
      -4.513365745544434,
      -0.04828295111656189,
      -2.5361690521240234,
      0.8467152118682861,
      -0.13645078241825104,
      0.36220625042915344,
      0.3572726249694824,
      0.6932483911514282,
      -0.4343340992927551,
      -0.10396033525466919,
      0.29145970940589905,
      -1.1722633838653564,
      0.19924354553222656,
      -0.33019670844078064,
      -0.4126679003238678,
      -0.14129118621349335,
      0.035308994352817535,
      0.05244387313723564,
      -0.2524290978908539,
      -0.1331869214773178,
      -0.31628164649009705,
      -3.098968505859375,
      -0.17919738590717316,
      0.28285059332847595
    ],
    [
      0.5373706817626953,
      0.7152937054634094,
      -0.20418865978717804,
      -1.225675344467163,
      -0.800355851650238,
      0.5495927929878235,
      0.614734411239624,
      0.6090306043624878,
      -0.35320034623146057,
      -1.327903389930725,
      -0.33671101927757263,
      0.5413320064544678,
      0.5295620560646057,
      0.33933255076408386,
      -1.9730777740478516,
      0.47324174642562866,
      -0.555881679058075,
      -0.002088641282171011,
      -0.11867504566907883,
      -1.4481918811798096,
      0.71134352684021,
      -0.17529085278511047,
      -0.2252332866191864,
      -0.23734280467033386,
      -0.24069130420684814,
      0.459184467792511,
      -0.23676352202892303,
      -0.7146508097648621,
      0.23333647847175598,
      -0.4990145266056061,
      -0.27155816555023193,
      0.08308817446231842
    ]
  ],
  "net.1.weight": [
    [
      -0.13812868297100067,
      0.11166299879550934,
      0.8203905820846558
    ],
    [
      0.942297637462616,
      0.7990185022354126,
      0.5641298294067383
    ],
    [
      -0.030391650274395943,
      -0.03738151118159294,
      -0.08074326813220978
    ],
    [
      -0.8921961784362793,
      -0.47446727752685547,
      -0.7364822030067444
    ],
    [
      1.3814024925231934,
      0.738587498664856,
      0.9883319139480591
    ],
    [
      -0.4038873612880707,
      -0.5904733538627625,
      -0.6398712396621704
    ],
    [
      -0.420306921005249,
      -0.6873921751976013,
      -0.5726214647293091
    ],
    [
      -0.39976027607917786,
      -0.08627527207136154,
      0.041752152144908905
    ],
    [
      1.4657044410705566,
      0.6632265448570251,
      0.7033029198646545
    ],
    [
      -0.962815523147583,
      -0.8789957165718079,
      -1.0392991304397583
    ],
    [
      0.9618161916732788,
      1.3888812065124512,
      1.775297999382019
    ],
    [
      -0.5476293563842773,
      -0.02567145600914955,
      -0.3535226583480835
    ],
    [
      -0.48038363456726074,
      -0.4040050208568573,
      -0.4077306091785431
    ],
    [
      -0.17016056180000305,
      -0.13555768132209778,
      -0.10728392750024796
    ],
    [
      1.1239244937896729,
      1.606774926185608,
      2.00874924659729
    ],
    [
      -0.7388563752174377,
      -0.23640577495098114,
      -1.24955153465271
    ],
    [
      -0.5823612213134766,
      0.004830523859709501,
      -0.6376694440841675
    ],
    [
      0.102862648665905,
      0.15516138076782227,
      0.17588917911052704
    ],
    [
      0.5671533942222595,
      -0.2897299826145172,
      -0.27973705530166626
    ],
    [
      -1.428138017654419,
      -1.3415827751159668,
      -1.6354663372039795
    ],
    [
      -0.544402003288269,
      -0.25101712346076965,
      -0.22971965372562408
    ],
    [
      -0.07210034132003784,
      0.0334189310669899,
      -0.005003926809877157
    ],
    [
      0.05338558182120323,
      0.2519588768482208,
      0.005378918722271919
    ],
    [
      -0.34912654757499695,
      -0.6201993823051453,
      -0.7270919680595398
    ],
    [
      -0.0705433264374733,
      -0.12214118987321854,
      -0.04444730654358864
    ],
    [
      0.20198628306388855,
      -0.8641878962516785,
      -0.679176926612854
    ],
    [
      1.5664654970169067,
      1.0992950201034546,
      1.5862042903900146
    ],
    [
      0.6871404647827148,
      1.304753303527832,
      1.188488245010376
    ],
    [
      0.03057149611413479,
      -0.039837464690208435,
      -0.04286075383424759
    ],
    [
      -0.5876449942588806,
      -0.16078849136829376,
      0.1043243333697319
    ],
    [
      -0.05020291730761528,
      0.0013328664936125278,
      0.013930975459516048
    ],
    [
      0.06198088452219963,
      0.015765592455863953,
      -0.02094574272632599
    ]
  ],
  "bound": 4.0,
  "cascade": 3
}