{
  "net.0.weight": [
    [
      -0.30072852969169617,
      0.2567042410373688,
      -0.20858843624591827,
      -0.0019830891396850348,
      -0.2821090817451477,
      0.16554522514343262,
      -0.17440511286258698,
      -0.642767608165741,
      -1.3035653829574585,
      -0.426005095243454,
      1.052910327911377,
      -0.024761181324720383,
      -0.6786292195320129,
      1.4780031442642212,
      0.6397058963775635,
      -1.184569001197815,
      -0.3342558741569519,
      1.2476900815963745,
      -0.26401957869529724,
      0.19585499167442322,
      -0.24209199845790863,
      -0.29782581329345703,
      -0.8171316385269165,
      0.7573676109313965,
      -0.16042998433113098,
      0.6205134391784668,
      -1.0531505346298218,
      0.6507366895675659,
      -0.7632386088371277,
      0.2046080082654953,
      -1.0145981311798096,
      -0.17307880520820618
    ],
    [
      0.15717028081417084,
      0.36771583557128906,
      -0.9646267890930176,
      0.8092148900032043,
      -0.8613545298576355,
      -1.2559537887573242,
      1.0328413248062134,
      0.9448234438896179,
      -0.6384791731834412,
      -1.1210098266601562,
      0.5455139875411987,
      0.36847805976867676,
      0.5229512453079224,
      0.10358291864395142,
      0.019257178530097008,
      0.848918616771698,
      -1.100414514541626,
      -0.37000957131385803,
      -0.9367017149925232,
      0.08427399396896362,
      -1.32456636428833,
      -1.214460849761963,
      0.24233059585094452,
      1.102567434310913,
      0.9076414704322815,
      0.042815014719963074,
      -0.051986224949359894,
      0.05714540556073189,
      0.1567135453224182,
      0.6164612174034119,
      0.14152459800243378,
      0.38886529207229614
    ],
    [
      -1.6296306848526,
      -1.4336605072021484,
      -0.49227064847946167,
      -0.9884182810783386,
      0.1584540456533432,
      -0.020621005445718765,
      0.6218039989471436,
      -0.09323421865701675,
      0.7011555433273315,
      0.29852229356765747,
      0.4763909876346588,
      0.7319889068603516,
      -0.6926687955856323,
      0.24558579921722412,
      1.736316442489624,
      0.17427054047584534,
      0.07946918159723282,
      -0.1479068100452423,
      -1.0562498569488525,
      -0.9709407091140747,
      -1.073904037475586,
      -0.3782491087913513,
      -0.9598720073699951,
      -0.009073745459318161,
      0.9334768652915955,
      -0.38466140627861023,
      0.13668696582317352,
      -0.12653924524784088,
      -0.2306794971227646,
      0.2114294022321701,
      0.46838006377220154,
      -1.6446270942687988
    ],
    [
      -0.48681241273880005,
      0.5470090508460999,
      -1.1402567625045776,
      0.4324135482311249,
      -1.3752752542495728,
      -0.4762076139450073,
      -1.0953654050827026,
      -0.1932821273803711,
      0.6272935271263123,
      0.42506521940231323,
      0.19429916143417358,
      -0.37229129672050476,
      -1.6190115213394165,
      1.02255380153656,
      -0.29752305150032043,
      -0.6932628750801086,
      -2.1901695728302,
      0.3125135004520416,
      -0.8098948001861572,
      -0.2920021116733551,
      -1.3610948324203491,
      -1.2573626041412354,
      -0.8815756440162659,
      0.09846071153879166,
      -0.7799734473228455,
      -0.81146240234375,
      -2.3655240535736084,
      0.1040942370891571,
      0.3396177589893341,
      -0.950800895690918,
      -1.3965365886688232,
      0.6036280393600464
    ],
    [
      -1.6084157228469849,
      -0.8335279226303101,
      -0.8926606774330139,
      -0.5164297819137573,
      -0.5156185626983643,
      0.5873011946678162,
      -0.24596475064754486,
      -0.444069504737854,
      -0.6744933128356934,
      -0.7859871983528137,
      0.559029221534729,
      0.5967932939529419,
      0.24229344725608826,
      -1.134831428527832,
      -0.22343675792217255,
      0.23919863998889923,
      -0.7805683612823486,
      -0.5810703039169312,
      -1.5857324600219727,
      -0.34522297978401184,
      -0.6804817914962769,
      -1.0434879064559937,
      0.1052834615111351,
      -0.930953323841095,
      -0.47476649284362793,
      -0.3137160539627075,
      -0.6453331112861633,
      -0.508926510810852,
      0.3507082760334015,
      -0.3926655054092407,
      0.6909551620483398,
      -1.2247612476348877
    ],
    [
      0.0257174763828516,
      -0.22203882038593292,
      -0.16248197853565216,
      0.15781812369823456,
      -1.5948810577392578,
      1.521263599395752,
      1.6417211294174194,
      -0.33199918270111084,
      -0.6865431070327759,
      2.0343077182769775,
      0.545554518699646,
      -1.6508756875991821,
      0.9590858221054077,
      0.598039448261261,
      0.8463897109031677,
      -0.4443202614784241,
      -0.9976294636726379,
      0.7936328053474426,
      -1.2853045463562012,
      0.49647948145866394,
      -1.0346705913543701,
      -0.5684614181518555,
      0.3406522870063782,
      -3.9609904289245605,
      1.6999166011810303,
      -0.896345317363739,
      0.7789009809494019,
      1.4977532625198364,
      -0.89554762840271,
      -1.1500803232192993,
      -0.3903963267803192,
      0.3855319023132324
    ]
  ],
  "net.1.weight": [
    [
      0.8215355277061462,
      0.8802577257156372,
      1.2523642778396606
    ],
    [
      -0.5503036379814148,
      -0.549691379070282,
      -0.4125758111476898
    ],
    [
      0.24584181606769562,
      -0.37799781560897827,
      -0.5125609040260315
    ],
    [
      -0.47849974036216736,
      -0.35906893014907837,
      -0.44050318002700806
    ],
    [
      -0.8848295211791992,
      -1.3369312286376953,
      -0.8063297271728516
    ],
    [
      0.36420130729675293,
      0.4968624413013458,
      0.5707272291183472
    ],
    [
      -0.9947241544723511,
      -0.7530947923660278,
      -0.897140622138977
    ],
    [
      -0.04110947623848915,
      -0.20546084642410278,
      -0.5949743986129761
    ],
    [
      -0.7039875388145447,
      -0.5933253169059753,
      -0.7810421586036682
    ],
    [
      -0.6937397718429565,
      -0.7859545946121216,
      -0.8616068363189697
    ],
    [
      -0.4798869788646698,
      -0.44144484400749207,
      -0.41473057866096497
    ],
    [
      -0.11383619159460068,
      0.196185901761055,
      0.4208716154098511
    ],
    [
      -0.8532520532608032,
      -0.8095794916152954,
      -0.7565056681632996
    ],
    [
      -0.5691832304000854,
      -0.5910003781318665,
      -0.9506165385246277
    ],
    [
      0.5711118578910828,
      0.40665701031684875,
      0.6580882668495178
    ],
    [
      -0.5396310091018677,
      -0.5260394215583801,
      -0.6854202747344971
    ],
    [
      -1.574185848236084,
      -1.331459879875183,
      -1.701259970664978
    ],
    [
      -0.5301092267036438,
      -0.44396844506263733,
      -0.34914082288742065
    ],
    [
      -2.1759955883026123,
      -2.3644063472747803,
      -3.5227949619293213
    ],
    [
      0.03577364236116409,
      -0.08832204341888428,
      -0.3138402998447418
    ],
    [
      -1.5607128143310547,
      -1.3262745141983032,
      -1.3209288120269775
    ],
    [
      -1.4425886869430542,
      -1.0952105522155762,
      -1.3772584199905396
    ],
    [
      -0.4331545829772949,
      -0.46851494908332825,
      -0.545030415058136
    ],
    [
      0.9685169458389282,
      1.011781096458435,
      1.1307978630065918
    ],
    [
      -0.3963205814361572,
      -0.6335833668708801,
      -0.5962338447570801
    ],
    [
      0.14775077998638153,
      0.06259313225746155,
      -0.11451390385627747
    ],
    [
      1.498634934425354,
      1.3100507259368896,
      1.1950880289077759
    ],
    [
      -0.060296155512332916,
      -0.182956263422966,
      -0.23119863867759705
    ],
    [
      0.2222181260585785,
      0.22509358823299408,
      0.4343000650405884
    ],
    [
      0.10856496542692184,
      0.07478202134370804,
      -0.48303061723709106
    ],
    [
      0.3643891215324402,
      0.532500147819519,
      0.7473441958427429
    ],
    [
      -0.6204739212989807,
      -0.6989279389381409,
      -0.9092264175415039
    ]
  ],
  "bound": 16.0,
  "cascade": 5
}