{
  "net.0.weight": [
    [
      -0.36943185329437256,
      0.3552995026111603,
      0.5609913468360901,
      -0.2364094853401184,
      -0.18984855711460114,
      0.019313005730509758,
      0.30829277634620667,
      -0.5519220232963562,
      -0.16575856506824493,
      -0.28867799043655396,
      0.3335838317871094,
      -0.09763970971107483,
      -0.19405308365821838,
      -0.4822390079498291,
      0.5783174633979797,
      -0.3930313289165497,
      -0.39689552783966064,
      0.5293493866920471,
      -0.36935362219810486,
      -1.0704971551895142,
      -0.44744715094566345,
      0.3330051600933075,
      0.3722458779811859,
      1.5528303384780884,
      0.17763325572013855,
      -0.11628147959709167,
      -0.38590359687805176,
      -0.40033966302871704,
      0.1735168844461441,
      0.06470910459756851,
      0.36098259687423706,
      0.7672426700592041
    ],
    [
      -0.32755619287490845,
      -0.14498774707317352,
      -0.08942748606204987,
      -1.5361570119857788,
      -1.0851449966430664,
      -0.0018370767356827855,
      0.007181721739470959,
      0.19166672229766846,
      0.10714654624462128,
      -0.47993582487106323,
      -0.01534564420580864,
      -1.5022660493850708,
      -0.2395324856042862,
      0.051064666360616684,
      -1.6470941305160522,
      -0.5796434879302979,
      1.06807279586792,
      0.18920500576496124,
      -0.12105542421340942,
      -0.896744430065155,
      -0.7004038095474243,
      0.16934137046337128,
      0.15592078864574432,
      -1.1038517951965332,
      -0.03650934621691704,
      -1.7889803647994995,
      -1.1673444509506226,
      0.8960176110267639,
      0.7585889101028442,
      -0.032584432512521744,
      -0.0747322365641594,
      0.6869862675666809
    ],
    [
      -0.2460034191608429,
      0.12432268261909485,
      0.0851789116859436,
      -1.0827761888504028,
      0.17299973964691162,
      -0.09943492710590363,
      -0.09196718782186508,
      0.8968794941902161,
      0.16663745045661926,
      -0.7436631321907043,
      -0.11867659538984299,
      -0.6125269532203674,
      -0.9185742139816284,
      0.3122783601284027,
      -1.4400008916854858,
      -0.33610060811042786,
      1.7454311847686768,
      0.05413934215903282,
      -0.43714097142219543,
      0.062038522213697433,
      0.12130613625049591,
      -0.2430531233549118,
      -0.17122173309326172,
      -3.6648361682891846,
      0.12068913131952286,
      -0.04027503356337547,
      -1.7071892023086548,
      -0.07062588632106781,
      2.027116537094116,
      -0.01694585755467415,
      -0.025998998433351517,
      1.3813718557357788
    ],
    [
      -0.35061708092689514,
      -0.5202996730804443,
      -0.5977810025215149,
      -1.5424808263778687,
      1.5815942287445068,
      -0.11767995357513428,
      -0.5151169300079346,
      0.11580664664506912,
      -4.882730007171631,
      -0.12604369223117828,
      0.1252388060092926,
      0.5653148889541626,
      -0.2535771429538727,
      0.19291836023330688,
      -3.050736665725708,
      -0.15478652715682983,
      -0.3531337082386017,
      -0.3939421474933624,
      -0.4314649701118469,
      -0.025335565209388733,
      0.1230073869228363,
      -0.054386090487241745,
      0.16469886898994446,
      4.32841157913208,
      0.0018342777621001005,
      0.1207718551158905,
      -5.911269664764404,
      -0.134696364402771,
      -0.27126163244247437,
      -0.006770111154764891,
      -0.040424104779958725,
      -3.4214906692504883
    ],
    [
      0.7107000350952148,
      -0.5615933537483215,
      0.11453919112682343,
      -1.546872854232788,
      -0.8386590480804443,
      0.28242844343185425,
      -0.08263052999973297,
      0.5261688232421875,
      -0.6237390637397766,
      -0.029115615412592888,
      -0.5604907274246216,
      0.3124745190143585,
      -0.1886783391237259,
      0.5633350014686584,
      0.5499044060707092,
      0.6670283079147339,
      -0.9415344595909119,
      -0.2765154242515564,
      -0.03591332584619522,
      0.5480527281761169,
      0.7981053590774536,
      -0.33019670844078064,
      -0.4520193934440613,
      -0.14976896345615387,
      -0.017846882343292236,
      0.3189072906970978,
      0.03225640207529068,
      -3.371748924255371,
      -1.6780229806900024,
      -0.4631717801094055,
      -0.48418498039245605,
      0.0950116440653801
    ],
    [
      0.8898386359214783,
      -0.4272274076938629,
      -0.36591923236846924,
      1.053818702697754,
      -0.4417540431022644,
      0.13689714670181274,
      -0.42236682772636414,
      0.5353227853775024,
      0.6142043471336365,
      -0.23044005036354065,
      -0.3897446095943451,
      -0.1187235563993454,
      0.05627940222620964,
      0.5410853028297424,
      0.97734135389328,
      0.6549220681190491,
      -0.806527316570282,
      -0.17387381196022034,
      0.11012232303619385,
      0.567585825920105,
      0.4800108075141907,
      -0.17529085278511047,
      -0.18766283988952637,
      -0.8268147706985474,
      -0.2317134290933609,
      0.10653340816497803,
      -1.0176693201065063,
      -1.1066738367080688,
      0.24632366001605988,
      -0.4361404776573181,
      -0.46494024991989136,
      0.9923698306083679
    ]
  ],
  "net.1.weight": [
    [
      -0.1824740618467331,
      -0.26170432567596436,
      -0.6730260252952576
    ],
    [
      0.08249281346797943,
      0.2026623636484146,
      -0.019285915419459343
    ],
    [
      0.13252554833889008,
      0.09391047060489655,
      0.08538365364074707
    ],
    [
      -2.049957513809204,
      -1.9170894622802734,
      -2.1032135486602783
    ],
    [
      0.8597594499588013,
      0.98539137840271,
      0.7262774705886841
    ],
    [
      -0.11995331943035126,
      -0.08493684232234955,
      0.013712670654058456
    ],
    [
      -0.02023334801197052,
      0.07479600608348846,
      0.00850730761885643
    ],
    [
      -0.5035765171051025,
      -0.5600253939628601,
      -0.11915866285562515
    ],
    [
      0.6935902237892151,
      -0.43856608867645264,
      -0.17508047819137573
    ],
    [
      -0.04813738167285919,
      -0.26817190647125244,
      0.15326902270317078
    ],
    [
      -0.05365997552871704,
      -0.02016904577612877,
      -0.08460827171802521
    ],
    [
      0.3016689717769623,
      0.10825414955615997,
      0.6022540926933289
    ],
    [
      0.0015903590247035027,
      -0.16257627308368683,
      0.2904859185218811
    ],
    [
      -0.34103691577911377,
      -0.47128766775131226,
      -0.26155030727386475
    ],
    [
      1.5919221639633179,
      1.640364646911621,
      1.5883558988571167
    ],
    [
      -0.27387386560440063,
      -0.22797587513923645,
      -0.29118695855140686
    ],
    [
      0.9825878739356995,
      1.2427197694778442,
      1.0949795246124268
    ],
    [
      -0.1190047562122345,
      -0.019692782312631607,
      -0.04597831144928932
    ],
    [
      0.005566782783716917,
      0.0961042195558548,
      -0.17328332364559174
    ],
    [
      -0.6130659580230713,
      -0.3805726170539856,
      -0.7037460803985596
    ],
    [
      -0.44839444756507874,
      -0.3579457104206085,
      -0.15104639530181885
    ],
    [
      -0.07210034132003784,
      0.0334189310669899,
      -0.005003926809877157
    ],
    [
      0.25917181372642517,
      0.13790105283260345,
      -0.026582900434732437
    ],
    [
      -13.744637489318848,
      -13.249554634094238,
      -13.418583869934082
    ],
    [
      -0.04218241572380066,
      -0.18578526377677917,
      -0.08756276220083237
    ],
    [
      0.47152531147003174,
      0.47312238812446594,
      0.2501908242702484
    ],
    [
      -2.1025378704071045,
      -1.907794713973999,
      -1.9898262023925781
    ],
    [
      1.3045032024383545,
      1.4756087064743042,
      1.4494916200637817
    ],
    [
      1.1527999639511108,
      1.1649328470230103,
      1.1137315034866333
    ],
    [
      -0.0600663423538208,
      -0.024801982566714287,
      0.24424661695957184
    ],
    [
      -0.25354984402656555,
      -0.036567118018865585,
      0.17652735114097595
    ],
    [
      -1.9544190168380737,
      -1.8509563207626343,
      -2.026780843734741
    ]
  ],
  "bound": 4.0,
  "cascade": 3
}