{
  "net.0.weight": [
    [
      -1.5073981285095215,
      -0.212814599275589,
      0.7568380832672119,
      -0.5444537997245789,
      -1.2754268646240234,
      -0.18189366161823273,
      -0.4905555248260498,
      0.24532556533813477,
      0.7714536190032959,
      -1.6855038404464722,
      0.5894631147384644,
      -0.7640175819396973,
      -0.13350825011730194,
      0.3889794945716858,
      -0.19022777676582336,
      1.1228010654449463,
      0.1410510540008545,
      -0.13169412314891815,
      -0.4141063988208771,
      -0.11258247494697571,
      -1.395227313041687,
      -0.3341106176376343,
      1.0418506860733032,
      -0.6124669909477234,
      0.4752473831176758,
      -0.056665610522031784,
      0.7642505764961243,
      -0.3938162922859192,
      -0.05079999938607216,
      -0.21068526804447174,
      1.4113456010818481,
      0.07127629220485687
    ],
    [
      -0.5626928806304932,
      0.03139377757906914,
      -0.1832621544599533,
      -1.188190221786499,
      1.2991076707839966,
      0.1712495982646942,
      0.44768035411834717,
      0.5639271140098572,
      -0.9274647235870361,
      -0.5107064247131348,
      0.6619565486907959,
      0.22195719182491302,
      -0.13877809047698975,
      0.6522873044013977,
      -0.9727126359939575,
      -0.6838725209236145,
      -1.3315675258636475,
      -0.3812755048274994,
      -1.0211637020111084,
      -0.87172532081604,
      0.6057011485099792,
      0.6865738034248352,
      0.0472860261797905,
      -1.1273438930511475,
      1.2732876539230347,
      -1.1663821935653687,
      0.7842609286308289,
      0.3875744640827179,
      1.6661992073059082,
      -0.7572542428970337,
      -1.2988756895065308,
      0.27307888865470886
    ],
    [
      1.6146870851516724,
      0.7797632813453674,
      0.23657719790935516,
      0.3677402436733246,
      -0.41311198472976685,
      0.9161060452461243,
      -0.7528306841850281,
      0.052372291684150696,
      0.021142497658729553,
      -0.8239346742630005,
      0.18891437351703644,
      1.1292375326156616,
      -0.22836415469646454,
      0.6089176535606384,
      0.31706491112709045,
      -0.5085939168930054,
      0.5576478838920593,
      -1.0212788581848145,
      -0.844072699546814,
      -0.7068768739700317,
      0.5623682737350464,
      -0.46678638458251953,
      -0.1950078010559082,
      0.9045616984367371,
      0.6839710474014282,
      0.5137508511543274,
      0.14627239108085632,
      -0.47290417551994324,
      0.3762507140636444,
      -0.03518031910061836,
      -0.5298213362693787,
      -0.14305701851844788
    ],
    [
      -0.5174746513366699,
      -4.004242420196533,
      -6.714070796966553,
      -0.29408714175224304,
      -1.3460060358047485,
      0.47826850414276123,
      -0.94700026512146,
      -0.9401563405990601,
      1.3701128959655762,
      -0.9219276309013367,
      0.051354121416807175,
      -2.5762951374053955,
      -1.0949548482894897,
      0.08060767501592636,
      -2.9583306312561035,
      0.9594871401786804,
      0.30165034532546997,
      -0.07985828071832657,
      0.3669395446777344,
      0.38805505633354187,
      -1.4502549171447754,
      1.514069676399231,
      -7.806640625,
      -0.8705304265022278,
      2.005075454711914,
      -4.177785873413086,
      -2.332155466079712,
      -0.718878984451294,
      -1.632917046546936,
      0.2261999249458313,
      -0.9069088101387024,
      -1.2635719776153564
    ],
    [
      0.15077444911003113,
      0.639171838760376,
      0.08461432158946991,
      -3.650851249694824,
      -0.577120840549469,
      0.7601498365402222,
      1.609420657157898,
      0.3822213411331177,
      -2.0474212169647217,
      -0.5608001947402954,
      0.6521649360656738,
      2.1543240547180176,
      -2.3223536014556885,
      -0.4334712326526642,
      0.011109795421361923,
      0.012526830658316612,
      1.1356514692306519,
      0.42058873176574707,
      -3.1686458587646484,
      1.0927215814590454,
      -0.2119293212890625,
      -2.5710549354553223,
      0.05896882712841034,
      -2.818450689315796,
      -0.8963639736175537,
      -0.5878113508224487,
      1.2972291707992554,
      1.0303698778152466,
      -0.8740994930267334,
      0.9762017726898193,
      -1.2536019086837769,
      -0.24566563963890076
    ],
    [
      -0.46392959356307983,
      0.30928489565849304,
      -0.7154479026794434,
      0.7569957375526428,
      -1.2169077396392822,
      -0.7319657802581787,
      0.6564858555793762,
      -1.7618988752365112,
      -4.224849224090576,
      -1.0500967502593994,
      0.3050542175769806,
      0.8057546019554138,
      0.44096237421035767,
      -0.06311000138521194,
      -2.2493865489959717,
      0.8439039587974548,
      0.07605254650115967,
      -2.274284839630127,
      1.0368468761444092,
      0.1370881199836731,
      -5.145030975341797,
      -1.3443505764007568,
      -0.39618372917175293,
      1.8578652143478394,
      -0.9427189826965332,
      1.5102063417434692,
      -1.1953727006912231,
      0.43183469772338867,
      -0.4779185354709625,
      -5.5055832862854,
      -0.7700512409210205,
      0.8862408399581909
    ]
  ],
  "net.1.weight": [
    [
      -0.3197721838951111,
      -0.36070889234542847,
      -0.48607802391052246
    ],
    [
      0.24487291276454926,
      0.37497425079345703,
      -0.07552088052034378
    ],
    [
      -0.3213062286376953,
      -1.1062992811203003,
      -0.7279659509658813
    ],
    [
      -0.4782715141773224,
      -0.7199277877807617,
      -0.6729447841644287
    ],
    [
      -0.6393168568611145,
      -0.6481103897094727,
      -0.8152206540107727
    ],
    [
      -0.07460496574640274,
      -0.21867313981056213,
      0.35480770468711853
    ],
    [
      -0.6502183675765991,
      -0.4393007755279541,
      -0.8350491523742676
    ],
    [
      0.37113338708877563,
      -0.4943287968635559,
      0.3629757761955261
    ],
    [
      -2.346268892288208,
      -2.246678113937378,
      -2.320368766784668
    ],
    [
      -0.5570573210716248,
      -0.4033367335796356,
      -0.5930261015892029
    ],
    [
      -0.14341215789318085,
      -0.34765586256980896,
      -0.25918230414390564
    ],
    [
      1.1474732160568237,
      1.3142169713974,
      1.230663776397705
    ],
    [
      -0.3632316589355469,
      0.2606683075428009,
      0.4452674686908722
    ],
    [
      0.12979431450366974,
      -0.09984306991100311,
      -0.32004034519195557
    ],
    [
      1.8928449153900146,
      0.6293410658836365,
      1.3250020742416382
    ],
    [
      -0.4568212628364563,
      -0.4194788634777069,
      -0.484495609998703
    ],
    [
      -0.42670881748199463,
      -0.2628117799758911,
      -0.41599130630493164
    ],
    [
      -0.10654265433549881,
      -0.37543803453445435,
      -0.12772388756275177
    ],
    [
      1.0719178915023804,
      1.121342420578003,
      1.0071947574615479
    ],
    [
      -0.2626005709171295,
      -0.4583144187927246,
      -0.3393743932247162
    ],
    [
      -1.8651213645935059,
      -2.68680477142334,
      -4.007130146026611
    ],
    [
      0.9805443286895752,
      0.9339678287506104,
      1.1214221715927124
    ],
    [
      1.598651647567749,
      1.8661651611328125,
      1.3886098861694336
    ],
    [
      -1.2138513326644897,
      -1.3481040000915527,
      -1.0978612899780273
    ],
    [
      -0.8156465888023376,
      -0.6781574487686157,
      -0.7808011174201965
    ],
    [
      1.0087436437606812,
      1.5001132488250732,
      1.0192819833755493
    ],
    [
      0.5884649157524109,
      0.8179266452789307,
      0.5811225175857544
    ],
    [
      -0.1570887416601181,
      -0.43175235390663147,
      -0.2065538763999939
    ],
    [
      -0.4017147123813629,
      -0.603733479976654,
      -0.5422933101654053
    ],
    [
      -1.8501516580581665,
      -0.9665716886520386,
      -1.1432751417160034
    ],
    [
      0.611380398273468,
      0.6069702506065369,
      0.5145837068557739
    ],
    [
      -0.4796876311302185,
      0.30533990263938904,
      -0.23642142117023468
    ]
  ],
  "bound": 1.0,
  "cascade": 1
}