{
  "net.0.weight": [
    [
      -3.223200798034668,
      -1.5209181308746338,
      1.616320252418518,
      -0.09353933483362198,
      0.4081729054450989,
      -0.3369322717189789,
      -1.79097580909729,
      0.0562673918902874,
      1.067296028137207,
      -2.407616138458252,
      0.8000854849815369,
      -0.016996460035443306,
      0.08031570166349411,
      1.487683892250061,
      -0.9842848181724548,
      2.3058533668518066,
      0.048378679901361465,
      -0.2675323188304901,
      -0.19651053845882416,
      0.01014786958694458,
      -1.2417513132095337,
      -1.2774569988250732,
      -1.7734538316726685,
      -0.8826243877410889,
      2.020653009414673,
      1.9029837846755981,
      0.023429421707987785,
      -2.120150089263916,
      1.601822018623352,
      -2.4454879760742188,
      1.6992168426513672,
      -0.2079591602087021
    ],
    [
      -0.7882915735244751,
      -1.707875370979309,
      1.3984583616256714,
      -0.1141216903924942,
      1.7990025281906128,
      -1.0687086582183838,
      0.05558500811457634,
      0.8848398327827454,
      0.1723410189151764,
      0.13615819811820984,
      -0.7130542993545532,
      -1.2400717735290527,
      0.12375044077634811,
      1.3050462007522583,
      -0.3211689591407776,
      0.2754485011100769,
      -1.7832874059677124,
      0.12594926357269287,
      -1.2544646263122559,
      -0.928791344165802,
      -0.14098738133907318,
      -1.5166757106781006,
      0.2530100345611572,
      1.9789701700210571,
      0.33145520091056824,
      0.09637501090765,
      0.22335542738437653,
      0.32343560457229614,
      1.5317356586456299,
      1.557419776916504,
      -1.119749665260315,
      1.5980795621871948
    ],
    [
      -0.3208165466785431,
      1.4102848768234253,
      -0.8141574263572693,
      -0.12677228450775146,
      -0.12229181826114655,
      2.379873752593994,
      -0.5970574021339417,
      -0.5425701141357422,
      0.47817757725715637,
      -1.03024423122406,
      0.8873717188835144,
      1.0914798974990845,
      -0.4542912542819977,
      -0.14742350578308105,
      -0.016511403024196625,
      0.6094838380813599,
      0.579389750957489,
      -0.7281548976898193,
      0.11883550882339478,
      -0.4166415333747864,
      1.0194618701934814,
      -0.3000980019569397,
      1.5810338258743286,
      0.6053823828697205,
      0.33844512701034546,
      1.5810763835906982,
      1.837515950202942,
      -1.1617788076400757,
      1.5344585180282593,
      -1.32819664478302,
      1.7351133823394775,
      -1.5105525255203247
    ],
    [
      -4.571552276611328,
      -1.9399502277374268,
      -4.883849143981934,
      1.5056986808776855,
      -0.6280993819236755,
      0.7121721506118774,
      -2.325334310531616,
      -0.048532772809267044,
      -1.3289943933486938,
      -0.3868909478187561,
      1.2713453769683838,
      -0.556347668170929,
      -0.09486594796180725,
      -9.278199195861816,
      0.25064948201179504,
      0.8062141537666321,
      2.3559374809265137,
      -7.30866003036499,
      -2.0083847045898438,
      -1.216212511062622,
      -1.769464373588562,
      -0.46044957637786865,
      -2.5175626277923584,
      -1.035688877105713,
      1.827540636062622,
      -0.4669307768344879,
      0.8961688280105591,
      -0.05708210915327072,
      -1.9933264255523682,
      -1.2377513647079468,
      2.4380648136138916,
      -4.415038585662842
    ],
    [
      0.04935942962765694,
      1.159488320350647,
      -0.6307522058486938,
      -4.8323588371276855,
      -0.12262529879808426,
      0.5016153454780579,
      -0.05595432594418526,
      -3.908508777618408,
      -4.656185150146484,
      -0.5190873742103577,
      0.36629554629325867,
      -2.914592981338501,
      -0.3600271940231323,
      -3.921023368835449,
      0.1298229843378067,
      -0.16941405832767487,
      0.6447655558586121,
      -0.21155966818332672,
      -0.8721411824226379,
      0.8444612622261047,
      -0.4643424451351166,
      -1.144545316696167,
      2.041203260421753,
      -1.2050026655197144,
      -0.3332638144493103,
      1.7563532590866089,
      -15.28012466430664,
      -0.6205728054046631,
      -0.4385185241699219,
      -3.0631253719329834,
      0.8264428973197937,
      -0.8372005820274353
    ],
    [
      -4.546955108642578,
      -5.8979082107543945,
      -1.2475413084030151,
      0.003957744222134352,
      -0.9414375424385071,
      1.6754851341247559,
      -2.1757194995880127,
      1.4464064836502075,
      1.6086299419403076,
      3.212848663330078,
      0.9798453450202942,
      2.2947421073913574,
      0.02678445167839527,
      -0.656128466129303,
      -0.8617563843727112,
      -4.767550945281982,
      -1.8400211334228516,
      -0.14364847540855408,
      2.232816696166992,
      -0.5568727850914001,
      0.5930886268615723,
      0.007677165325731039,
      -0.2554836571216583,
      -0.49961087107658386,
      -0.6777787208557129,
      -0.15626928210258484,
      1.1398634910583496,
      0.7130346894264221,
      -0.32366958260536194,
      1.5972883701324463,
      -0.4129329323768616,
      0.5559812188148499
    ]
  ],
  "net.1.weight": [
    [
      -4.243788719177246,
      -4.2773542404174805,
      -4.122666358947754
    ],
    [
      -6.759140968322754,
      -5.990506172180176,
      -4.902261734008789
    ],
    [
      -3.8769237995147705,
      -3.4493958950042725,
      -2.8679447174072266
    ],
    [
      -0.41838252544403076,
      -0.4945365786552429,
      -1.3647021055221558
    ],
    [
      -0.5753615498542786,
      -0.4836861491203308,
      -0.316496342420578
    ],
    [
      1.2351150512695312,
      1.018651008605957,
      0.8029277920722961
    ],
    [
      -1.1311194896697998,
      -0.8617044687271118,
      -0.36701294779777527
    ],
    [
      1.2046018838882446,
      1.1098448038101196,
      0.6164069771766663
    ],
    [
      1.9715049266815186,
      1.3459985256195068,
      1.0768535137176514
    ],
    [
      -1.577260136604309,
      -1.5381721258163452,
      -1.557443380355835
    ],
    [
      -0.53481125831604,
      -0.48133835196495056,
      -0.3179273307323456
    ],
    [
      -3.3352322578430176,
      -3.068347692489624,
      -2.5242326259613037
    ],
    [
      -0.21831625699996948,
      -0.0739901214838028,
      0.3395678699016571
    ],
    [
      1.9228719472885132,
      2.659365653991699,
      3.8130857944488525
    ],
    [
      0.3517097532749176,
      0.06830529123544693,
      -0.4046730697154999
    ],
    [
      -3.3527326583862305,
      -3.2660117149353027,
      -2.9164609909057617
    ],
    [
      1.7346062660217285,
      1.7355965375900269,
      1.7934908866882324
    ],
    [
      -1.1032092571258545,
      -0.5187966227531433,
      0.3371175229549408
    ],
    [
      -0.9278802871704102,
      -0.7672264575958252,
      -0.4988784193992615
    ],
    [
      -0.12242115288972855,
      -0.22907932102680206,
      -0.5585103631019592
    ],
    [
      2.2589967250823975,
      1.8913217782974243,
      1.3857276439666748
    ],
    [
      0.5069355368614197,
      0.48865723609924316,
      0.362042099237442
    ],
    [
      -2.344165086746216,
      -2.3174591064453125,
      -2.418022632598877
    ],
    [
      -0.7284578084945679,
      -0.8077563643455505,
      -0.989564061164856
    ],
    [
      -0.7346271276473999,
      -0.7236813306808472,
      -0.8055124282836914
    ],
    [
      2.430603265762329,
      2.203378915786743,
      2.0229032039642334
    ],
    [
      -5.671461582183838,
      -6.285612106323242,
      -4.765868186950684
    ],
    [
      -0.8227899074554443,
      -0.7974945902824402,
      -0.7723653316497803
    ],
    [
      -1.182963252067566,
      -1.060081124305725,
      -1.2140982151031494
    ],
    [
      2.162353754043579,
      2.081021785736084,
      2.0880837440490723
    ],
    [
      -3.0258820056915283,
      -2.824256420135498,
      -2.7195253372192383
    ],
    [
      -2.146101713180542,
      -2.129441499710083,
      -2.2546756267547607
    ]
  ],
  "bound": 1.0,
  "cascade": 1
}