{
  "net.0.weight": [
    [
      0.7474075555801392,
      0.2750946879386902,
      0.5674697160720825,
      0.2544916868209839,
      0.20730458199977875,
      0.33424514532089233,
      0.4470641016960144,
      0.6859521269798279,
      0.928096354007721,
      0.3171185255050659,
      -0.13734406232833862,
      0.29048851132392883,
      0.4386378228664398,
      0.7767006158828735,
      0.6040127277374268,
      0.41566458344459534,
      0.6939914226531982,
      0.5426303744316101,
      1.3345550298690796,
      0.4376916289329529,
      0.2582900822162628,
      0.3330051600933075,
      0.36846908926963806,
      -0.2091440111398697,
      0.34736841917037964,
      -0.22030231356620789,
      0.05106270685791969,
      0.01266268640756607,
      0.4498215913772583,
      0.11999247968196869,
      0.3202686607837677,
      0.21757569909095764
    ],
    [
      -2.6956286430358887,
      -0.1302405148744583,
      -0.09230412542819977,
      -0.4659789502620697,
      -0.0404975600540638,
      -0.34447136521339417,
      1.5811911821365356,
      -0.04095901548862457,
      0.7872148752212524,
      0.7332355380058289,
      1.5880465507507324,
      -0.461970716714859,
      -0.6047667860984802,
      -0.29961246252059937,
      -1.2904493808746338,
      -0.2787298858165741,
      3.219693422317505,
      0.17525595426559448,
      -0.9798081517219543,
      -0.020753400400280952,
      -0.7518073320388794,
      0.16934137046337128,
      0.1601140946149826,
      1.6625498533248901,
      -0.3654623031616211,
      -0.4514797031879425,
      0.36960071325302124,
      1.6836016178131104,
      0.06703713536262512,
      0.025763798505067825,
      0.09624224901199341,
      1.2376452684402466
    ],
    [
      -0.7871419191360474,
      0.11018551886081696,
      0.0772211104631424,
      -2.2239949703216553,
      0.09615591913461685,
      -0.25060611963272095,
      -2.4241156578063965,
      1.842566967010498,
      -0.6707639098167419,
      1.2860971689224243,
      0.5306193828582764,
      -1.0915275812149048,
      1.0993016958236694,
      0.3330322206020355,
      1.1221054792404175,
      -0.4650964140892029,
      2.354503631591797,
      0.04108618572354317,
      -0.4830006957054138,
      -0.06407880783081055,
      0.5657095909118652,
      -0.2430531233549118,
      0.07030387967824936,
      -2.5587942600250244,
      1.110234022140503,
      -0.29721349477767944,
      3.0845189094543457,
      -1.7069852352142334,
      -0.1109229251742363,
      0.09963424503803253,
      0.0991867333650589,
      1.962581753730774
    ],
    [
      -1.395735263824463,
      -0.3026021420955658,
      -0.5981007218360901,
      -0.04172549769282341,
      -0.15839669108390808,
      0.7911295890808105,
      -0.9109243750572205,
      -0.2124308943748474,
      -0.8827305436134338,
      1.008310317993164,
      0.14394713938236237,
      0.7869774699211121,
      0.20820042490959167,
      0.36470866203308105,
      -0.0574260912835598,
      0.12801264226436615,
      0.9434893131256104,
      -0.40592440962791443,
      0.4631105661392212,
      -0.14273056387901306,
      0.730329155921936,
      -0.054386090487241745,
      0.1683824062347412,
      0.2332574725151062,
      0.6126076579093933,
      -0.28277572989463806,
      0.3090042173862457,
      0.3976488709449768,
      -0.19068795442581177,
      -0.03139273449778557,
      0.014860994182527065,
      1.1836040019989014
    ],
    [
      -0.17662492394447327,
      -0.4175720512866974,
      0.10737962275743484,
      -0.5185063481330872,
      -0.25251543521881104,
      0.743060290813446,
      -0.5428776741027832,
      0.22852441668510437,
      1.0362870693206787,
      0.9253577589988708,
      0.2854393720626831,
      0.9723176956176758,
      0.35057565569877625,
      0.8961722254753113,
      0.8815464973449707,
      0.6677908301353455,
      -0.08649125695228577,
      -0.28947773575782776,
      0.03521501272916794,
      -0.35951340198516846,
      0.7916008234024048,
      -0.33019670844078064,
      -0.4486587643623352,
      0.7114493250846863,
      0.9501867890357971,
      -0.5383009314537048,
      -0.9324344992637634,
      -1.8504328727722168,
      -0.3533172309398651,
      -0.48312097787857056,
      -0.3877076804637909,
      1.0366393327713013
    ],
    [
      -0.18724122643470764,
      -0.3305211067199707,
      -0.3688235282897949,
      -0.1441798210144043,
      -0.21826063096523285,
      0.46852099895477295,
      -1.27708899974823,
      0.19843895733356476,
      0.41853058338165283,
      -0.0007354483823291957,
      -1.9834398031234741,
      0.5734774470329285,
      0.1798471063375473,
      -0.03656332194805145,
      -1.226244330406189,
      0.5494431257247925,
      -1.326796054840088,
      -0.18872345983982086,
      0.1648954451084137,
      -0.22404392063617706,
      0.29038694500923157,
      -0.17529085278511047,
      -0.18430429697036743,
      -0.6241042017936707,
      0.2401951104402542,
      0.135697603225708,
      -1.2906599044799805,
      0.6786428093910217,
      0.17393289506435394,
      -0.37763166427612305,
      -0.5340591073036194,
      0.3120889961719513
    ]
  ],
  "net.1.weight": [
    [
      -2.7093725204467773,
      -2.8123743534088135,
      -2.937933921813965
    ],
    [
      0.16188828647136688,
      0.20485372841358185,
      0.03796067461371422
    ],
    [
      0.1336665004491806,
      0.08950820565223694,
      -0.11577387154102325
    ],
    [
      0.38127705454826355,
      0.44716641306877136,
      0.6251545548439026
    ],
    [
      -0.06663301587104797,
      0.0186765119433403,
      -0.04397723078727722
    ],
    [
      -0.3724616467952728,
      -0.3926694393157959,
      -0.4456782341003418
    ],
    [
      2.8331072330474854,
      2.6796493530273438,
      2.730989694595337
    ],
    [
      0.05757666379213333,
      0.36044397950172424,
      0.6954236626625061
    ],
    [
      0.40279683470726013,
      -0.8564794063568115,
      -0.027358662337064743
    ],
    [
      -0.6024193167686462,
      -0.6006932854652405,
      -0.42959168553352356
    ],
    [
      -1.8158198595046997,
      -1.9331401586532593,
      -2.2728426456451416
    ],
    [
      -0.4589940309524536,
      -0.49182263016700745,
      -0.6852965950965881
    ],
    [
      -0.35358306765556335,
      -0.1285943239927292,
      0.19286538660526276
    ],
    [
      -0.21144351363182068,
      -0.523247480392456,
      0.5679953098297119
    ],
    [
      1.5257400274276733,
      1.81342613697052,
      1.5774931907653809
    ],
    [
      0.02245725318789482,
      -0.16801483929157257,
      -0.3517884314060211
    ],
    [
      -2.9727227687835693,
      -2.7918121814727783,
      -3.095306634902954
    ],
    [
      -0.08737093955278397,
      -0.03495975211262703,
      -0.01511890534311533
    ],
    [
      1.3084112405776978,
      0.9976113438606262,
      -0.3612057864665985
    ],
    [
      -0.1810075342655182,
      0.16585856676101685,
      -0.1622234731912613
    ],
    [
      -0.4036180078983307,
      -0.26531094312667847,
      -0.3016313910484314
    ],
    [
      -0.07210034132003784,
      0.0334189310669899,
      -0.005003926809877157
    ],
    [
      0.0009592575952410698,
      -0.13966403901576996,
      -0.28019824624061584
    ],
    [
      -0.7925505042076111,
      -0.7721632122993469,
      -0.8563233017921448
    ],
    [
      -0.41491979360580444,
      -0.5330098271369934,
      -0.13157129287719727
    ],
    [
      0.2776578664779663,
      0.15592271089553833,
      -0.32658541202545166
    ],
    [
      -11.857441902160645,
      -12.315855979919434,
      -14.086651802062988
    ],
    [
      1.3485186100006104,
      1.303834319114685,
      1.472774863243103
    ],
    [
      -0.009217035956680775,
      -0.09318568557500839,
      -0.07225282490253448
    ],
    [
      0.07898247987031937,
      0.13302700221538544,
      0.41774019598960876
    ],
    [
      0.05668534338474274,
      0.19991184771060944,
      0.24540451169013977
    ],
    [
      -0.7263780832290649,
      -0.818678617477417,
      -1.245490312576294
    ]
  ],
  "bound": 4.0,
  "cascade": 3
}