{
  "net.0.weight": [
    [
      -0.4651634991168976,
      0.5586009621620178,
      0.25423622131347656,
      0.4964524507522583,
      0.03820066154003143,
      -0.4229208827018738,
      0.12495800107717514,
      -2.2246415615081787,
      -0.06458617001771927,
      -0.818244457244873,
      0.02017734758555889,
      1.3455406427383423,
      -0.17479296028614044,
      0.9459396004676819,
      0.10841850191354752,
      0.8105211853981018,
      0.12638311088085175,
      -0.9646880030632019,
      0.0014319708570837975,
      1.7486777305603027,
      -1.778078556060791,
      0.7920535206794739,
      1.5738719701766968,
      -1.1312364339828491,
      0.3248634338378906,
      -0.19997993111610413,
      -0.3604326844215393,
      -0.5099605917930603,
      -1.1395632028579712,
      0.20006224513053894,
      0.6533015966415405,
      -0.7200467586517334
    ],
    [
      1.3993809223175049,
      1.6824380159378052,
      0.009663240052759647,
      -1.6208480596542358,
      -1.5824215412139893,
      -0.028740674257278442,
      0.03749297186732292,
      0.2227577567100525,
      -0.22881078720092773,
      -0.9009824991226196,
      1.622775912284851,
      0.8608679175376892,
      1.1937806606292725,
      0.07354502379894257,
      0.5372515916824341,
      0.23417937755584717,
      -0.044129081070423126,
      0.3254905045032501,
      -1.1618670225143433,
      0.21331864595413208,
      0.8294072151184082,
      -0.9986169338226318,
      -0.4807012975215912,
      -0.05845040827989578,
      -0.08473153412342072,
      1.6618789434432983,
      -1.912739634513855,
      0.5713917016983032,
      -0.01636222004890442,
      -0.7684358358383179,
      0.8894702196121216,
      -0.3313756287097931
    ],
    [
      -1.1934939622879028,
      0.083383709192276,
      -1.3464906215667725,
      0.45624926686286926,
      0.6806540489196777,
      -0.11998467892408371,
      0.5649649500846863,
      0.45650714635849,
      -1.9772939682006836,
      -1.1739088296890259,
      0.024078894406557083,
      0.6730508804321289,
      -0.6282570958137512,
      0.037511713802814484,
      0.9323883652687073,
      -0.12311023473739624,
      0.3326794505119324,
      -1.7080230712890625,
      0.6348880529403687,
      -0.8572854995727539,
      0.6363323330879211,
      0.28789764642715454,
      -0.06967928260564804,
      1.5802186727523804,
      -0.15591782331466675,
      -0.26615118980407715,
      -0.798984706401825,
      -0.6819987893104553,
      0.4228193759918213,
      0.7583513259887695,
      3.783332109451294,
      -1.2100088596343994
    ],
    [
      -2.4689106941223145,
      -0.34389033913612366,
      -2.818079710006714,
      -2.059154987335205,
      -0.7036666870117188,
      0.24055229127407074,
      -1.162065863609314,
      -1.9202227592468262,
      -0.4125925898551941,
      -2.4081978797912598,
      0.21716876327991486,
      -1.541690468788147,
      -1.0968129634857178,
      -1.0562947988510132,
      0.04045058414340019,
      -1.815176248550415,
      -0.28511664271354675,
      -1.6968142986297607,
      -0.3480733633041382,
      0.986485481262207,
      -1.7941094636917114,
      0.1462177336215973,
      -0.6491169333457947,
      -1.0090420246124268,
      0.44698095321655273,
      -1.3429391384124756,
      -2.91894268989563,
      -5.566636562347412,
      -0.31317251920700073,
      0.14319941401481628,
      -0.21334221959114075,
      -0.27559664845466614
    ],
    [
      -0.22037984430789948,
      1.8008822202682495,
      -0.03415485471487045,
      1.4642952680587769,
      -3.5371551513671875,
      0.34614238142967224,
      1.373337745666504,
      -0.06536988914012909,
      -2.6906752586364746,
      -2.5062596797943115,
      -0.20064686238765717,
      1.4104796648025513,
      0.8587360978126526,
      1.322892189025879,
      1.3633911609649658,
      -0.8741264939308167,
      0.5338336825370789,
      -1.4991339445114136,
      -0.30490219593048096,
      -0.23461975157260895,
      1.0077178478240967,
      -11.768250465393066,
      -1.7786356210708618,
      0.34430423378944397,
      -3.6072661876678467,
      -5.741304397583008,
      -0.5287765264511108,
      -0.16415852308273315,
      0.9766180515289307,
      -0.24213644862174988,
      -2.2447588443756104,
      -1.8991831541061401
    ],
    [
      -3.9758057594299316,
      -4.419722080230713,
      -1.2757432460784912,
      -2.1591012477874756,
      0.872565507888794,
      -38.852481842041016,
      -0.7525345683097839,
      -0.3399454355239868,
      -1.902026653289795,
      0.27309340238571167,
      -0.4105082154273987,
      -5.371585845947266,
      -0.639816164970398,
      -0.29867425560951233,
      -0.5427038669586182,
      -0.8685789704322815,
      0.5681216716766357,
      -0.8925323486328125,
      2.1176140308380127,
      -1.2614848613739014,
      1.3551017045974731,
      0.5093547701835632,
      1.3192261457443237,
      1.6192289590835571,
      0.16382823884487152,
      -1.510061264038086,
      -1.037885308265686,
      0.6444703936576843,
      1.2730321884155273,
      0.1115812435746193,
      -0.4246829152107239,
      1.484153151512146
    ]
  ],
  "net.1.weight": [
    [
      -2.1156294345855713,
      -1.872316837310791,
      -1.3193390369415283
    ],
    [
      -1.2448182106018066,
      -1.4246984720230103,
      -1.5409364700317383
    ],
    [
      1.1243230104446411,
      1.316650390625,
      1.2668051719665527
    ],
    [
      -1.3023509979248047,
      -1.229270100593567,
      -1.0155893564224243
    ],
    [
      0.8198597431182861,
      0.8690475225448608,
      0.8008469343185425
    ],
    [
      0.3434063196182251,
      -0.3123105466365814,
      -1.1837960481643677
    ],
    [
      0.5762919783592224,
      0.04534047469496727,
      -0.6901034116744995
    ],
    [
      1.4686286449432373,
      1.6347200870513916,
      1.699772596359253
    ],
    [
      -1.653894305229187,
      -1.7094995975494385,
      -1.718662142753601
    ],
    [
      -0.9228627681732178,
      -0.8130968809127808,
      -0.589596688747406
    ],
    [
      0.3228141665458679,
      0.35495731234550476,
      0.2842249870300293
    ],
    [
      2.0300467014312744,
      2.266875743865967,
      2.3612093925476074
    ],
    [
      0.2888059914112091,
      0.36380159854888916,
      0.45878005027770996
    ],
    [
      -0.6221210956573486,
      -0.43009090423583984,
      -0.15040288865566254
    ],
    [
      -0.3720386326313019,
      -0.23621539771556854,
      -0.0171524491161108
    ],
    [
      0.19876430928707123,
      -0.36998888850212097,
      -1.1119097471237183
    ],
    [
      0.2967909276485443,
      0.10543746501207352,
      -0.2433035671710968
    ],
    [
      -0.46373212337493896,
      -0.8047561645507812,
      -1.1144639253616333
    ],
    [
      -0.6828656196594238,
      -0.5575447678565979,
      -0.29281872510910034
    ],
    [
      -0.6733802556991577,
      -0.7413083910942078,
      -0.7622499465942383
    ],
    [
      -1.219512701034546,
      -1.3854604959487915,
      -1.4767097234725952
    ],
    [
      -1.3618359565734863,
      -1.1683571338653564,
      -0.7227511405944824
    ],
    [
      0.9098477959632874,
      0.9481618404388428,
      0.8923636078834534
    ],
    [
      -0.5041139125823975,
      -0.5947323441505432,
      -0.607812762260437
    ],
    [
      0.3122376501560211,
      -0.06813335418701172,
      -0.6599814295768738
    ],
    [
      2.303928852081299,
      2.264971971511841,
      1.8657389879226685
    ],
    [
      -1.3693642616271973,
      -1.7142884731292725,
      -2.038386344909668
    ],
    [
      -1.5958036184310913,
      -1.529287576675415,
      -1.300885558128357
    ],
    [
      0.33923742175102234,
      0.4473242163658142,
      0.5170438885688782
    ],
    [
      0.4450819492340088,
      0.24531179666519165,
      -0.19969841837882996
    ],
    [
      -0.4648844599723816,
      -0.33823931217193604,
      -0.0634935200214386
    ],
    [
      -0.4277235269546509,
      -0.48946502804756165,
      -0.590398371219635
    ]
  ],
  "bound": 1.0,
  "cascade": 1
}